2.868965632004421076e-02 -2.477200149837349361e-02 1.660734283940418915e-02 -9.277040956884405332e-03 4.244831019395069877e-03 2.502104265867332103e-02 5.526622372747620054e-02 -8.892482873622608447e-03 2.677251935422044968e-02 2.355848624554225082e-04 -1.319697574818224327e-02 -6.173057800304336713e-03 1.375307955388580319e-02 -2.894592940486632668e-02 4.975955683694616161e-02 -1.737296872465656644e-02 8.582579591678751035e-03 -1.430560047605095898e-02 4.446333601129622004e-02 1.031590048075540014e-02 -3.627222262428834564e-03 -1.977214076799276021e-02 1.606772417701512676e-02 -2.478819347366581494e-02 -3.763781429230940619e-03 1.311269283600355849e-02 4.873368243224877883e-02 9.269325480209301277e-03 -1.509196973954098422e-02 -3.640574898050012026e-02 3.565127232942794794e-02 4.188079070325227693e-02 -2.453483523978945008e-02 2.392563653489840000e-02 -3.350169682496861867e-02 2.853502470682815761e-02 -9.711665171743847844e-04 -8.281828183211312200e-03 1.620636801868863969e-02 -4.104547001234488263e-02 -1.127349015030045497e-02 3.627792425597651648e-03 2.022987974640062456e-02 -2.569294566582449452e-02 5.388614406241090671e-02 7.864957340973418448e-03 -6.372572785751340341e-02 2.969796465523670548e-02 -1.639737864981537230e-02 1.868139927660349489e-02 5.248125524660303409e-02 -2.997610797522239773e-02 8.368440470836707723e-03 4.509534556885508305e-02 6.049026530448502279e-04 5.128902925861947293e-02 -1.566664361422304488e-02 7.384035072059345894e-02 1.803428053726446889e-04 -2.028736613578969311e-02 -8.758308306242367641e-03 1.019846848595602241e-02 8.723564635785798632e-03 -2.446746820013674314e-02 1.673340235590097327e-02 -1.810182690083030413e-02 8.005573085120950422e-03 4.615138204198091995e-03 -5.458068309525859751e-02 9.456843380005752059e-03 1.529115973916750013e-02 3.176633823123325030e-03 3.027373289989875732e-02 -3.397148207083444671e-02 -2.100108127101244296e-02 4.344361169021581509e-02 -2.172831251446109835e-02 5.946523500943269938e-03 -2.513014675559455471e-02 -3.420087476280927324e-02 -1.197058643778156975e-02 -2.277866877110379731e-02 -7.952141273797464979e-03 2.681282124025297781e-02 6.154634747850430861e-03 -6.308576883103400937e-03 6.634876927545555608e-03 -7.027848232326769362e-02 6.825659594011676632e-04 -9.492411719335323156e-03 4.128877468173886706e-02 -8.972595969165166052e-02 8.715371056749007805e-03 6.346055868982176766e-03 -1.004696203361183510e-02 -2.587206593733659774e-03 -2.523733931379076173e-02 -2.416108171801495744e-02 3.704819164677732035e-02 4.486820514825337614e-03 3.768128468777891954e-02 -1.511578105546132131e-02 9.700228673577622474e-03 1.553244417500193771e-02 -3.926379018652838976e-02 -1.824605685988242229e-02 6.796301711955150815e-02 -4.535105193747954178e-02 -2.652122569251046807e-02 -3.402200206420449846e-02 4.674895492718274953e-02 2.467154415250093907e-02 -4.266420178293894166e-02 -1.165657295804850384e-02 4.233083850602588349e-02 -1.257784254900230422e-02 1.938047739241454542e-02 6.810463935834822503e-04 -3.859884491506597459e-02 4.535683783144480591e-02 3.484797751028145818e-02 2.832991589399776883e-02 1.530486840211086469e-02 8.444477502314085005e-03 -4.865460624308370202e-02 -2.632957636095682036e-02 -3.931971018907362038e-03 -2.151153304877987185e-02 3.419759709955604715e-02 2.089861299872000991e-02 1.206971538859198841e-02 -1.396262937057903865e-02 1.500822313894400670e-02 1.714548531081035859e-02 -1.168269789368354267e-02 5.193557761454942190e-02 -2.989042254198912701e-02 -1.969170723642243298e-02 -2.864946569702964824e-02 -2.438771799155943845e-02 2.855545858327881298e-02 2.095246380840835171e-02 5.231073117509504877e-02 1.402257988336681749e-02 1.897755909309406519e-02 1.690713779414921084e-02 -1.966910434264662264e-02 -4.488041899613497837e-02 8.767728824060129836e-03 4.207713235892070192e-02 4.645362873460477660e-02 -3.076185315327020428e-02 -1.700934517578513855e-02 3.476382733357608057e-02 3.194572423276196421e-02 -5.173802725314927825e-03 4.297216718663882280e-03 -2.409965010861753187e-02 -5.419174965217819773e-02 -4.256779153347642342e-02 -6.279718954394706816e-04 8.545113347812603385e-03 -8.778987923669058155e-03 -2.313543650276463776e-02 1.150193603272858280e-02 -4.015219616909245469e-03 5.573112315535814348e-06 -8.047962783849520532e-03 4.926085451251556273e-03 1.990674234986211308e-02 2.206936953258993236e-02 -2.042952407531133455e-02 1.407615075612410165e-02 6.405484583785887170e-03 -6.293974783275023757e-03 -3.512144893325729045e-02 6.338151630752726293e-03 -2.660271262381768299e-03 2.459511441433243073e-02 2.281445209011376610e-02 -2.786465119048084013e-02 4.942673338497678530e-03 -3.013600014607117124e-03 4.560641094152972225e-02 2.251179942885595670e-02 -4.287937076321350627e-02 5.607826943756960558e-02 -3.252495103297160794e-02 -9.511569699572359343e-03 -2.895814193542662479e-02 -7.422689575343963120e-04 5.431820191501157691e-02 -2.905093005237967610e-02 4.917760052323192840e-03 -5.828379630186775184e-02 -3.654462228600396240e-02 5.584523891291676145e-02 3.495023942833622860e-02 1.569789967807070198e-03 -4.682279150182611094e-02 -4.590240705639527657e-02 -2.144425421711349672e-02 -2.998530955381986662e-02 -2.514232485481072629e-02 2.301518758842254278e-02 -1.786092773346021484e-02 8.538380838463999548e-03 -3.110213306115524809e-02 -1.190247478575105766e-02 -4.649305248613102431e-02 1.322242132276101566e-02 -6.363999959203654744e-02 2.602113454813442459e-02 3.119618977670550811e-02 3.658448488865335274e-02 -1.380610695580053622e-02 4.252543203755352469e-02 -7.015405128495634524e-02 -5.094193980515155512e-02 2.819122003751175359e-02 3.542480032928836675e-02 6.505884335243943689e-03 3.636609714816751993e-02 -3.726008554551862861e-02 1.053498089039481105e-02 -4.562402466107276511e-02 -1.332812224216785649e-02 -3.669687059465670531e-02 -1.277568478754830331e-02 -3.142652667993294652e-02 3.693455552810453318e-02 4.182740924483169601e-03 -3.391505749271969683e-02 1.813519460892203117e-02 -8.958130139652454877e-04 -1.320224749414445828e-02 4.878264193729915134e-03 1.606326036041033373e-03 5.788835219344173888e-03 1.438534117447992471e-02 1.342642095640762118e-02 -8.774729897322893282e-03 -8.709627377077439753e-03 8.876992536674737852e-03 -3.041527867395680748e-02 -2.991641056413022609e-02 6.067824594316489212e-02 -5.346356788429293232e-03 6.354280314031660395e-04 -3.653976090868137419e-03 3.714169052273403465e-02 -4.780115342214075885e-02 1.035618467771952378e-02 -4.041414537485599895e-02 -4.259138330584161594e-03 -2.972543067593135316e-02 1.214054908612785706e-02 -8.156103725752259989e-03 8.465084783830853846e-03 1.741069655812743644e-02 1.901136136082697686e-02 -6.415316154526273795e-02 -4.506335994421890173e-02 -1.609318897825331995e-02 -4.161830325949853956e-03 3.628876673636791377e-03 -2.190491922298751573e-02 2.557592709726965938e-02 3.528775528987429522e-02 -3.314193554675621406e-02 -3.179280673348306840e-03 -6.502924098294476929e-03 8.223159964879387177e-03 2.361640966162597763e-02 -8.563243144759247194e-02 6.032280841221201312e-03 4.631768914072664778e-02 -1.073024597774341208e-03 4.180408641074365161e-02 7.824679019505514574e-03 -1.957956951115767674e-02 -2.215777087638078416e-02 -3.822499434626707056e-03 4.116007581251168029e-02 1.879730577673659891e-02 -1.208005050316611137e-02 1.791091540616093422e-02 -1.705559077280812894e-02 4.055468191147710948e-03 -1.067618012156734165e-02 -1.530630311250130195e-02 -3.198102395627771405e-02 6.315163024553618193e-03 -9.851768934229298419e-03 1.361113406180419587e-02 -1.099416349967676822e-02 1.597659822056124099e-02 1.516105286678031024e-02 -7.270527738951423902e-02 4.894506972410252177e-02 -2.769631740033856506e-03 -1.032359333789547272e-02 -2.058123039306967647e-03 -8.995990220637037002e-03 4.667864496462630769e-02 1.768464760187523840e-02 -3.921571747457591912e-03 -4.697924229628333732e-03 6.627763853590164103e-04 1.597523655974777317e-03 -3.791922482982131026e-02 1.471304003862883118e-02 1.724608577281407790e-02 1.970176502994961873e-02 1.060538825958664590e-02 -7.477357022347866193e-03 -3.674694216157388480e-03 6.602717838869761116e-03 2.076015718622592141e-02 -2.634108745194674306e-02 5.288542951793219135e-03 -2.942904384927956876e-02 2.986161632172655914e-02 3.747623003192250557e-02 1.239140335143470648e-02 6.319201159122629988e-03 -7.168421870710033604e-05 -2.937332890416787141e-03 -1.325869401602908573e-02 -4.556602521575073977e-02 2.335667863969615593e-02 -6.557758138500287964e-03 3.614653895884042262e-02 -1.284380045140771876e-03 -1.367484606869933186e-02 2.892052468512047031e-02 2.826512521873147943e-02 -1.005477824708988360e-02 -1.501835392754122429e-02 9.056154271781418838e-03 -5.037789035873940779e-02 -1.688881831052284690e-02 -1.409283362407017914e-03 -1.439959047761202315e-02 6.835714623088004482e-02 -2.106876403105611972e-02 -1.660665381407119834e-02 -4.319105382354961054e-02 5.474570950318898011e-05 3.262967685460507229e-03 -1.349916775290464256e-03 -1.319230858279521468e-02 5.760868591168006626e-03 2.859688609408799279e-02 1.178253461791554414e-03 3.917320837479982919e-05 -3.915625607395815250e-02 2.283651817376189039e-02 -2.605687324873992051e-03 -4.012054665796368352e-02 2.805163209419927334e-02 6.808532279678849997e-02 3.068960159638606505e-03 2.324900323082925574e-02 -3.654546617643301964e-02 -1.506962429096065335e-02 -4.357780510104956179e-02 -4.698156459054060596e-03 -2.689680775276416871e-02 1.802226093082249375e-02 -1.507848796247881172e-02 4.492929984105008961e-02 3.360495196631325260e-02 -1.163282314793838770e-02 5.321862262617046979e-02 -3.105886614375351698e-02 -2.814583043976898874e-02 -4.756864901492612041e-02 -2.173260967635845184e-02 2.447447222807391104e-02 5.221607938057092632e-05 2.421130259619005617e-03 -1.243202915646379053e-02 7.758129352970634385e-02 -1.470710424759070004e-02 4.953553181506523823e-02 -1.859581477693064699e-02 3.725428004765686529e-02 4.658712667131151980e-02 -2.807478409114311235e-02 2.265390162819757094e-02 -8.975998538139391345e-03 2.786390367432322115e-02 1.829838165564975569e-02 9.868487997258630282e-03 -5.862226332944682483e-02 -2.683481403109260269e-02 -2.424281548098963790e-02 -4.724787689181449840e-02 -3.155663165469358572e-02 -9.244473389402487265e-03 -1.479666420889939708e-02 1.636011234926496374e-02 4.409318744176348760e-03 -1.427124990872783404e-02 -5.008537960552546936e-02 -7.833781147846453560e-03 3.739975970203127109e-02 4.765208397771319992e-02 1.956180665699152124e-02 3.451636473257894966e-02 1.461574018289005933e-02 -4.232489495933168533e-02 -3.192248130108649162e-02 -6.558183374810211061e-03 -2.343513716917305922e-02 -3.286571664932317477e-02 -1.818786794135338752e-02 -2.225631960187759214e-03 -3.987462309635203539e-02 3.670037913023595222e-02 1.223154637215929236e-02 5.015294856467926443e-02 3.222438558837112388e-02 6.635848983266827081e-03 1.370355543528737653e-02 1.724247036487667681e-02 -2.899286906846521711e-02 2.720346355045439105e-02 -4.912080251447788898e-02 1.306359158338530821e-02 -1.473355932468435082e-02 4.811539114024584139e-03 -8.735490191291685885e-03 -3.617750866500221013e-02 4.620311006491008461e-03 -4.038861573156067239e-03 5.679347187860931540e-02 -4.447385767726114332e-03 4.747144786191190291e-03 -1.024929528589464331e-02 1.315048064642053600e-02 -3.861021071643565283e-02 1.834882728234746643e-02 -1.065402438032252708e-01 -4.096898053752903723e-02 -3.102138973961693011e-02 -1.106113616027240149e-01 2.189310422874334375e-02 2.207760091497247557e-02 1.155888248384104311e-02 1.615394242573525360e-02 8.240790436757437082e-05 -6.608332402592924891e-03 -3.161105182005920916e-02 -3.633296709681656939e-02 -3.799482658714585515e-02 3.561961935553589753e-02 -2.832101215753171902e-04 2.893723245409474121e-02 7.311801274592966138e-03 -1.945588233784126958e-02 -1.126432147520381455e-02 4.622754210438505262e-02 -2.185184150776112166e-02 3.875606995274713529e-02 -1.093034340304696456e-01 3.721184748852048724e-02 -5.091863660577660572e-03 5.073534726921634375e-02 -1.372354188808158799e-02 1.332483035007642029e-02 1.811941579411630379e-02 2.160163035087887470e-02 -9.129382258518741258e-03 3.760677810387907938e-02 -4.253040962708655448e-02 -2.184032216916983321e-02 2.322722486895961724e-01 2.785558418204853171e-03 -9.812613993196843756e-03 -8.046508409251688088e-01 -4.826026950226283696e-02 -1.926662512061038182e-02 -1.521786507940464488e-02 -2.118883716213864482e-02 -3.562556427203626783e-03 -1.085560762387635138e-02 -7.883980439476032456e-03 1.569421296404812163e-02 -2.369619596474355910e-03 -1.590395607076224849e-01 -1.913829768610243037e-02 9.204537761198812798e-03 -5.127232894580732205e-03 -6.346781901883533084e-02 -5.067483979161088725e-02 -2.456607207612446220e-02 -2.489288927913889046e-02 2.004745305522656271e-02 3.951463654715316187e-02 9.165551860273393617e-04 2.213613893851471698e-04 -1.165113178855414072e-01 2.960311603851751780e-03 9.477883859908367917e-03 -2.826419343309803309e-02 3.761586178410838543e-03 -3.620964427312009515e-03 1.282052921242685106e-02 -1.643249201625910511e-02 1.649826550494204328e-03 4.592792332635278058e-02 3.806480660210735667e-02 -1.190519703965927864e-02 8.374138095111187960e-05 5.297560114595457892e-03 4.176848223899640167e-02 -2.483954404626822696e-02 -2.856342645991447049e-02 7.795786800478547024e-03 -1.846177879715405184e-03 -2.266440703384026145e-02 -2.174265389229560613e-02 1.638778185838035304e-03 2.010798465531496437e-02 3.004223938861713336e-02 5.321912287164978078e-02 1.088440346756187893e-02 2.530580251812956927e-02 -2.035687950664279502e-02 8.330891524774177012e-04 -3.029508634722152816e-02 -3.441521444939255742e-02 -1.908700153114700543e-03 -6.687717780152116877e-04 1.529017797113528011e-02 -4.695269079471239664e-03 3.814721457623440615e-02 -1.836431457820275615e-02 1.318462885127644722e-02 -1.096854856629001992e-02 2.007334847992296376e-02 2.887977885884639509e-02 1.961830144783266797e-02 3.486808477196166878e-02 -4.962456336680412528e-02 6.493556928515609172e-03 -1.556088241627434365e-01 5.515470260785627216e-03 4.025783019271193808e-03 -6.661872210613136412e-03 -4.099062636686715694e-02 -2.506501564835245457e-02 3.325637729509581947e-02 1.332819608216524905e-02 5.165727046556367651e-04 -3.971025506352217523e-04 -5.346111250677462040e-03 1.255372221568220280e-02 2.364669110741950825e-02 -1.322045895209740876e-02 -6.525245453809331089e-03 2.958445024016774852e-02 5.007105010714683890e-03 -2.066499005517192372e-02 8.836040596336643127e-03 -4.184674719822365635e-02 -8.364040590976598924e-03 1.588914421023699119e-01 -1.393506694439633660e-02 -6.878294592936175234e-02 1.853490469236676813e-03 -5.739511838061768512e-03 -1.378685511602480325e-02 -1.016988222526260185e-02 1.364418516487483739e-02 -3.258169062856269144e-02 1.188595152277126081e-02 2.734169895769325911e-02 -2.537193425614926376e-02 2.608613459337886034e-02 -1.438766049910075034e-02 7.632669845761847621e-03 -2.137370758210755187e-02 3.651580720057084894e-02 -4.406193096328825387e-02 -4.579747527325823096e-03 -3.287458560627854603e-02 -4.786326135596147280e-02 1.101236121037769272e-02 -2.825431239933956507e-02 1.531663608258423612e-02 2.390363047048229411e-03 1.698206763047268100e-02 3.843967509712995119e-03 6.829726481511254332e-02 2.318970867993791832e-02 2.883774812044418573e-02 -8.949641080592710823e-03 -1.319435908874007010e-02 -5.537309426181497886e-03 3.470469871225098039e-03 1.562992669099658952e-03 4.570404415182708485e-02 -3.019543894612209886e-02 -1.349801559328282557e-03 -3.149140173451733804e-02 5.085900952839129963e-02 -1.767707440191752105e-02 -3.375552582602539542e-02 -2.673281132401685717e-02 5.680603317717588564e-03 1.460735076559701098e-02 9.844893202412920152e-03 -6.456606416830372452e-03 2.633693033255171331e-02 2.063121336125340460e-02 2.427283284372626273e-03 2.242377721364014614e-02 1.032885486630001279e-02 -2.692932323109876319e-02 2.252912340400000865e-02 -1.630007287801100643e-02 -6.188130804623446883e-03 7.222376109904234120e-03 2.924134298740682647e-02 -1.828683843867805539e-02 7.408969121539720620e-03 -2.723148445572720275e-02 -1.066136704376933857e-02 -8.439180574233514157e-03 -1.295330305635484791e-01 1.757798486552095488e-02 -2.585169334615043668e-02 3.321896646052757262e-03 2.512315165030025790e-02 -1.385006160615135339e-02 2.283148825551847838e-02 2.575768940601081206e-02 3.494527883349200087e-02 -2.083147535286273763e-02 1.738367214271846137e-02 -3.185079549677874433e-02 -2.196647670217958051e-02 6.101363872791820860e-03 1.355890982990883703e-02 9.906934050423902086e-03 9.439414068934722651e-03 9.310751519167331444e-03 1.921466026126057713e-02 2.524202167114657225e-02 2.456678090780008410e-03 2.507164515892476575e-02 -4.536081521664052374e-02 4.707427439362663751e-02 -1.412909337592828732e-02 3.715313280698716997e-02 -1.748583130101577510e-02 2.526208712911920742e-02 -6.297246843436138906e-03 -2.395372596021340741e-02 3.819495728305800225e-02 -2.729879847117995528e-02 4.661227084609264465e-03 -1.637286925226299344e-02 2.186398340329170215e-02 3.433346431522074638e-02 -2.815418019816649103e-02 4.177356414533411888e-02 -7.100662277711841663e-02 -3.097363397056688856e-04 3.587602210803753858e-03 -2.279615799544091465e-02 -3.100552779934429709e-02 -2.922690079671697722e-02 2.446130615395652672e-02 2.175685928894074417e-01 -5.159411320713572918e-02 -3.564106484336865971e-02 1.010058731579342728e-02 -1.318283647087213281e-02 1.412631886701102429e-02 -4.177189496890672260e-03 1.325218511388382391e-02 -1.885375072141516270e-02 9.070571154041777093e-03 2.169055062771652054e-02 -2.042329826068744938e-03 -3.762651110987576264e-02 4.824462689908173840e-02 -4.781309751280454073e-02 -2.732724225767469220e-02 -6.747035354225370575e-03 3.978535283900783148e-02 1.288049376727269484e-02 2.597211578921165137e-02 -1.238574020820654847e-02 -2.276994676742565265e-03 3.514563375197164198e-03 2.703510252975218839e-02 -2.525949325208621307e-03 -1.471938842152221635e-02 1.880411425110358609e-02 3.686275538916589795e-02 -1.153002643845984533e-02 -1.538461247949183576e-02 1.612948361808561396e-02 1.232389474780181370e-02 -3.520641632558918575e-03 4.381467860500808109e-02 3.750598611822529658e-03 -1.070099438537024800e-02 -7.973889191001387947e-03 -3.928557973901991573e-02 8.674406375252282763e-04 -2.256040672526840596e-02 -4.587996293570170345e-03 -3.239306167997896974e-02 1.172688394240199716e-02 -2.459706965610828494e-02 6.713007793906614930e-03 -9.117202501279387389e-03 -4.797338490817860956e-02 4.274074949784087418e-03 3.145201712216008638e-02 -2.823725772822904476e-02 2.333486084277281228e-02 -9.405157290299519593e-03 -1.172167923778906634e-01 1.726232240410407320e-02 -2.733512113840013812e-03 -2.972469602194854205e-02 1.473497954697421987e-02 -1.780905209299359776e-02 1.318804417964348531e-02 -6.219912720806376055e-02 -8.573464895339650768e-03 -2.982723395751771744e-05 4.460323679509556327e-02 -6.209659962072137246e-02 6.050297527594458193e-03 2.314784680432356578e-03 -1.050775777831445233e-02 3.252214127270423166e-02 -2.311457925146676584e-01 -5.023348375638891222e-02 -1.892384232948642053e-02 -4.739277526924185781e-03 -2.096293003683808581e-02 6.676445913357594020e-03 2.640633373252042337e-02 -1.006980498944469449e-02 -1.716344383797362497e-02 -7.294978543178764910e-04 -2.679439098456608964e-02 5.637931876242253774e-03 2.228817299318618800e-02 2.910064085960666763e-02 1.813314537985531369e-02 2.969412382535297629e-02 -3.099311310222957819e-02 8.805870065419548615e-03 1.434397008918920739e-02 8.139249198835988783e-03 4.532542105723040560e-02 2.387256519220326383e-03 1.564042559598839352e-02 7.674879310482260030e-04 -1.114423104127654565e-02 -1.407459847005674766e-02 -1.140354440525100967e-02 -3.227829172713861383e-02 4.592619921357393026e-02 -1.216327045045359836e-02 -7.292099437762862221e-03 -1.394927000902866122e-02 2.930708943293131724e-02 7.655794209793888479e-03 1.329549508238086347e-02 1.132101803970450918e-02 -5.731353458146817847e-02 -4.951185760688262688e-03 -2.955266874681278591e-03 -2.393188451139111397e-02 2.032984031279241183e-03 -3.531476297059409075e-02 -3.169003377823721018e-02 1.633058714682851867e-02 -2.012390177268847183e-02 -2.020089796174030783e-02 -1.092859469195907839e-02 -2.762619239162440732e-02 -4.409004846444260217e-02 -7.226572694334080149e-04 1.393233282522365543e-02 -8.714927274453384415e-03 -4.441565160516374594e-02 -1.350990867320365357e-02 -4.100814305849206573e-03 -4.755410891458570349e-02 3.335551680410550612e-02 1.754869355151553179e-03 -4.904366611929944497e-02 -3.980222508573410221e-03 -4.179659572190261296e-02 4.579419448958363392e-02 -2.239006026324467241e-02 2.011406139825596892e-02 7.777826264557405334e-03 2.956732283709794309e-02 -4.404896430117724582e-03 -1.228390399241215646e-02 6.819457552423287792e-03 -1.930795472265032370e-02 1.965547695851054336e-02 1.199775860520468224e-02 3.082087335020728888e-02 -7.426698584381656587e-03 -1.046894918823885155e-02 -6.170177874831594966e-03 2.021675857120812381e-02 -1.720439911813353637e-02 2.916412563360559762e-02 -2.419189380360922681e-02 4.016969868598386367e-02 -4.592744516112075119e-03 1.105737874733082188e-02 8.604274644998527108e-03 -2.330013847392998702e-02 -2.608464227055158277e-02 1.225237884828783014e-02 1.972720104113317302e-02 2.783505415777260544e-02 -1.226781714902200164e-02 -3.422426503068809467e-02 3.251969892609415241e-02 1.854436283124523410e-02 2.167733934192975914e-02 -2.114034964620251783e-02 2.262022271559823230e-02 2.989075070609880855e-02 -6.968116500264762668e-03 -4.878108143511466349e-02 6.490524082918480361e-03 3.924230337925347332e-03 3.117539751569962849e-04 9.192969884172216832e-03 -1.264203007821404837e-02 2.660010385027285207e-02 -2.227404523134784986e-02 -9.386189541664763034e-03 1.034778842377674993e-02 4.097057779662170024e-02 -3.277456522184111348e-02 -3.342617574624937721e-02 7.774506512540713468e-03 2.213657215792627642e-02 2.836171431980854390e-02 1.694616407669167005e-02 4.020616699485463769e-03 -4.341452883151369728e-03 1.311045530923183287e-02 -1.955055727255477702e-02 -2.058544642976307959e-02 -1.165761077192428025e-02 -2.534426539500765976e-02 2.919921340563592753e-03 1.074067734420669495e-01 -2.406114549325313531e-02 -5.961085735568859810e-03 2.211076715698818973e-02 -3.121368154852882919e-03 2.491821749208387462e-04 -2.718401758798316345e-02 7.157529896675479675e-03 -1.081811370682157075e-02 3.280636759262226670e-02 -2.270991591331659662e-02 -1.865931760527785380e-02 -1.197907015384121546e-02 2.291992320586904580e-02 -5.028232514306797338e-03 -2.133359230041843857e-02 -3.688156790828271692e-02 -1.438562927608256700e-02 -5.598421509378379880e-03 2.590771574809895908e-02 -3.418515139741840070e-02 2.304077830905054344e-02 -2.779078453755134091e-03 -2.023962542241705340e-02 2.638569613399513805e-02 4.040310132162185097e-02 -3.520050884308712023e-03 3.771215479199519632e-02 1.764885153852793070e-02 -1.893594615095652370e-02 -2.413770111709716108e-03 -1.114896896088298991e-02 2.194171960560427001e-02 -1.020142198141704010e-02 -9.480111080065500503e-03 -4.815713468354845816e-02 4.008504294000129337e-03 1.318293026153453213e-03 -1.213217268637538024e-02 1.894573679994295771e-03 1.255047415517413986e-02 4.662685977396547471e-02 -8.848528794318343341e-03 2.693379827942137331e-02 4.823214869387708673e-03 -6.290916453781425499e-02 -1.960491737903244727e-02 2.019653040200388577e-02 -2.196948376149512536e-02 -6.219732432125286243e-04 3.318902541752025842e-02 -1.593678515692492637e-02 -1.624309219001005000e-02 -7.403937998688644995e-03 7.799585366638166380e-03 -1.712759055783500198e-02 1.365345137672108709e-02 1.671222029084840771e-02 -3.051644199333905863e-02 -2.777567907577061564e-03 -1.137607852636960369e-02 1.119069680709206156e-02 3.585208080645625045e-02 2.037562410414871933e-02 2.200477781094460628e-02 -4.968751596717518697e-03 -3.288923210815800080e-02 -5.377221486309205316e-03 4.247934655348838649e-03 -1.554044838748227858e-03 -1.843380803835718840e-02 -4.382051185307792029e-02 8.275082376496519301e-03 3.503814464885469937e-02 -3.350210441445106765e-03 -1.481473983639091871e-02 1.500262228887408629e-02 -7.839610735817246004e-03 1.183335511571964073e-02 2.973265641618235561e-02 3.953763190139149286e-02 1.409888048037778729e-02 1.500864195917330814e-02 -2.127786630659553660e-02 5.139158845658163078e-04 -3.889290102169814384e-03 7.164678301943457062e-02 2.399624685341767219e-02 6.310285180585721403e-03 3.861912207131223528e-03 2.073845054785391009e-02 2.968990949635694643e-03 -5.236751264675700707e-02 -5.907100982150820939e-02 -1.233432872158572377e-02 -3.534680341893137179e-02 7.542639546137677037e-03 3.301945598309174446e-01 2.124042518032862037e-02 2.301689665943699656e-02 -1.851729106657747786e-02 1.511376479754623567e-02 1.142058798438817628e-02 5.965793317830652906e-03 1.307211799352532913e-02 -1.539580320121845119e-02 4.839661767343166054e-02 2.298463542573168233e-02 2.078465500857972284e-02 6.496715504139477688e-03 1.349344880998427747e-02 -5.609003197624475370e-03 2.747066991438108785e-02 -4.473766057999053157e-03 -4.681319981317565854e-02 2.710954068387489563e-02 3.121571278289238510e-03 -8.221762103436986921e-03 -1.168594871779353450e-02 4.457150449568612893e-02 -1.234710917220593288e-03 -4.019281532731081887e-03 -2.896484533293398889e-02 -2.759883330144176621e-03 -1.649233691905006849e-02 6.673432865548635344e-03 -1.451564383209194391e-02 -4.278475286686744122e-02 1.713111613388314247e-02 -2.115683379044755105e-02 3.558908796919323797e-02 -2.478144251790212124e-02
