-1.043963716427162014e-01 1.037728594213297439e-01 -1.578024249179433014e-01 5.678048699453716597e-02 -8.227268376870282285e-02 -1.280297231430456428e-01 -1.883622754730636117e-01 1.064618017939598787e-01 -7.567557114182321687e-02 1.662609234373449429e-02 5.721391255083967814e-02 9.551956760577524908e-03 -1.653755114130968928e-01 1.488824777860202897e-01 -1.890183344136661114e-01 1.691167794858043638e-01 1.015487999545416041e-02 2.349554399184609205e-02 -8.938780151265578178e-02 -5.168300953792930724e-02 6.856506368329960688e-02 1.228301999997041538e-01 -1.600711937904172599e-01 1.627167500629638497e-01 8.180284068105142525e-02 4.193044723298280235e-02 -2.627374088810682240e-01 -1.072114786459150843e-01 -3.472375332910222073e-02 1.504159658817743883e-01 -9.720088374266910858e-02 -1.376626103857599981e-01 2.977709254155179175e-01 -1.301934602460748935e-01 2.004148999468817471e-01 -7.743999817679148023e-02 3.881202598549714916e-02 7.481677167477814028e-02 -2.154484128307940227e-01 1.338291896062844544e-01 1.904898535695701278e-01 -3.226994460021408509e-03 9.194466094122728805e-03 1.021140361859957171e-02 -3.492803356842379969e-01 -9.178249622193214441e-02 2.495856177735369663e-01 -2.307558787149742718e-01 2.810477867037107849e-02 -4.600347235822483533e-02 -2.809417772649202005e-01 1.264136909929473307e-01 -1.441022220650858554e-01 -1.689495825880465985e-01 -1.581443239221274610e-01 -3.228196847439417927e-01 1.346769508555927253e-01 -3.997481943800684778e-01 1.192659895302704146e-03 5.259771860591438281e-02 -8.149979182809058420e-02 6.285739443558822914e-02 8.226785988573803721e-02 1.005052280616620247e-01 -8.479686935324755315e-02 5.375735377104581825e-02 9.822457085965248524e-02 -5.469533950517084520e-02 2.135732126388660002e-01 -5.219849673021796643e-02 5.594320686829327288e-02 -1.202497741835058531e-01 -6.876958535845274778e-02 9.541277842298452605e-02 3.905219431705303501e-02 -1.719413191922422035e-01 1.083982784696075480e-01 -3.373770774825056440e-02 5.982186462379886910e-02 1.314457564451449179e-01 5.939231007412790891e-02 9.585677448153027969e-02 1.211133086899553041e-01 -8.288084084528574147e-02 -5.794031346476780781e-02 1.117772455181317293e-01 3.110323322458786663e-02 4.421470859208224136e-01 1.450805632169450410e-01 1.505236004594519630e-02 -2.795587090664699570e-01 3.129014662688943127e-01 -9.206044883997456518e-02 -1.002080567726070237e-01 8.368427033254402514e-02 -1.276530893158134006e-01 2.382563582415579417e-01 5.521247278819499393e-02 -2.029064412033791676e-01 2.183548149936046651e-03 -1.382062279150781670e-01 6.834608678856592123e-02 1.919080992836852684e-01 4.628045303442935438e-02 7.230221018198636218e-02 9.102865590093429937e-02 -3.806128571240937619e-01 2.174262283385838268e-01 5.035825669594670012e-02 1.666491769114799015e-01 -2.238860488088894318e-01 -1.132804416811036829e-01 1.569167248725635011e-01 1.223899375331135436e-01 -1.382054726217540885e-01 4.522162487473628013e-03 9.745879861836222874e-03 1.626232514661994921e-01 1.697236595805730885e-01 -1.532632464556601959e-01 -1.530626798360706919e-01 -1.271051833978053547e-01 -1.690262186809245448e-01 -8.191034164711080701e-02 2.397992784715106962e-01 5.067477677607905989e-02 6.315109307139578354e-02 8.558817162940267342e-02 -2.397620257620584061e-01 1.003449302323017323e-02 -8.877664245534924725e-02 2.167449127068053483e-01 -7.020944095465936341e-02 -1.107997803944935078e-01 2.967935878075604952e-02 -1.594871167311854021e-01 9.592919513351962080e-02 3.466828433283513505e-02 3.361936752280213214e-02 7.942612378393330841e-02 -8.161741193389991655e-02 -1.208994519641905657e-01 -2.411068982646694669e-01 -1.784967145053477922e-01 -1.225328945369960898e-01 -1.699950825723106629e-01 2.130613030949080706e-04 2.043593574850350036e-01 -1.261675806320382461e-02 -1.966850306120413172e-01 -2.837678960685286467e-01 1.269601220470712444e-01 4.982497482162071695e-02 -1.884084275970951405e-01 -1.545460678582574188e-01 -3.054885006803684244e-02 -2.317417536400790973e-03 3.079492130351750914e-02 2.760250065217583759e-01 2.003720682881897364e-01 -3.563076814599181602e-02 -7.082180213818133063e-02 1.336038086938817759e-01 1.139480443437902724e-01 -6.774973601408026957e-02 -1.651604648739936065e-01 -1.112475578574831231e-01 -6.117039508673994402e-02 3.391769118330435068e-02 -1.779125894807916455e-02 -1.081626612305099100e-01 7.773683008069819100e-02 -1.285230073247035053e-02 6.400441172628613951e-02 -1.688243953894724703e-02 1.513213155545229394e-01 6.311227525930122352e-03 -1.077740402248003881e-01 -1.812762023957260882e-01 -2.212213531836558222e-01 1.106153206904211400e-01 -3.058114243182520620e-02 1.700707908979148808e-01 -2.086453116063892999e-01 -1.572365395242768527e-01 3.289638533998798242e-01 -3.710089888754325438e-01 7.641541819431488247e-02 9.461407389840226223e-02 1.026654510294205958e-01 -5.972245177667664245e-02 -2.492767420872782635e-01 1.095112104196695746e-01 -3.342058084912165154e-03 2.687783531696384953e-01 2.433501184463844336e-01 -2.850263527300627708e-01 -1.622210951767322495e-01 -3.233727905339241204e-02 2.880914605280476271e-01 2.675005766727711065e-01 9.670975500619809206e-02 4.960971497072243913e-02 1.671412170637938399e-01 -1.755340112578236212e-03 6.276809042380083331e-03 5.948301165043454186e-02 1.680644823414225719e-01 1.668634359338195261e-01 2.254966405277696317e-01 -6.295102985848722438e-03 3.794251407129797804e-01 -1.945851375665515540e-02 -1.886202138332089273e-01 -1.150326158039729069e-01 1.061363699042986442e-01 -2.365252458907835253e-01 2.725531767745950074e-01 1.176600323056897768e-01 -7.424847164784255382e-02 -9.261403492538899940e-02 -3.279708026658933323e-02 -1.409360475685724201e-01 2.027693204600276300e-01 4.124068082338522290e-02 2.713852928054539260e-01 6.434237811836548970e-02 1.717329719868805338e-01 8.044946291382121251e-02 1.592570058985651460e-01 -9.506038736116788346e-02 -9.375358984566983800e-02 2.353410669018116408e-01 -1.842205153598237000e-01 5.233119020655235820e-02 5.246098980594234712e-02 -1.088102621277238086e-01 8.430251935651059125e-02 -7.939474596759876768e-02 4.654856449124346839e-03 3.377612077976086414e-03 -8.330468521978580745e-03 1.086196094653649608e-01 -2.151317710600365030e-01 7.672791107325221960e-02 1.488652701796855660e-01 -2.828437326319679923e-01 -9.886317108643627449e-03 8.580319231487035236e-02 6.408418969906394536e-02 -2.042627086577626094e-01 1.985284443026379686e-01 -6.713833812450591132e-02 2.509283097722865841e-01 9.272517130396377982e-02 4.533654691292912653e-02 -6.232753408946940799e-02 5.383528857436134518e-02 -4.153369411844759496e-02 -5.945153921772191458e-02 -9.480015589645943153e-02 2.858452721529333718e-01 1.720015965374854794e-01 6.368049917685221495e-02 2.805950992161062446e-02 -2.554380924075447951e-02 1.641378927147527089e-01 -1.002645327069312392e-01 -1.071052981110902219e-01 3.918399446110264195e-02 3.612386993370638594e-02 4.064740709005724290e-02 1.031652159554005514e-02 -6.339928963104335402e-02 4.132626833362227359e-01 -9.680776147546270305e-02 -2.052857193467317876e-01 8.310714336182746520e-02 -1.011081859850493370e-01 -4.534326863698116133e-02 6.197408603662069027e-02 1.340407812096484075e-01 2.215933187344418243e-02 -1.641744031024323092e-01 -1.764438988555570298e-01 5.778004614229442087e-02 7.809563883918202443e-02 1.211409743661423510e-01 4.918652774857262822e-02 6.508911564243745340e-02 -9.164202250159278473e-02 1.576625549516592617e-01 -1.139038780627194165e-03 -3.969024886291024762e-02 -2.750380625004441096e-02 -1.566279438481636005e-02 -1.200955944702300077e-01 -1.914652576084558411e-01 2.777487945272591463e-01 -2.160845144799892759e-01 3.540486365924885165e-02 6.722888449120308085e-02 -9.485171184235401121e-02 -6.935387357682981646e-02 -1.760422099996155065e-01 -7.941169025545123661e-02 -4.823092743316364367e-02 1.514318063094387788e-02 -4.355301376191625384e-02 -2.555212469876312967e-02 2.468859516537189047e-01 1.026404465694336597e-02 -8.553033520772886089e-02 4.364606881252518916e-03 -4.219286246929888212e-02 -1.079128388131561367e-01 8.398301679470483727e-02 -5.758552592438934831e-02 -8.755986779392967156e-02 1.610536025845631380e-01 -2.921900420779677265e-02 1.005704491057171635e-01 -2.742852492100777972e-01 -1.649816120721849522e-01 -1.244326719426932203e-02 -6.970013156083382060e-03 -7.144774959873195774e-02 8.708677863793099286e-03 5.502112365222235069e-02 3.615179199402722143e-01 -1.141953308358897856e-01 2.437126502403972120e-02 -1.731785791368779248e-01 -3.397725777571777850e-02 4.349801903179393442e-02 -1.312916292960793208e-01 -2.545335944711037413e-01 1.019212158858492506e-01 1.440181399266268203e-01 -5.650335465005125804e-03 1.963473212433423654e-01 3.030784299528405112e-02 -8.287350089836142616e-03 1.789397914297012060e-01 -3.064157570556936272e-01 5.284002140930890018e-02 5.366087220650953699e-02 1.564059962149302874e-01 6.523222624750667220e-02 -1.293710283745358181e-01 6.683023272063366715e-02 -1.354753581181933342e-02 -6.645718238509751297e-02 -2.510513854965596391e-03 -3.355623493433533555e-02 -7.366332875378300837e-02 1.244678918614887941e-01 -1.123745985198543601e-01 1.020156965077903544e-01 1.319655950957376034e-01 -2.626080872052098392e-01 -3.101538280704144168e-01 4.967550211210694511e-02 -1.018203810646696045e-01 6.136705115192192528e-02 5.603310856586077304e-02 1.392767589120661731e-01 -5.479208078517345398e-02 7.852437725657983314e-02 -2.285334993399326664e-01 -8.468584015408972543e-02 -2.261920985240453430e-01 -9.154466022676481518e-02 6.076220560870104759e-02 -2.835727115837674561e-01 4.809818943225031840e-02 1.608371698616004319e-01 2.132549572219914202e-01 2.613552465967247315e-03 -1.255290858021685108e-01 -1.047752646318521330e-01 4.786893167742706928e-02 1.592785283630367976e-01 -4.000349030801607642e-01 -1.065922713443901229e-02 -2.013261549008564244e-01 1.055574872614535170e-01 -5.848652934343155640e-02 -2.355660908603574299e-01 5.074420015768062175e-02 -1.921660903113263652e-01 1.164578628075792627e-01 -2.462696778817760335e-01 -1.097179381162625700e-01 -4.082836439637790860e-02 2.761284012578436031e-01 1.051998407568628807e-01 1.938221240902958109e-01 1.538361696733412387e-01 1.123873422747400791e-01 1.441606496197841147e-01 5.307693254842293235e-02 -1.765822139046417105e-01 -1.413462737053823581e-02 5.548705386548575397e-02 1.894073017630345246e-01 -2.420230466969066838e-02 -2.030183169804596344e-01 -1.071546520720087631e-01 -6.178071029795095120e-02 -1.146108693368602383e-01 -4.203082797643394736e-02 1.613121463088171559e-01 7.581629253268055979e-02 7.635970692985580288e-02 1.081331356559365603e-01 9.391765498347856567e-02 3.498426955579589381e-02 5.413373848778994801e-02 2.821242164047908507e-01 -1.058523035921494077e-01 6.187599729078504390e-03 -2.469301175358264433e-01 -1.901471962878543698e-01 9.712692621812233848e-03 -6.459628794383562300e-02 -1.196255878138540868e-01 1.166986558426922893e-01 -9.459010327613183444e-02 2.115426869355909734e-01 1.045909703563570325e-01 9.237623407559460154e-02 -1.686016912497090570e-01 -4.818085131366480617e-02 2.100405846970825607e-01 -7.583157788210538597e-02 9.416500398469032640e-02 -2.038580929345527037e-01 1.374142407466510674e-01 -5.310340955424541765e-02 4.529969383349781442e-02 -1.061541502494902228e-01 1.372564001199451100e-01 -1.683581166774193449e-01 4.359384441137427735e-01 1.973846335084881443e-01 1.865624626745624459e-01 4.797387930006611900e-01 -1.743385341075514572e-01 -7.860694669132498036e-02 -1.479137959651434242e-01 6.583248653557279007e-02 4.960902123256467899e-02 1.226362358733282254e-01 7.232682608949095315e-02 2.166098963518600651e-01 1.372765001364969206e-01 -1.273624639605290265e-01 -3.773121837563665065e-02 -1.137120010062004916e-01 -5.124493780806835957e-02 1.001226576610652202e-01 -9.572152382604250109e-02 -1.802699935170428425e-01 1.723872800423282281e-01 -1.877845284537684734e-01 4.887814660356070151e-01 -1.172307522963763060e-01 -3.896022872103505758e-02 -1.537232414549333237e-01 1.023134106448210928e-01 -1.126461104806709135e-01 -9.884604198603538783e-02 -1.913461362221226605e-02 1.243663161241246734e-01 -2.373985354814728277e-01 1.962525621988498170e-01 1.924398766674174088e-01 -8.759546039288946817e-01 3.981737394857802481e-02 -3.062210072504090511e-02 2.391221193733298112e+00 1.003409697484767132e-01 5.015223687295472521e-02 6.064122128837979263e-03 1.682909059138971153e-01 -1.909535732342781400e-01 -1.050051598047341828e-01 9.557900290090166895e-02 3.594873897795467649e-02 -1.991268762183132091e-02 5.894232695989223281e-01 6.247290639511870330e-02 -2.399719230205912823e-02 7.136199088388859788e-03 3.136431719419282560e-01 2.581412426614100308e-01 1.277799380667002382e-01 1.732254980212510620e-01 -1.750619058931434657e-01 -9.523405400581995417e-02 -9.744297989401891347e-02 -9.140630918356634077e-03 -8.569506685610660313e+00 2.336852703379258683e-02 -7.925303292461617632e-02 1.225920656384339863e-01 -8.530739983021649875e-02 6.132366237613653265e-02 -9.137876542074493957e-02 3.994954402944120297e-02 -6.285317639410928359e-02 -2.802556662742675120e-01 -1.267557085088123481e-01 -5.285313835737822730e-04 3.480417484721919780e-02 -5.101155230701379453e-03 -2.057072313673559971e-01 4.605563275050957028e-02 1.220035774286645086e-01 3.093639167375363333e-02 -1.435319019273992650e-02 1.412304916427684909e-01 3.405004645331842494e-02 -4.885633475033396983e-02 -1.012883486905273439e-01 -7.843886940537388164e-02 -1.854490459407294178e-01 -9.697380815405597099e-02 3.109400267334959302e-03 1.702605481698127587e-01 5.446165790174463395e-02 2.038794508619880541e-01 1.157011132461810837e-01 7.766697187229842925e-02 -2.117521394522762362e-02 -8.822662250358877245e-02 7.458395266546444247e-02 -9.136792714864248877e-02 7.847402339528433690e-02 -7.556040709723315686e-03 1.103258584823471194e-01 -7.933503956606172136e-02 -3.446469276785910085e-02 -1.341062966813897916e-01 -1.793230468048665482e-01 1.647533714146773021e-01 4.302203995289485480e-03 5.766621093907121631e-01 -1.002389904591396153e-01 -3.690321594651643777e-02 -1.331401450521927377e-01 2.011523701879598669e-01 -2.675220271764420718e-02 -1.884948763477602707e-01 -8.574884125940746005e-02 1.179331849850072042e-02 1.074850709293163065e-01 1.156445893661364049e-02 -7.543554468178738370e-02 -1.949270230622199840e-01 8.513413093146683652e-02 2.970681617919199158e-02 -2.304196140559892358e-01 3.693139890639560163e-02 1.685343491821182649e-01 -1.462392340779732625e-01 1.201326490375764083e-01 6.084185206727950324e-02 -6.063698098824142901e-01 -6.000315344800733613e-02 3.705816715566211395e-01 2.072075480976690812e-03 9.742363596691307193e-02 1.301553219126397876e-01 6.551394906266980178e-02 -7.362889396829984390e-02 9.349140998618198084e-02 -2.891144893301635446e-02 -1.648447881486573008e-01 1.682254560188660153e-01 -9.091072317023390914e-02 2.244217920200053673e-01 6.301176464975059843e-02 1.079274127001444566e-01 -1.006864895735113674e-01 1.461965717677754240e-01 -1.140083044621795633e-01 2.969071774590165483e-02 1.832503959435947405e-01 3.875799449369300644e-04 2.377561956941217150e-02 -2.863491397004415406e-02 -1.060335984153422118e-01 -7.822362405360550053e-02 -5.762638132435073113e-02 -3.350939222456650324e-01 -1.333521656312717518e-01 -2.128764838245720548e-01 -8.528683244685247855e-02 1.627301102399696386e-01 1.716596611768994932e-02 -1.076526914163924709e-01 -8.016379141913192174e-02 -1.419828887952499230e-01 1.746196040994593135e-01 2.364102124636882976e-02 7.688841298219940834e-02 -2.232312418720523439e-01 2.058848258624105809e-01 2.166415131079478182e-02 1.015481252286127845e-01 9.945101006215092271e-03 1.395083620326801298e-02 -4.893805289387132690e-02 1.739917087102292592e-01 -3.853772601399105269e-02 -2.136974668682076889e-02 2.312359689499063689e-02 -7.629433386790493432e-02 -1.054265527235479782e-01 4.688743575239655986e-02 -1.180594252377961118e-01 1.038281199237481300e-01 2.434156082137036228e-02 -1.294407175217055228e-01 -2.176930655786879845e-02 6.546089391187787099e-02 -5.402830644969656981e-02 1.398987490058514471e-01 2.355479003036645494e-02 1.636176388715125662e-01 5.276414604625550009e-01 -1.049411780622175466e-01 6.807097379458448838e-02 -3.781120980071055182e-02 7.243239413449957531e-02 -7.802320859837971745e-02 -2.306058264238205480e-01 -2.494963412882659493e-01 -1.725719035643869526e-01 1.679913390223953806e-01 -1.101215321868483643e-01 6.087668438955250866e-02 6.280881793813382352e-02 -3.122932654759751417e-02 -1.275508729065641667e-01 -2.883071944386471699e-02 -8.741693860744019495e-02 -4.866329481824073488e-02 -3.683494368610734648e-02 -1.770056781197184015e-01 5.147650693457944682e-02 -1.855385003657799847e-01 1.363295759372900318e-01 -1.796420603988786446e-01 7.855319798059143266e-02 -2.153322120230316550e-01 1.254290907185318105e-01 -7.548215694508904339e-02 -1.922660851577299643e-02 1.667672321736176355e-01 -1.639775900408077802e-01 3.687669886216474180e-02 -4.346807297875977805e-02 1.090717264858428182e-01 8.266912236389627189e-02 -2.376547294332300442e-01 8.450307483016078480e-02 -2.800815840754014019e-01 3.384465988249518165e-01 -2.794977205964513378e-02 5.565044883362151029e-02 1.398654359272827608e-01 6.189837437121475938e-02 1.112559033620021121e-01 -9.714996606256438849e-02 -8.602659600529068973e-01 2.157688752118645248e-01 1.881639671160996730e-01 1.061708069922122355e-01 6.810664333988271368e-02 4.113127621809761075e-02 9.262474188557454080e-02 4.202062685784486995e-02 8.172140427975901900e-02 2.185267053322955538e-02 -8.033009075119455777e-02 5.127648460496940334e-03 1.266609793582035848e-01 -2.566167715628256407e-01 2.192071839418978652e-01 2.572277586966502660e-01 -4.179594494191352094e-02 -1.921196079346775554e-01 -1.029978428324243578e-01 -1.596386545581788829e-01 6.197078332091345704e-02 1.425151608715339788e-02 -7.500151641278826609e-02 -7.534966613669820401e-02 -9.309134325547292754e-02 1.293765285152689570e-01 -1.568199709251870133e-01 -7.381690909344691687e-02 -2.108730505027607560e-02 8.088621497020832829e-02 -8.136901614351486900e-02 -3.940843519139707041e-02 1.227279343762925773e-01 -2.037501183482241796e-01 3.396520873470178919e-02 3.943325221128925195e-02 6.361698537928138497e-02 2.960901332675217601e-01 -2.665043312521063121e-02 1.953019791727515775e-01 1.736152843219228997e-02 1.147108392952542744e-01 -8.103710263862444127e-03 2.360695980948081599e-02 1.361081647886579205e-02 9.362845520232229712e-02 1.572234549244671542e-01 -6.612753385681845175e-02 -1.396159327825222396e-01 1.826528075614970159e-01 -8.125127418152601477e-02 6.848110533312110060e-02 5.143300508493009460e-01 -7.775856600719070755e-02 -9.781108231020216315e-02 1.296238172584683324e-01 -1.488084258195340182e-01 2.909736438351632343e-02 -1.760726321829408220e-02 2.049865759408474042e-01 -3.083588583591236748e-02 5.886016053799451170e-02 -1.160353715374530664e-01 1.880526285853522661e-01 -5.373121782780090200e-02 -1.400202112906695148e-02 3.532902537352781286e-02 -1.928618316230458762e-01 2.473365784491180275e+00 2.197919136562052622e-01 1.058448416479590287e-01 -9.511825177633992379e-02 8.242760870169181520e-02 7.788699225187160902e-02 -1.588987662236626686e-01 1.779300697676661769e-01 9.537847500755529395e-02 4.478823640713718718e-02 4.688746150297755377e-02 -1.371522279940384087e-02 1.107033484555627195e-02 -9.365447438447961626e-02 1.836751464105891921e-02 -1.481601305389546042e-01 6.978884293986439835e-02 9.725152668651249749e-03 -4.915100736035624140e-02 -4.527941121200280278e-02 -2.445378033920024563e-01 7.768964097359139231e-02 -1.119932391015271422e-01 4.959851492371628728e-02 -6.579136629555634719e-02 3.436101310468733794e-02 4.113635958484787580e-02 2.666918669598317693e-01 -1.497767288788454387e-01 5.567450674391129228e-02 5.876021210604949647e-03 2.477587593824025214e-02 -1.711086723076805649e-01 -1.315980548362157779e-03 -9.651543660630187982e-03 -9.339098907200897581e-02 1.799365584869762336e-01 -1.925771842677007420e-02 7.812510339758685363e-02 9.853179559049724586e-05 -9.596695824230121186e-02 1.777769572186972957e-01 3.640270858635730189e-02 -8.007312518967450721e-02 -2.873904735821818449e-02 5.400076072527019988e-02 5.703847463120393507e-02 4.716960977812961059e-02 1.440411015093613911e-01 1.928782501518501186e-03 -3.328960303313040214e-02 -1.370894443975385641e-03 1.097298301360433020e-01 2.264815825576488653e-02 7.515662664012109917e-02 2.090161743321536092e-01 -1.039988462644050732e-01 8.729551437765167843e-02 2.548409452124616448e-01 -2.953026941288288548e-02 1.521941196689639841e-01 -2.081099888732897418e-01 1.232317747733575469e-01 -7.852149605053790338e-02 -6.447561737418346095e-02 -1.993453393696242026e-01 -1.294042428432767566e-01 5.616201822554020562e-02 -3.768262668467244059e-02 1.168364523929858317e-01 -1.021498127668537398e-01 -1.062976580062009596e-01 -1.717719954284968042e-01 4.554447136287339409e-02 -6.005179459062209152e-02 3.057464139332439004e-02 -8.110651308038484275e-02 8.228903624636424441e-02 -1.185463532239763446e-01 1.126835148467276830e-02 -2.274335318726925237e-01 -7.231392177641562946e-02 -7.640252163159680365e-02 1.943797374532909086e-02 1.266974106449353377e-01 1.656305309394193181e-01 -8.249710230940876174e-03 -1.862230927221010801e-01 -9.694552572521350498e-02 -1.698466673569903884e-03 2.776427065186236609e-01 -1.711306650285953079e-01 -1.708840269199204953e-01 -8.405252135977596406e-02 6.124772792914995323e-02 -1.160330589418352432e-01 -2.355793090697894387e-01 -3.021451187047966697e-02 2.479985363920682029e-01 1.755734717273946949e-02 -5.403971418183162179e-02 4.415769871240761771e-03 -2.456530646113707847e-02 -2.991039311873945616e-02 -6.851587396768296645e-02 8.746708864828588170e-02 -2.763276287385922278e-02 -4.836799596181149546e-02 -2.733228414385894256e-01 3.524993276518235269e-02 1.975534260523975072e-01 3.126144273855376715e-02 -1.100879753360695101e-01 -1.590611398572427115e-01 7.897904778943704018e-02 -3.761597223372694244e-03 6.962139176058190770e-02 1.032764108718524886e-02 2.693261416739279809e-02 1.505720838050365884e-01 4.520481219846082116e-02 1.029456915771311820e-01 4.290163665134708731e-02 -4.276770165633814180e-01 6.704436620264257740e-02 -1.025257359763190601e-01 -1.967658636964785823e-01 2.569759977665274017e-02 -1.540360113004075604e-01 1.324407445666935523e-01 -8.145053605404824204e-02 5.106069331310471304e-02 -1.335688158451214247e-01 -4.006788339164531199e-02 8.450104911102467031e-02 8.629868748481954455e-02 -8.673923755413624759e-02 3.704539574370672300e-02 2.880260968860334780e-02 2.656259187612411421e-01 2.982832710188693115e-02 5.227570552966894456e-03 -1.422386284438269255e-01 6.869573322369446067e-02 -1.373799006175395465e-01 -3.345984095512084117e-02 -4.308912416386628808e-02 -1.203522718017965148e-01 -6.272317976183378052e-02 5.290261780547095283e-02 -2.334096105059972892e-01 1.132107334230611495e-02 -6.517089486304919466e-02 5.363306748817365729e-03 -9.199354553076083407e-02 2.338517131288158756e-03 8.026510283020664438e-02 -7.138299029830874609e-02 1.719528192876674244e-01 -3.658865607247716728e-02 -2.448969479678731256e-02 4.432714485354368600e-02 -6.497386868258853143e-02 -6.168006343750752352e-02 -2.184454351790078297e-01 9.890131079509628664e-02 -1.153172249139461092e-01 -5.092508138712917992e-02 2.778713984245193558e-01 1.494611083885959424e-01 -7.823546136235176585e-02 1.257047679375435378e-01 -1.167304926106849453e-02 -1.375509308276362808e-01 2.386098842129257686e-02 -2.921350336279639193e-02 -1.658847854734272695e-02 -9.826171725328204654e-02 6.570566529158539115e-02 -7.305257115301734550e-02 1.000890146465150954e-01 1.063937119839904605e-01 1.270695253331761108e-02 -1.121570603203513039e-02 -1.490053300484906751e-01 -2.338581165201997769e-01 -1.500285108483266072e-01 -1.469795867904632736e-01 -7.665448524458030877e-02 5.955993785309204175e-02 7.027598124660633383e-02 -1.149809373248813771e-01 1.395787738106895118e-02 5.389219578879660827e-02 1.518620429247667381e-01 -8.848888534582383114e-02 -1.268368515424480869e-01 4.258561631929794894e-02 1.536349525882969580e-01 -1.625458459743214235e-01 1.633137058081479409e-01 1.349331838089005585e-03 -1.172429793699136386e-01 -2.081205940204896854e-01 -8.682951607000587158e-02 -1.571596346016553014e-02 6.481085103089051502e-02 -1.244705723735188840e-01 -6.376385882042918951e-02 -2.392892676472229418e-01 -6.962525962012164338e-02 5.829936450441249723e-02 -1.149207969510805116e-01 -1.294592083176522301e-01 -7.311493397775846448e-02 1.986708443461475959e-01 2.711645808082156495e-01 2.222810130074466539e-02 7.096878329230107973e-02 -1.215447594456140062e-01 -2.298601308777294072e+00 -6.425235639974251345e-02 -1.442417765363918913e-01 9.884833732692716035e-02 -3.743378123430000232e-02 -1.350922355649417962e-02 9.689963778143198536e-02 1.625654136101444269e-01 7.729733699119546719e-02 -2.048098864924633722e-01 -1.412792912604361739e-01 3.999382466971559968e-02 -3.393535910102904105e-03 -1.709387800853064410e-01 6.894690760569002763e-02 -1.263898388029014164e-01 -1.369188200434218704e-02 2.033229449923135701e-01 -2.301117476224925906e-01 -1.228670517915259469e-01 9.455992351015805875e-02 -2.091360911358015537e-02 -2.001274652778733121e-01 1.245483125065087321e-01 1.720518190268162106e-01 1.256188770960357803e-01 -3.853139925118048009e-02 8.802321424267765815e-02 -1.029130699254152126e-01 4.213289268902638968e-02 2.578571183486096374e-01 -8.832439374548818611e-02 -2.034251213001320516e-02 -1.070863770437753965e-01 9.952632990424793713e-02
-4.657584059977636776e-02 -5.237628551377508657e-02 1.440130818487845021e-01 -4.331247363277159618e-02 7.978802237477783388e-02 8.215936747142391083e-02 -4.308023976834955693e-02 -2.048219033049599735e-01 -9.249293894030390095e-02 3.583151720958686979e-03 -1.024905622136374900e-01 -3.818333295881908007e-02 1.605596325218234810e-01 -6.823425898641058418e-02 5.600745451065784405e-03 -2.219650315660067208e-01 -1.217305838611760643e-01 -6.544906784862761229e-03 -1.753786994258607901e-01 3.452969156614018459e-02 -1.144290935979212082e-01 -7.621047526489987956e-02 1.560642498984330107e-01 -8.739302984881885950e-02 -3.390761152930155120e-02 -9.069001003180764131e-02 2.589854959542983726e-01 9.796902792927635051e-02 1.266369505183168043e-01 -3.341740505096783137e-02 -2.652809045234841637e-02 7.259660595156444338e-03 -3.152994351671096207e-01 1.571603160068038851e-01 -1.702613699755990972e-01 -1.097514754130136522e-01 -3.133156331568284075e-02 -1.080301817075046272e-01 2.406496544956918116e-01 -7.026482357503870124e-02 -2.154269418340943876e-01 2.001005174033716402e-02 -1.981112450013654269e-01 1.616050769489695560e-01 3.700560346463565575e-01 1.521453683649333088e-01 -6.343037852384897368e-02 2.176200108933388222e-01 -1.212069171181096028e-02 -7.883221822357112940e-02 1.590061784669798695e-01 -3.207295974297884322e-03 1.873219720212496442e-01 9.424054375716608978e-02 2.472943912858106552e-01 2.963802279927607031e-01 -1.206860338339796751e-01 3.501731951079143923e-01 1.453270374943363419e-02 6.615714078236664686e-02 1.648595414729648323e-01 -1.699909007950966000e-01 -1.839792544386971984e-01 -2.556520888005979833e-02 7.929801493222529696e-02 -1.589760713703240042e-02 -2.052447775684070330e-01 7.521220877544963768e-02 -1.061908997537172605e-01 7.545575563100540006e-02 -1.112113344545836019e-01 1.664382122998155633e-01 -9.289934279795943051e-02 6.996385360108715867e-02 1.105294593629627953e-01 7.938947237268691171e-02 4.113720623249812053e-02 3.801546718441751321e-02 7.010224469454447160e-02 5.333534573832412334e-02 -4.363793013944133187e-02 -6.600478704990023204e-02 -1.258563241195842231e-01 1.093581165155572271e-02 -6.370678437708957899e-03 -8.581850304052987544e-02 -1.551860740034051722e-01 -4.208411791763074228e-01 -2.324995930301820835e-01 8.471537234611763167e-02 2.620350506975532845e-01 -4.251889341493906432e-02 6.917389621325860383e-02 1.450930056353438025e-01 -6.121098749587645244e-02 1.606801034509056925e-01 -2.692525872729941705e-01 8.578496784376977990e-03 2.035868360668814381e-01 -2.196082673850659195e-02 7.440603841013805099e-03 1.009436193841028485e-02 -2.680126902299461711e-01 -1.837127016225371390e-01 1.484738201836363070e-01 -2.959040713429776648e-02 3.220064223259749281e-01 -1.319802592027514154e-01 1.184117490503177189e-01 7.576233457216564014e-03 1.473237410073491294e-01 8.022112954923202657e-03 -6.455212280114438692e-03 -1.042633268353474890e-01 -3.258165474326445848e-02 6.431238867461430697e-02 -1.411070485759671755e-01 -1.805616425832706207e-01 -5.755836705319004182e-02 -9.105039951256312103e-02 6.455860110036877597e-02 -1.004648461996820313e-02 1.859816916423989441e-01 5.048858669327366266e-02 -2.120054884402281514e-01 8.956506727692313541e-02 -1.336387381046980072e-01 -2.171565059000141532e-02 2.046144296376061489e-01 -1.652617980130848818e-01 4.741560594369102072e-02 -2.025034196492659921e-01 5.357387842247388066e-02 8.941682295416669701e-02 1.103726900625480317e-01 -2.869155308116240477e-02 1.201755984003710642e-01 8.900660035082971766e-02 1.558971471033268608e-01 3.767359687479211738e-02 -7.398742635282420932e-02 6.685613032777851239e-02 1.566978690827238729e-01 2.018319609611715360e-01 5.657530817938139639e-02 1.791109988525607655e-01 7.823260365615457290e-02 -9.516736537754964809e-02 6.052626065334227798e-03 9.740954063856105405e-02 2.716726589156830407e-01 -1.270631239211212314e-02 8.512443463030108792e-02 1.054733447753176540e-01 -1.452713373288793894e-02 1.206958983060677504e-01 -1.063955419520403733e-01 1.212711661033800820e-01 -2.335381904870663661e-01 -2.097021754481271164e-02 5.485829761170654684e-02 -6.065823440171891259e-04 -2.286830492881414267e-01 -1.160966192590458662e-01 -3.576065778216264146e-02 2.055174895386946143e-01 1.177057513830383761e-01 1.532397772727171759e-01 -7.454527942414788944e-02 -7.908095250591816450e-02 1.849297329198616030e-02 -6.920192336341193969e-03 -1.085527853260818687e-01 -2.208562206875283596e-01 1.413333538793598854e-01 4.266735988269556440e-02 3.252558438523543011e-02 1.509478719650735323e-01 1.591704413526301987e-01 2.800962038996901438e-01 -1.876577616421676309e-02 -4.016204976920514230e-02 -2.261426568043611585e-01 1.588014550343115616e-01 1.978827478129790984e-01 -3.157532328050356440e-01 3.628326671273869874e-01 9.565827097810829238e-02 -9.980825726886068117e-02 -1.401040464799503324e-02 1.632303035625798648e-01 6.380127488690917614e-02 1.821761872327604809e-02 -3.048899186881790652e-02 -1.410791745163270106e-01 -1.669362751577060933e-01 2.055592734507592501e-01 4.139498541087050648e-02 1.171308044803360121e-01 -1.427583786249890241e-01 -1.344068000347020120e-01 -7.743978733295975303e-02 1.506372668505581991e-01 -1.409585619275743607e-01 -1.882802704137316041e-01 7.645851120345206753e-02 -1.691835533325748986e-01 -1.999865653059438794e-02 -1.474574943561478002e-01 -9.523032988861297732e-02 -7.393559476403283037e-02 -3.545084635504257564e-01 -1.718497655320802842e-01 6.983074320592662365e-02 -3.821332351169774710e-02 -7.603637188662608348e-02 1.979577908492325400e-01 2.806313195732005120e-02 1.505474679873036459e-01 -1.537892109634473037e-01 -1.039466720070223865e-01 1.611219229871858200e-02 1.181937444369948048e-02 -1.310132657439407877e-01 -1.357780591229079403e-01 -2.136666985218166059e-01 -6.202067385716042436e-02 -1.551148111270142863e-03 -1.012916429450538836e-01 -1.741242076235301195e-02 -7.116362348741374355e-02 1.788204561148828420e-01 -2.561152785779567953e-01 2.546682983694660840e-01 -1.272270897003893175e-01 -6.000376247745521641e-02 8.736693483417712347e-02 -1.262511602932955002e-01 1.171204190908445852e-01 -9.243008830283026833e-02 -1.827190056823342623e-01 7.416532198736998371e-02 -1.635158047015995708e-01 2.753750937808456256e-01 1.307708440604254119e-01 -1.076154889194447101e-01 2.157936222718190855e-01 3.395345546477935520e-03 -9.111649187258806515e-02 -3.863485278681337565e-02 9.431111923618971937e-02 -8.302625458236281841e-02 6.283795232475279657e-02 -1.699169884569307620e-01 -1.173421619671818350e-01 1.531975298969893429e-01 1.096931242298502529e-01 1.389195321617821624e-02 3.753093290189135622e-02 -5.891098447827437801e-02 3.065114882568658813e-02 -2.009997344708462641e-01 -6.193575584539832979e-02 -2.946769349039518593e-02 -1.736572626809922831e-02 -2.059270132780009407e-02 -9.986203760989698086e-02 5.629853316683807417e-03 -1.177628204737494501e-02 1.218115557981774566e-01 -8.889464088129379882e-02 -4.790082327139871810e-02 -9.710744603713603040e-02 5.250313526645352703e-03 -3.116585433399232108e-01 1.201769302614882906e-01 9.198294523478173224e-02 -2.091156174097683895e-01 -1.286890433317702254e-01 4.403637618133433851e-02 1.930541881107234597e-02 -6.746078353661556781e-02 3.561109966079574474e-02 -2.715844074819166037e-02 1.603496583237773165e-01 -4.286678451831514580e-02 -2.218517652045673416e-01 -1.563282928729661514e-01 -7.178335649916420258e-02 -3.713703387391165817e-02 2.461201103952123659e-01 -3.415663575013936498e-02 -4.336132836286010067e-02 1.415491067415753368e-01 -7.743993714369515335e-02 7.165407920991691271e-02 1.144622440494263149e-01 1.724063384641550956e-01 -2.067892725144091781e-01 1.030287524276255334e-01 2.869094992574560202e-02 -8.730255675694120754e-02 1.552318269117449745e-01 2.277158774063652857e-01 1.362359590495104515e-02 -2.750496355744219690e-02 4.753143408072441761e-02 -4.906040978505430555e-02 5.999653008155624717e-02 5.017576876633600413e-02 -2.148859407437394842e-01 -8.731281676186487817e-02 5.511921085857868219e-02 -1.391910153847511766e-01 -4.663110078280964521e-02 2.506240022786545008e-01 -1.100269465474583430e-01 4.162717815494508533e-02 4.609429804018392446e-02 -1.205509422888848547e-01 7.421896382305356865e-02 7.827504011575449339e-02 2.858542884349348223e-01 6.972210238624163003e-02 8.609722653782144949e-03 -3.049351853343369029e-02 8.932956887463766593e-02 3.754654577148196920e-02 4.302932243552413938e-02 -3.816680746478344766e-01 1.441336731305297878e-03 6.492461411447838192e-03 1.237799887162805285e-01 4.579326490887491996e-02 2.861406546846859481e-02 4.368767822454875521e-02 2.818801835769584319e-01 -3.563010984211005538e-02 -1.086550592537178922e-01 -7.750094063611216244e-04 -1.774609445116807349e-01 1.394537440769104131e-01 6.637481999020707936e-03 -1.580583415935805647e-01 2.402830063770172442e-01 7.900552168622045068e-02 2.410211712503930806e-02 -9.053511491296989400e-02 -1.017697441422275861e-01 1.187241690197649024e-01 -1.034329118625901545e-01 1.169046171271329593e-01 9.747257142626708504e-02 -2.232335621174646734e-01 6.552457299494195142e-02 1.280734828306923090e-01 5.377206042747880582e-02 -3.019406451177143041e-02 -1.018552378635992628e-01 2.442773690783407378e-02 2.627060494898141307e-01 3.223609505652613727e-01 -1.172370220134642121e-01 -1.001757225930318025e-02 1.717673246409428811e-01 2.059029187039522826e-02 5.666054836658636351e-02 1.664722600648163298e-01 -3.278252838705943834e-02 2.959134257448354233e-01 2.417986252522194845e-01 1.115430620444480547e-01 -8.491872771726866054e-02 -7.179934404220951472e-02 1.323977931659858498e-01 1.072030625354015998e-01 -1.834870042565315829e-01 -1.731162373723698911e-01 1.494086072958438205e-01 1.385314293226952709e-01 1.381720353799545109e-01 -5.843174000421843400e-02 -1.604822171544105225e-01 4.063308739665333902e-01 5.940141835396039321e-02 8.139845778310575430e-02 -9.810713902434545219e-02 -1.362713422448448564e-01 4.739997154298114523e-02 1.077049866684467311e-01 2.058083974257621518e-01 -8.404460930662101259e-02 2.913059668112447653e-01 -3.705137037064881733e-02 7.910600304313986086e-02 -1.720354239330998403e-01 3.737362087755641965e-02 -1.159531370016243235e-01 9.451080799138021973e-03 1.822751842853125373e-02 -1.257232599925220407e-01 -4.250375786354798624e-02 2.021471147282568326e-01 2.934824711582199527e-02 1.633727680400568275e-02 3.504144631305183832e-02 3.609924471071829233e-02 6.379944139446358520e-02 -1.429419889258368992e-01 -1.911616255570226103e-03 -3.604762637707348283e-02 8.502334042218076537e-03 1.755455638310880750e-02 1.315903215026846818e-01 -1.050710362527062791e-01 -6.338760027558312804e-02 3.848159144798742742e-02 1.054354674050197171e-01 -7.308009767896521403e-02 -3.569492672385647380e-01 -4.679808262920857193e-02 -1.349575712625159241e-01 3.668095327980311349e-02 5.807735914793476367e-02 -6.374544611452473419e-02 5.155838700405984687e-02 1.093570236306356525e-01 -8.366712512484467124e-02 2.227689086801142374e-02 -1.106699000176899345e-01 -2.678742770456232769e-01 -2.412350558761541114e-02 2.916939529539279152e-01 1.826118276947588104e-01 -1.105953511925906602e-01 5.522738682761481332e-02 -6.895539280285342687e-02 -8.225216140208936599e-02 -1.464417435958425551e-01 8.828683450016987233e-02 1.727576119701629970e-02 1.202961426137003492e-01 3.370728445588106609e-02 1.408869780599717736e-01 -3.802137752804515825e-01 -1.135977056548149455e-01 -1.423377641067836985e-01 -4.037481564122436528e-01 1.337012201894592356e-01 -6.071806702485036539e-02 1.372736572552090695e-01 -1.909665267435685931e-01 -1.110913909738300287e-01 -1.189386917155507151e-01 7.815329341308999145e-02 -1.762790858720524878e-01 1.613194233957847279e-02 -7.088807815812192027e-03 -7.515479597920119922e-03 6.242814914832461697e-03 4.748522093325547450e-02 2.311522305052776671e-02 1.851550568242679717e-01 3.548567625256382474e-02 -1.160168315653183901e-01 4.723686406822020373e-02 -4.207168797137372795e-01 -1.046645376089866408e-01 7.177171960490881519e-02 -9.683610714988791224e-02 -1.040226211337288292e-01 1.418912211047209937e-01 5.307579461637817325e-02 -1.396167771398867663e-01 -6.788433334437336819e-02 1.229986164881943234e-01 -8.050687389808040828e-02 -1.310089022999021968e-01 7.687066149090916456e-01 -1.138062176742259818e-01 7.065991163235950390e-02 -6.940067679841696702e+00 1.218095037637932782e-01 7.175893284643393433e-02 1.372732399949410931e-01 -2.342124096549355605e-01 2.801034618140712529e-01 1.719769914925565746e-01 -8.880260689513740091e-02 -1.669944897746197532e-01 1.057289366868888192e-02 -4.910832208403347332e-01 -8.067572208253841193e-02 -2.851006147634226051e-02 3.204702094964919507e-02 -2.363229755675607946e-01 -6.107998633660691179e-02 -7.671152220924429277e-02 -1.595627652714422806e-01 2.513389210336931523e-01 -1.701358809030402153e-01 1.365988003621671776e-01 5.155594805749438153e-02 -3.853557328275522220e+00 -1.046546337554959544e-01 3.722364974874931010e-02 -1.308385877298691435e-02 1.392738960044317964e-01 -6.412028531014805910e-02 6.959271619210487259e-02 -2.160683126814375715e-02 7.782124937449108604e-02 2.753373627050100803e-01 6.685705025148215228e-03 1.183673189214151794e-01 -1.018734879939787175e-01 -6.252993956710030388e-02 1.230561507591433762e-01 1.430968363572198143e-01 -2.807475137622177444e-02 -7.638394415653873559e-02 1.257902027312696736e-01 -3.654960730231075067e-02 1.377683722299379299e-01 3.754976362119512995e-02 3.958497636749000459e-02 -9.096837557259331020e-02 -4.416687373379872550e-02 2.304899428305971429e-02 -1.836673621076846952e-01 -1.031688016489217818e-01 -1.053030523489906639e-01 -1.436068663435043635e-01 7.289618985936764661e-02 -1.260287987207233396e-01 2.100363325041491609e-03 5.114505239821339616e-02 -1.061695687035282831e-01 -9.019278808280684068e-02 1.624480115970157804e-02 -1.288840437550063112e-01 -1.400517756007944037e-01 -1.674778497304432734e-02 -1.770474976736453876e-01 1.039146924127107713e-01 1.102220065727998327e-01 1.873142332069166471e-02 -9.115046379526631215e-02 -5.008284964652726101e-01 8.819870514165803477e-02 1.238239036335296410e-02 2.799825944023985880e-01 -1.696054472978047734e-01 1.833907927805253080e-01 2.078382951809669699e-01 1.123162623513926234e-01 -3.804152655674102046e-02 -1.093447837606191936e-01 6.742458869733038151e-02 5.111718051024253390e-02 9.107769798531734073e-02 3.326087376440137015e-03 2.292033165091061572e-02 2.452330359127467274e-01 -8.868207411917182481e-02 -2.029289298818594267e-01 2.828409006920036273e-01 1.060170173560961993e-01 -6.774901976854891261e-02 4.914781073581917514e-01 2.188190582562053454e-01 -3.483428211773538785e-01 -5.788497031300208345e-02 -1.152111864524091311e-01 -1.702311343375100816e-01 1.064578693509562850e-02 5.421444658437068326e-02 6.974994687709072660e-02 3.783084705761134703e-02 8.806430829901759627e-02 -8.127860246530500821e-02 4.511001713137776856e-03 -2.981887651879442380e-01 -1.452347993633315015e-01 4.764405949241859797e-03 -6.222600373555470243e-02 9.001298387167998641e-03 2.310466353663956640e-01 1.101160388669423368e-01 -2.412520448135673998e-02 -7.379704785577165249e-02 1.486510805448610362e-01 1.217164191296019743e-02 9.037812206873729881e-02 4.577115942500994961e-02 -1.128462192348255767e-02 3.280438462225419016e-01 5.884518625366123856e-02 2.037466443742528555e-01 1.805814195133106925e-01 -2.505976011995337815e-01 4.327114169855263148e-02 1.382664498033543965e-01 1.473787301582828169e-01 -6.805856729787763959e-02 -7.902697639321641654e-02 -2.209411593958526820e-02 7.930298453014031357e-02 9.704046084099816893e-02 -2.413582688379433683e-01 1.787249369789879194e-01 4.819408263459458094e-03 -5.125814421339398852e-02 -1.748780077494135332e-01 6.809757401544207223e-02 -1.927157135319614856e-01 -1.200800590724511452e-01 -9.376817343410316641e-02 -1.028612972724482766e-01 6.015083388775879086e-02 1.487190872812050035e-01 1.244452700203830114e-01 6.226118533892904816e-02 -7.514554627593719727e-02 -3.376011547607864899e-02 2.094330243319428020e-01 -1.186793138367119999e-01 2.926195462585914203e-02 3.998167644716449365e-02 -9.910949468607402335e-02 -6.054092426270805613e-03 -2.152930423321512687e-01 -4.513863755555463930e-01 9.252372969435578021e-02 9.132332988057365042e-02 -4.691184470848821023e-03 -1.874087452152995159e-01 1.766009319705547087e-01 2.753852877827489554e-01 3.134243519849086446e-01 9.943490887630013209e-02 -1.911712843355286018e-01 6.767517563333878827e-02 1.456670708535178216e-01 2.979167354544152296e-02 1.178743220956638728e-02 9.612379462784235995e-02 -4.625379483249294349e-02 7.260144292643699870e-02 1.051816884210549641e-01 -6.236864683542268223e-02 1.434989994437374239e-01 -9.369359362887848264e-02 1.995372319969393460e-01 5.217931123356340378e-02 5.962253386034778446e-02 -8.692849103340274941e-02 8.586737063315806606e-02 -1.349017360044642011e-01 1.970512527734124414e-02 1.327535071380515352e-01 -1.601452254351817539e-01 3.441204913527300124e-02 1.280905497232992241e-01 9.461139855854276692e-02 -7.381803150484254894e-02 -2.060773041987002951e-01 2.831970048497226000e-01 -4.081420434105454548e-02 2.304189419232783309e-01 -3.324634416953579641e-01 5.873847177849784301e-02 -1.801294237513177410e-01 -7.119947483769324681e-02 8.637510141081145010e-02 2.469213126462554975e-02 3.546070383076190685e-02 7.777413877471252013e-01 -1.691099433160078713e-02 -1.093411341148584903e-01 -2.271991213395515297e-01 -9.812166493344458285e-02 -1.387217717160474373e-01 -1.684066008802316272e-01 -2.342847333242391028e-01 2.056237886677205265e-02 -9.136282829468740652e-02 -5.383691548532233868e-03 5.454113980269367778e-02 8.470565901020740696e-02 1.855173282198671614e-01 -6.211187495429525141e-02 -2.783241820831739433e-01 1.085759108043160420e-01 1.814426488603896881e-01 1.252206518197573337e-01 2.266880162008618471e-01 -2.165499581377379468e-02 4.246387053210821938e-02 1.090939324230611185e-01 -7.619773422091731530e-02 1.467623275136767935e-01 -8.916679635516347457e-02 2.514291381522209545e-01 -1.165525619519833245e-01 6.435470245114119359e-02 -6.611986109154782687e-02 6.272063168141606138e-02 -4.314231536137597134e-02 -1.665192047558822219e-01 8.213252492361833301e-02 -1.581230395798645660e-01 4.352109190737658145e-02 -5.777892195423954547e-02 -2.922345858861224444e-01 1.056790320814774420e-01 -1.869116390059578636e-01 6.496514542591588781e-02 -4.136680125967429761e-02 -1.493419092001673221e-01 1.400445395632968215e-01 -3.800550280009951098e-02 -9.666076776737118903e-02 2.199782766680334969e-02 8.549076749320740076e-02 2.367016025627618689e-02 -1.421658749474674632e-01 1.499952299265509131e-02 -3.522264150526085991e-02 -4.337608532348467549e-01 4.447321156506013617e-02 1.648905235122644086e-01 5.953773049097615261e-02 1.485945980461685634e-01 5.764573553679475798e-02 -1.061161860006335084e-01 8.668086264949330377e-02 1.014811466697912723e-01 -7.277982159652322813e-02 -1.503886996290629274e-01 1.399769451564721601e-01 6.252052223285740895e-02 -3.381550086487415414e-03 2.245058599762592838e-02 1.103080498913579371e-01 -2.892368570275351214e+00 -4.644390693260427860e-02 -1.095000622277141900e-01 1.300499772544959631e-01 5.726324326880876531e-02 -1.743835394069460365e-01 1.200727383772853263e-01 -1.735488079504955150e-01 7.779262996629431872e-04 -1.049735826855095339e-01 1.024392370794498519e-01 -5.789878929917997158e-02 -1.239803238004576896e-01 1.241046576879457734e-02 -1.533359354887456893e-01 6.239911005522390600e-03 1.628852773761267081e-01 -1.446309932161657374e-01 4.076225781163881029e-04 3.079398199388189844e-02 9.943194939306358726e-02 -1.738855867321401905e-01 3.916660762423238018e-02 -9.384580707139869582e-02 1.883017626718400117e-01 4.617275994844460135e-02 3.793349346453662313e-02 -2.320952534431096892e-01 3.169035752927404359e-02 6.568790073431360343e-02 8.703532144435211990e-03 3.611345927388198013e-02 1.907783769190534717e-01 -6.263359035391426188e-02 -9.547683493704321733e-02 1.591000485076998761e-01 7.044450896378993965e-02 3.417919327903350124e-02 -4.969822922855723218e-02 1.292271513235812852e-01 1.415681660961712884e-01 -3.198061975052542832e-02 1.284477925234418505e-01 6.269187777271523210e-02 2.128455329375013028e-01 2.177572737302055795e-03 -1.160224358947105211e-01 9.633649668903032648e-02 6.877918150222349369e-02 3.422649981188404661e-02 -4.811078817484529951e-02 2.333264796007407382e-02 8.510651562163397410e-02 2.687123894480909075e-03 -5.254663448483730404e-02 3.232076553501990468e-02 -1.143355991215373041e-01 -1.314858814491899619e-01 -1.183161071299574651e-01 1.280579878584386655e-01 -2.980448213822406087e-02 1.423698234577218114e-01 -1.057134922057626769e-01 4.736554205176541493e-02 -1.166476995227115621e-02 2.044570520554270798e-01 2.010878138728466880e-01 2.549793098640393274e-02 4.193110567660557342e-02 -5.309622469363161484e-02 9.028489158657114488e-02 1.356894593329795451e-01 1.229937402148718745e-01 2.340462530003802055e-02 1.967285060061000068e-01 -7.351202934368125663e-02 2.983655073582807543e-02 -9.763563380599660571e-03 -4.248451482134951718e-02 1.379864432750769754e-01 9.777792570684103179e-02 8.648455598341618644e-02 7.950543833013663797e-02 -2.133564010741657857e-02 7.144901125766996153e-03 -1.743083711674344172e-01 -4.357041041212573323e-02 2.224313932808176797e-01 -6.688654972693808265e-02 1.215823813069034642e-01 -2.896360148696577319e-01 1.672293980659770030e-01 1.411749449476107365e-01 9.871534564981051044e-03 -1.289567148102502845e-03 5.914505531216458084e-02 2.576777365495325767e-01 4.209857342699711152e-02 -1.938604164003349117e-01 -7.246521148153631416e-03 2.345894862902189043e-02 1.842780418575540313e-02 -2.001832270204105015e-03 1.809965862776690415e-01 -1.609116754658763970e-02 -1.608581979433960571e-02 1.654980225651993264e-01 -7.024964514761301154e-03 3.025106779468164642e-01 1.112728896825826014e-01 -1.359846296563909096e-01 -5.058251278133801820e-02 3.377613447532556296e-02 1.295757151011924790e-01 -1.838742516979725850e-01 -2.164318845564183746e-02 -1.034152897870038029e-01 -1.630915339890780247e-01 1.164197377965601188e-01 -1.802286837987293888e-01 -1.258017340871085427e-03 -1.078278897535196873e-01 -5.872540403791026015e-02 3.252158800925158411e-01 4.633535964326843115e-02 1.647846071197816287e-01 1.390881497120375621e-01 -4.066986140291246887e-02 1.727039006025900825e-01 -1.420921791535959822e-01 8.661136427902163190e-03 -3.210964788003962261e-02 -1.975183617298692778e-03 2.195507221585258073e-01 -3.981697443602184167e-02 -9.179742762484799368e-02 2.272821025093364755e-02 -9.735302906435984796e-03 7.071361358482111670e-02 -2.407725687864209763e-01 4.502076407244424983e-02 3.012961070021431473e-02 9.077706895038416268e-02 1.165184796558493274e-01 4.542923982591361154e-02 9.585672392319669055e-02 1.968014860031777613e-01 2.337402376732628656e-02 -1.308944699814977297e-01 -8.092990872146307857e-03 2.586548707880280129e-01 -6.558752377596555050e-02 2.502027647589918913e-01 9.529856732828931309e-02 2.351824652733213172e-01 -1.848615315719599750e-01 -5.949152815724931265e-02 1.167149477511308792e-01 -1.726917705103509643e-02 9.990421319547211632e-02 -1.123009307237531930e-02 8.532621105246181170e-02 4.920067064320096661e-02 1.364560747382742578e-02 2.429294596681474613e-02 -1.794501355459352521e-01 -9.064655225442749559e-04 5.668188096185850650e-02 -1.660730211472354612e-01 -1.315021452304837857e-01 -2.738721860809421524e-02 -1.084385550481676008e-01 6.870559802259829096e-02 1.478202202180611269e-01 9.114358400199872035e-02 1.284283305358280280e-01 3.087260908219400385e-02 1.053410367060168967e-01 1.446656522252311172e-02 2.093137495921030752e-02 -2.868935335009263898e-01 3.023254338815354464e-02 -2.214110333097220329e-02 1.457083525485329545e-01 2.071723401775290574e-01 2.438472908707532694e-01 1.037884536864192714e-01 3.979546456375903513e-02 1.099703992969898875e-01 1.011913823699926163e-01 -3.744852434103653621e-02 1.537317900367906054e-01 1.239688097846346204e-02 -5.352954670622458999e-02 5.102532223259614169e-02 1.119136593270163432e-01 3.594805218923960433e-02 -9.304593471331538967e-02 -1.179625636747620443e-01 1.631600724778932976e-01 -2.213827754162518979e-01 -1.138395065705202353e-01 5.275191922874292172e-02 1.479305961262189217e-01 4.673839286155852951e-02 -1.324298934342256207e-01 5.232260428879709907e-02 1.868009337168402006e-01 1.351579843385236346e-01 1.380324450236345979e-01 -1.259919066880774985e-01 -1.310121154639588559e-01 1.957247565717198379e-01 1.428118845169253914e-01 7.192807071137019559e-02 1.196929604790780005e-02 -1.781890881780746616e-01 7.485542333131227355e-02 1.768719974776466475e-01 8.659292959880383889e-02 9.586938406218518338e+00 1.237175874872663284e-02 7.956838092469041557e-02 -8.572450248948762508e-02 -1.023640376586890935e-03 -7.734167322523215204e-02 -1.560423199560285745e-01 -3.247430229748499708e-01 -5.049792977728242982e-02 9.196954168521842554e-02 1.620993736504935945e-01 -2.088275991201662685e-01 -4.870775007774823251e-03 2.498353163662088705e-01 -3.943483879356513705e-02 1.386497014593491596e-02 -3.170201492971693596e-02 -5.257507375480978407e-02 2.924159024290926556e-01 1.744503334053194576e-01 -9.675170559232790235e-02 8.887697644795264362e-02 4.438174318695210091e-02 -1.656478470528500169e-01 -2.073871801086765443e-01 -8.424183566126276085e-04 2.597438176169784493e-02 -1.072910861892510531e-01 9.809336616640874917e-02 3.506164967951307804e-02 -2.057225777769628450e-01 -4.795182012338756149e-03 1.725669724279373096e-01 -1.721880548097748029e-02 5.503059379916221822e-02
