-2.148354591978571607e-02 -3.159924673660647471e-02 2.285703677877801154e-02 2.204650626420882192e-02 2.844775117144790477e-02 3.848090391072413879e-02 -9.145256550793160258e-03 4.522072586967387092e-02 8.249558932592852487e-03 1.452905072928254901e-04 5.222235966034187958e-03 -2.740012708966815813e-02 1.963986663229943738e-02 -1.278549016211480947e-02 4.104876476926048318e-02 8.913632308733402884e-03 1.039347314700199074e-02 2.076543588767367637e-02 1.543587740981462557e-02 3.496146195338586254e-02 -4.367187448536590660e-02 -5.014015800102108317e-02 -2.692097394834207236e-02 -2.530739899524572442e-02 -2.424478217590448834e-02 -3.808642620106607313e-02 8.066971342820247054e-03 4.829225680779800772e-02 1.612438640782648536e-02 -8.713465657764133190e-03 8.317023707460499682e-02 -1.072691168695594742e-02 -3.001161454215476102e-02 -1.765004546559503741e-03 6.268508119052370285e-03 3.055706924822904763e-02 -1.825349817615765785e-02 -1.371773694032018577e-02 3.532771745564611959e-02 -1.712898049436341677e-02 -3.569449946049281508e-02 -3.246829414074403619e-02 -1.355404979097015773e-02 -5.279079580548943357e-02 7.884431655691241658e-02 5.797379873277585388e-02 -2.612428135673907845e-02 2.290468105726637185e-02 1.921378346354140482e-02 2.617408543347251801e-02 3.837784755985222240e-03 -1.127016395245813117e-02 1.821159357314783983e-02 1.881892238328878100e-02 -1.071933221099408487e-02 2.354513523743487560e-02 -1.104678325847063998e-02 -9.259655716796162672e-03 7.654896192019452865e-03 5.162280838625814619e-03 8.674720107889275500e-01 2.954464107621050314e-02 -1.333803065199337147e-02 2.871962934463578865e-02 3.064375200146231271e-02 1.769509896803681329e-02 -4.769549846632445238e-03 1.681018862211391615e-02 -1.708831292869112534e-02 2.398238709439625208e-02 -1.416736730589337502e-02 1.160577861324521565e-02 3.034331499016796468e-02 -1.297507520079124212e-02 3.037804485741146115e-02 2.884935632297994795e-02 -1.041610544462626999e-02 -6.494473287662825807e-04 -1.519834188587934447e-02 -8.369488194684530230e-03 -3.119395261547625031e-02 3.081669081781695987e-03 -5.624086169761939244e-03 1.331678929519634728e-02 2.714159375825474577e-02 -3.935690196513254996e-02 2.556456005995324035e-02 -1.227049741138520333e-01 -8.143188671969423670e-03 -2.289586276340719977e-03 2.174036855905076351e-02 2.695552551288101038e-03 1.312095370375238046e-02 -4.969301531523848819e-02 6.580456329671999227e-02 3.587654353557972325e-02 -1.970396496868167049e-02 -2.392677413658654204e-02 3.548819289819302170e-02 -1.606027408581628272e-04 1.208866669234362305e-02 -5.973862456844009810e-04 -2.068987873509713776e-02 -1.456359964430393658e-02 -4.811152705083823755e-02 2.558937182584498145e-03 3.267278297462395537e-02 -4.953032919150732183e-02 9.154666056112963773e-03 -1.026052251664894346e-02 -6.529351654454493281e-03 4.090184669946161922e-02 -3.161665891989323685e-02 1.515498133514358746e-03 1.601368155079290617e-02 -6.363107057426884219e-04 -5.112795293657144968e-02 -1.133140008896083538e-02 -5.794575660902825248e-03 2.259736482066774382e-02 2.980126687469066005e-02 7.421821057879886274e-02 6.915087541689974443e-03 1.244979845594149613e-02 -2.355107244321453033e-02 3.367722895816612698e-04 -2.973489366687486965e-02 -5.632775046359728838e-02 4.333078183852364512e-02 4.072677309552416927e-03 -2.579771952032278506e-02 -1.922396334464614165e-01 2.513261360375427730e-02 2.383650132630493398e-02 -5.361098520465650691e-02 -1.245340391927653037e-03 2.779528807098095682e-03 -8.987546646654815535e-03 -1.546228934681400345e-02 6.165612735186130726e-03 -1.499280150171332544e-02 1.447239739951613341e-02 3.136139975321380197e-02 4.205973296522294569e-02 3.759008096619530226e-02 4.493074313459338720e-02 5.083165911401647113e-02 1.848168808143499722e-02 1.646470255150640077e-02 5.819135026229846352e-02 3.442355106185525891e-03 -2.332693693292606923e-02 -2.028740707617391996e-03 3.208006759911732203e-02 1.739664265154020062e-02 -7.087657502392902265e-03 5.903732668467135541e-02 -2.332399936409431176e-02 -1.087037154948866137e-02 -9.040315077866123428e-03 1.993616246871369665e-02 1.177295163278680584e-02 1.070197759414792497e-02 -5.974075627054495352e-02 2.243608194620889951e-02 5.503028800288446015e-02 1.600538309140908666e-02 1.628190342366583193e-02 -8.941515846434917522e-03 4.528910742250738877e-03 2.691486841989709170e-03 -2.674797341273147527e-02 7.101329350980057655e-05 1.140816846694351142e-02 7.572353242003109809e-03 -1.192991368129982591e-02 2.407685443211483520e-02 1.008535445025430903e-02 4.164993991365661258e-02 1.166171787613461130e-02 1.701325499843481769e-03 3.369690429498255896e-02 -1.493132813768954965e-02 1.163453559889436259e-02 7.255320880730662010e-03 -1.552123281524994160e-02 1.269365426128115683e-02 -1.491895411725940694e-02 -6.746701605539858621e-03 -3.960749123312773401e-02 7.476058265806775731e-03 2.564336211623649553e-02 8.774340028329572494e-01 -1.902203919324188877e-02 -1.371561761213785542e-02 -4.182026511418141662e-02 4.288809164655087158e-02 7.226380976090045725e-03 -7.605461706561569661e-03 -1.218716290249025232e-02 -4.063752078482501390e-02 -6.891134403695934468e-03 -3.522578440605256961e-02 -1.257233546410522693e-02 -8.056471571327666979e-04 4.824664190765911090e-03 -3.140090053748233884e-02 2.552718780023854883e-02 -1.091532375304009664e-02 -6.552156565895367324e-02 -1.095344788804722067e-02 -8.334638632519135448e-02 2.437030014858721297e-02 1.520969928940768198e-02 2.476234246708544119e-03 1.342144274020888421e-02 8.228646626720260981e-02 -2.382308978610663940e-03 6.110051902164923519e-03 5.301129371227226994e-02 1.469311015078748027e-02 1.190307210319477976e-02 -1.597165905949312487e-02 -4.181007536920224900e-03 2.496201971388380819e-02 8.569087735477206452e-03 -1.317935925852293556e-02 -1.773430956734808536e-02 1.850623685757600903e-02 -2.270708843701660026e-02 -2.045994724807350187e-02 -1.740191904928539354e-02 -1.970661800215678730e-02 6.463294866068365098e-03 1.642379660212645379e-02 -2.360034398202874584e-02 4.697140915807854894e-02 -1.559315767411647430e-02 1.332107556865495465e-02 -2.365094111807050301e-02 1.047008156243660711e-04 -5.594880238766443241e-03 1.413788136945890068e-02 6.067541579442995575e-02 -1.842094448003463517e-02 -2.669695541205034661e-02 2.268861527308059858e-02 8.764347911415051526e-03 -2.849835557839882835e-02 -1.680087787769541860e-02 3.432586222041842522e-02 3.532050548397309454e-03 3.041260169515461187e-02 -1.510210817477889399e-02 1.118937171978565646e-02 -2.533443510698351470e-03 -3.171628304498139064e-03 2.002674719393772798e-02 -2.480678272045181570e-02 2.310901421491752712e-03 -2.181547524622691470e-02 -4.684030879119373963e-02 -2.127235881766130488e-02 -5.213729875438301992e-02 -1.773651140565245948e-02 1.898461365402229553e-02 -1.327766808336492375e-02 -8.152100502541864691e-03 4.164564267928681784e-02 1.032198407935359420e-02 7.326943465968589926e-03 5.984579710915206331e-03 -3.325826724356144293e-02 -2.125050952321839298e-02 -2.802914033349853881e-02 -2.435292787573584139e-02 2.068516578362961447e-02 1.043490598831178220e-03 -1.069600483737651563e-02 -1.058026033788922043e-01 -4.053334368283278283e-02 -2.739532673091520099e-02 -2.277313105136363758e-02 1.044196316669145259e-02 2.019583470898447808e-02 -6.272101247333421170e-02 4.017119879585453503e-03 -8.268577951786447444e-03 2.809999078261735117e-02 -5.555508402996928857e-02 -4.063986098372173589e-03 -1.531642008390666707e-02 -2.577554732084266081e-02 2.776685368847430641e-02 -3.326943175518778939e-03 5.058954739808965012e-02 -1.325741774000675256e-02 1.444878248628790954e-02 -8.534144233507670249e-03 2.302037658254603089e-02 -1.660961754741159882e-02 -1.403094361118083916e-02 -2.489278666253113073e-02 -1.946211576800071022e-02 3.089009635376091349e-03 -4.628813409825333243e-03 -3.189933554763364071e-02 1.529249416956682955e-02 1.407985308612099036e-03 -4.184280598758249869e-03 8.531920037040789401e-04 -6.526006696030428600e-02 2.461376393303623539e-02 5.366984580354999812e-02 4.340464388851716926e-02 -2.305589017224870044e-02 -1.806028984103470042e-02 1.823915095038687595e-02 2.098312908524348902e-02 -2.178685731103842046e-02 -1.221788247847845456e-04 3.399530567628231831e-02 -4.365023439917853224e-04 1.735638794136864366e-02 1.389122441665683640e-02 -7.179525253518212469e-03 3.853110126357066605e-03 3.141164079725324975e-03 -3.794792954384150225e-03 1.022123233704769077e-03 1.189996890336707594e-02 -3.742659487117096923e-02 7.114347666005685529e-03 1.032404569624292487e-02 -2.170615308842395799e-02 2.689862322555910956e-02 1.691386394015282832e-02 -5.328166874867710373e-02 -1.408960197378433463e-02 -2.606012613589652263e-02 -7.041955633849722451e-02 -4.165477267215817077e-03 -2.076055344233978736e-02 -1.983704970379025073e-02 -2.726057265899578010e-03 -3.041224398537048165e-02 -2.883484445144810643e-02 -1.071006151425831464e-02 -6.248026332316077708e-02 1.565484645264683672e-02 6.636010834061413163e-03 -9.034434523938228781e-03 3.486687554753770124e-02 -9.259006028329680796e-03 2.483247625633290892e-02 -8.318623587538334641e-03 6.411088346827921100e-03 -1.449823725236443856e-03 1.062285531651816980e-02 -3.414380115424116291e-02 1.960707387910122848e-02 4.454294570358927063e-02 -1.390073115463940322e-02 -2.680538688779866494e-02 -7.573879858520875252e-02 -3.854756451653788135e-02 -1.696322716724975310e-02 -8.639805284285847001e-03 1.117090739545218044e-02 7.290274774749210332e-03 1.839243220362215409e-02 3.925359749573398976e-02 2.655080143107534443e-02 5.710014565305128464e-03 3.676877122002739084e-02 3.193668016730691339e-02 -1.127272697752601353e-02 -2.328881917435881785e-02 2.679910263625638264e-02 2.689072596544744842e-02 1.443577517983814576e-02 -2.831382610460068602e-02 -3.233210381992788346e-02 2.238591770114979618e-02 5.564371412761317387e-02 2.101802963727500070e-02 -6.057943769425473517e-03 -1.715326090127409012e-02 5.093316209417944607e-02 5.180818213995207200e-03 -2.473428009693650568e-03 7.164021843375756836e-03 9.636492040352865121e-04 -3.517549323089582455e-03 1.386694457697144021e-02 -2.921485600981131234e-02 3.220651018868035675e-02 1.910231200980154476e-02 1.729293699167612497e-02 -2.650687744919466918e-03 -3.178624500936726854e-02 -8.226987259574295927e-03 5.628104910635223918e-02 -3.575685430034249157e-02 -8.124146333620321098e-03 -1.362521060293298870e-02 -1.803313391491333240e-02 -7.110798295730244101e-04 1.430742569590379501e-02 1.307063438098488885e-02 1.090281752676934036e-02 -1.614432562866623469e-02 -1.634711995426802594e-02 4.100925962378858085e-03 1.217867321144920807e-02 3.714883029905620415e-02 -3.588401012869943396e-02 1.658674999426755850e-02 -2.083692065086101969e-02 -2.106500828234172257e-02 3.326616512060635855e-02 3.605214794148729751e-02 3.970523882942372101e-02 2.562382930554246707e-02 -1.914323673851962620e-03 2.479845395371754399e-02 5.064315267061772485e-02 1.409931264307500223e-02 6.937407751304920656e-03 -1.872687471769069606e-02 -1.762215879870371316e-02 -6.885498315718620831e-03 -7.096514760552748982e-04 -7.604924032025275546e-04 -1.121401340258783991e-02 3.345570644491470402e-02 -1.147507836983424449e-02 1.971244478341863809e-02 -6.245224474918302342e-04 9.259023743358221455e-04 -8.721515249048676643e-04 4.201225451000897143e-02 -7.526441273792668692e-04 1.465048532343678732e-03 -4.031088604715464541e-02 -6.866658792490094865e-02 2.036647359488367656e-02 -2.537514675703857712e-03 3.869168695308100245e-03 -2.537894435788394694e-03 1.685287168968844368e-02 -9.070248224318349858e-03 -5.071934371308006728e-02 -2.424742015105133680e-02 1.317135348918870019e-03 -2.058843444464838676e-02 -2.397094739998099217e-02 -2.019677670927654684e-02 4.315290126309307903e-03 2.774734516661947134e-02 6.348419235838368042e-03 -2.037300397761207874e-02 3.095060210793152203e-02 2.144479597610724972e-02 -9.087283825564489853e-03 2.580166669284740533e-03 -1.342403816524087405e-02 -1.749654012910028394e-02 -6.098236208598117013e-03 -1.455844504525151406e-02 -6.296068772958508114e-03 -9.294685501736975330e-03 2.218143352597035795e-02 6.798517242242462649e-03 -5.255738558236541097e-02 4.658735752947526509e-02 -1.382300147197937888e-02 -3.619450655433847919e-02 2.390899065569893414e-02 -5.940675844201948443e-04 3.052082250023017626e-02 -3.876659059000850394e-02 2.016573808127362227e-02 -2.320880610552613146e-02 1.001617074470727287e-02 8.352593772218672857e-03 1.815357065679347112e-02 3.373208072920428485e-02 2.881195057011873978e-02 7.984031882041928152e-03 -2.485627902240601043e-03 -4.208274536659940140e-02 6.138065825149027939e-03 2.086531322925305743e-02 -1.299994807099564935e-02 -2.695711926246169288e-02 -4.063661371790219801e-02 -4.723896432515912319e-02 -3.672379291528640038e-02 1.947084262841997700e-03 3.814877270278848719e-03 2.363140480833339496e-02 1.336859143005996765e-02 2.116431990291645082e-02 -6.204468487318997964e-03 8.086735212456178795e-03 -1.712893042354624029e-02 2.795726729629286270e-02 -3.844683661454226351e-04 8.028415480597261844e-02 9.450073853683188183e-03 3.818172428655514788e-02 -1.346130568432338595e-03 2.634329897987526710e-03 4.417146307504917629e-03 -1.536227459257616564e-02 -1.616622309813465965e-03 2.171283247346366893e-02 1.823072573615085526e-02 -6.647410762292958741e-02 -2.350938120080387980e-02 -4.487053531028099493e-03 -8.336226341273214602e-02 -1.601961354211148747e-03 -6.914502736009890509e-03 1.214571592433950388e-02 7.011662539775694036e-02 1.300146991625369605e-02 -1.548309779116087284e-03 -4.858009846922403891e-04 -7.952184010707655237e-02 5.129602920627510110e-02 -4.867855194781472994e-03 -3.234241103572067094e-02 -6.786920071728776149e-02 -5.858904431258249446e-02 -1.074775437181155723e-02 2.107252683305843241e-02 2.859633569529654307e-02 3.777272964665477628e-02 -5.381015407291093490e-03 -4.728908481088143351e-02 1.643989609106175434e-03 -6.518334066955731518e-03 4.572358862789874939e-02 1.016976660337183015e-02 -1.084351530836457321e-02 3.493435810687983700e-02 -4.044840419615584534e-03 -3.804245885949846841e-04 -2.383098622462468015e-03 3.673360940074979486e-02 -8.198009663321277271e-03 7.220972304143258302e-03 1.001428646194060454e-02 2.328331518752630933e-02 -2.180182466950017148e-02 3.350488072777358241e-04 -4.345426670921324896e-02 1.690998228091375455e-02 3.720063622858799796e-02 1.505835352542613491e-02 -1.721520259538409162e-02 5.896060570474160462e-02 -2.456972325141395727e-02 -4.370348662951075575e-03 2.589088793047765111e-02 -6.276672382387542271e-03 -2.326985321155471825e-02 7.029263538613829757e-03 1.334300995360264246e-02 -7.423135953276598260e-03 -6.988600544645583385e-04 -2.364729373606984028e-02 4.005829016547730881e-03 -2.998085674927018079e-03 6.052013160285682480e-03 1.225744576418626511e-02 6.707240978601805015e-01 1.320819054850599569e-02 -2.660337120397229457e-02 3.208938942968916908e-02 -1.506450690230958650e-02 1.349817456977800596e-02 -2.445640775795951405e-02 -8.486812099208044385e-03 -3.109137026868557044e-02 4.847901654821321071e-02 4.250739162901153584e-02 1.295930206915426978e-02 2.991733238780215284e-02 4.971522128999118599e-03 -1.267962041724675186e-02 4.051953882033084570e-02 9.069540747921116600e-03 1.645133550518231708e-02 7.979079679906461026e-03 2.310984177452060639e-02 1.455499714019342986e-02 7.165859558899811965e-02 -2.291460190082060880e-02 -3.006850472844491140e-02 5.104055744200508560e-02 7.265233533372943142e-02 1.590323570110420415e-02 -6.982734259380990460e-02 -4.767434915041856430e-02 1.489831322321812090e-03 -9.694792549932959233e-03 4.367057705496233191e-03 2.422539137197076559e-02 -2.516370329511125829e-03 -3.240776997857705566e-02 -8.425924765643352105e-03 3.884446031210025269e-02 -1.949707744929632044e-02 2.314604633582133253e-02 7.363118797062583043e-02 -2.125638917405870548e-02 -2.069934911601744795e-02 1.216197262004707798e-02 -1.156100886998398351e-02 -1.474269573422439319e-02 -5.514423185775323144e-03 -4.524264389106565781e-02 1.755417898451755443e-02 -1.703297529349397099e-02 -5.105173115130015593e-02 -2.409518669624836212e-02 -4.211402561952686148e-03 1.505992166860644667e-02 9.228610786745180443e-04 -3.505894084232628188e-02 -8.510448430080074303e-03 1.513221098897873651e-01 2.815050205029114364e-02 -6.327250560243767863e-01 3.266777581367689975e-02 3.121421910396292992e-02 1.860968337977915096e-02 1.345726709254713160e-02 -7.178898989966793487e-02 1.200431851994830483e-02 2.730532597254044583e-02 -7.674849471953530157e-03 -1.892898868238340401e-02 3.760662537391207261e-02 1.948915078679683277e-02 -1.837795941865855501e-02 2.262711067686363695e-02 1.292040434599704343e-02 3.583556215691583585e-02 -4.363337726504876342e-03 1.285589347652443641e-02 -1.185075113881335802e-02 1.855305784210708672e-02 -5.052980995054344796e-03 4.295822548947327707e-02 -4.055362516739471380e-03 2.846163464205831231e-02 2.680568181481499460e-02 -1.205313661844056340e-02 3.607371190907122244e-02 2.314453080163115725e-02 9.756735225893656965e-03 -1.727057613833728189e-02 -2.434667325480815298e-02 1.947114669563966213e-02 -3.746224392852634533e-02 5.827035858296320675e-02 -4.782016788527738982e-02 2.830925630358772861e-04 1.567726691848510615e-02 4.706955069232526476e-03 -3.757743932523773932e-03 -4.311909067536364576e-03 5.039332533700537076e-02 4.846503854951441648e-01 -2.916360051032515499e-02 -2.020688256873630524e-03 -4.469783618649634388e-02 1.739271433859477384e-02 -3.213445297332005041e-03 -2.588919972703528430e-02 -6.023550706605277239e-04 -6.499883141875642881e-03 2.112836118072634450e-03 -9.736041891023847553e-03 8.737467565645093762e-03 -1.980668548334127768e-02 3.478249010377327394e-02 2.824903884233697249e-03 -1.116059140756011855e-02 -7.744997087324656179e-03 2.923108459748463041e-03 3.259080073065991762e-03 2.331156959359515293e-02 -8.264405922853375330e-02 -8.657620386517574443e-03 1.074729488701860018e-02 1.672497469017484792e-02 8.824909463821563327e-03 1.325862205255464409e-02 2.075964182760424871e-03 -8.582456490835478624e-03 -4.803346980687964000e-03 -2.434941386226156454e-02 -1.997886809149715739e-02 1.441900497446149676e-02 1.423011530213625850e-02 -1.401724376871070835e-02 -1.467652501444660119e-02 1.624937316993201129e-03 -2.931753911533992868e-02 1.436137997755267647e-02 9.039063895996490502e-03 -3.538392882816519813e-02 2.147146671454802300e-02 -1.713053883195638644e-02 2.485714423540978657e-02 4.569063757423193553e-03 -3.317206817106387734e-02 -2.534535667498178518e-02 -2.583967907701473828e-03 1.960447776547257284e-02 1.684851244055542499e-02 -8.726735497701015171e-03 4.653466045182209909e-02 -2.096532892979174195e-02 -2.998996510204582008e-02 -2.629823644434089308e-02 -2.382413837819528923e-03 -1.798426281477684754e-02 8.242858614418663993e-03 1.693304712620697554e-03 -1.597095731682566036e-02 -3.534829656540725701e-02 -5.162349143626732140e-04 -2.449326651160219775e-02 5.379352439541823516e-02 -1.659759521986004654e-02 7.601697660858679206e-02 1.159519517693169757e-02 -5.131852700564634717e-02 8.231376979657078000e-03 -3.712413356109336288e-02 -2.713834792223155865e-02 -2.246840042353064060e-02 6.179484635470244153e-02 -2.129093890469275704e-02 -1.725357192493325812e-03 6.547481121520194909e-03 -2.574400133039668817e-02 -2.928477518265151791e-02 -1.721671416665881971e-02 -2.347679147940873179e-02 2.763482151908896664e-02 1.510176072301993959e-02 3.002079325301232685e-02 1.004323001979246129e-02 2.033159212579530896e-03 -2.782187127793835091e-02 1.153567914582719414e-02 4.212770723316897059e-02 7.437565794626428695e-02 2.772573614084241148e-02 -2.390020531512164134e-02 -1.255060762489316854e-02 3.376064438955430399e-03 4.017231545223232808e-02 7.931798845903013755e-04 -1.207280194054709266e-02 -8.996493113364398969e-03 2.422087333323685344e-03 -3.414750221425196137e-03 1.899639944153234256e-02 3.229640143307119932e-02 3.244466818649167916e-02 -1.434322727234459659e-02 6.146117279404725471e-03 -1.203610454062933009e-02 -1.539632523545012184e-02 1.348246520894093477e-02 -1.685591711192794759e-02 -7.025022201231876338e-03 -7.233880794913212335e-03 -1.414009449611317200e-02 -3.181685004219421756e-03 6.333453822622177321e-02 -1.605759625060580731e-02 1.116643115577291463e-02 -9.092631446348892199e-03 1.495506815925393314e-02 2.494530617502573717e-04 4.378485339683469389e-03 -2.020413531354052147e-02 1.836320029199503892e-02 9.901683183113777278e-03 -4.605360328799419645e-02 -6.007881542154726133e-03 -1.458347141952296561e-02 3.078077364574692554e-02 -4.133421319237784441e-02 -8.171322111188308521e-03 -4.276834051671299375e-03 -2.529261620986131276e-02 3.635317823089818934e-02 6.043524100952765016e-03 -2.877603075144537573e-02 3.629557270661563917e-02 4.737547436998548051e-02 -8.818949469125727386e-03 -7.157828716894880025e-03 3.660281773117799592e-02 -2.942973704657469644e-02 2.963855312649390367e-02 1.157021622448610974e-02 -1.738730700917320848e-02 6.234538809027093988e-03 -1.017128304515246655e-02 -6.389330634208814294e-03 1.010856606763453278e-02 1.280066081054678437e-02 2.896050972136131330e-02 2.512266958635113109e-02 2.912032544521910796e-03 -2.062651117677455001e-02 1.385441633609606031e-02 9.720116851635133073e-03 -1.994785349594278140e-02 4.592955674406757997e-03 1.111378966875543016e-02 3.253078770590645680e-02 5.558408805014163762e-02 5.633041637069190026e-03 -1.593538977435637882e-02 1.044147244044067550e-02 1.297093483727540866e-02 -3.506704841657511812e-02 7.466892407297826689e-03 4.645495456484182405e-03 7.880206442150551258e-03 -1.382547569274038268e-02 -1.342554557078123531e-02 -7.095739736054211544e-02 -1.317351596469792940e-02 3.010674037970432690e-02 1.376892756729534073e-03 2.548084663630587055e-02 1.636694847214225507e-02 -3.057713849785782118e-02 -4.391614718031560533e-02 7.566695672719085317e-03 2.300296515893583693e-02 1.043097395179859790e-02 -1.132135127620009264e-02 -5.266975336217622622e-02 -2.060614459836070111e-02 9.479172612932920683e-03 7.587308137589600376e-03 -3.333652850339299117e-02 -3.803195925086921142e-02 -2.460848536161157341e-02 -1.267376543297179994e-03 -4.312247912147171985e-03 -3.343885856024708669e-02 -1.756784006826436761e-02 -2.004393291474938429e-02 1.242423768568418942e-02 1.051591736719151066e-04 3.636131603173132359e-02 1.795964948840529304e-02 1.173122203740027203e-03 3.190157495879577393e-02 -2.125338739974168972e-02 1.328175007886201950e-02 4.582119309583497502e-02 -8.153572720692432371e-03 2.190137259931869852e-03 -3.182348139806976100e-03 -3.927546715376693809e-02 2.713593846985438290e-02 -2.165879694225184351e-02 2.400595589758424200e-02 -3.820369817223064068e-02 8.572558820064767049e-03 -3.222059707926870631e-02 -4.343323321446041939e-04 5.385560510042285490e-04 2.439606394572822398e-02 2.571028472017866575e-03 1.835949140018230258e-02 7.572924889410174998e-02 -1.740510765895232972e-02 -2.470061410509550096e-02 -9.366649965020156995e-03 -1.424604691023972046e-02 -4.022368390828759237e-03 -1.017470548400073276e-02 3.630420741644529992e-02 2.960270289677246341e-02 -6.294146271763531586e-02 5.094002087860994427e-02 -1.474033726483103303e-03 7.733987906477376995e-03 -6.150676007492162809e-04 -3.087824172413591514e-02 3.614958290197284319e-02 1.479152481296528050e-02 3.974579805552667933e-02 -5.304721206135275605e-03 5.397405531714282584e-02 -2.386011881594131065e-02 -8.460937193278909862e-02 -1.151518558968038855e-02 -7.227976350681714242e-03 -2.072374496987086298e-02 -3.524098550035076327e-02 -8.339142738844240038e-03 7.766856225324109131e-03 1.724300112847614291e-03 1.492329772244836185e-02 6.065468059303693107e-03 -1.172001369752132763e-03 3.526097941876554353e-03 5.990917391071458320e-03 1.593957920296995567e-02 7.195816414712188046e-03 9.570663621650016273e-03 1.337590929965199078e-02 1.868850654092583247e-02 -7.147926366435931704e-03 2.198095051004932132e-02 3.533710352682498806e-02 1.826907436965689510e-02 -4.241769795170437229e-02 3.310876334474736199e-02 -2.190904177630749461e-02 -2.414784324666727905e-02 -3.331767160042076181e-02 3.654256625098055433e-02 9.243749024824891858e-02 9.734148208621103008e-04 5.086672470508823291e-03 2.019394641076487779e-02 -4.666010263885715659e-02 -2.038645888927472817e-03 2.717598871990253157e-02 3.445773914533443311e-02 -9.130050648342125444e-03 -3.409996411993573579e-03 -5.448295666104122949e-03 1.349517825376810032e-02 4.861714468729328581e-02 7.778944824859271301e-02 -3.379401717750751388e-03 -1.788918589560686487e-02 2.738658765718494578e-02 7.357459600852936377e-02 6.016714384229321366e-03 -2.689020335432894954e-02 -1.839354476567475749e-02 -1.298888453881358318e-02 1.559394647247213479e-03 3.127781581809510603e-02 4.344460361975242824e-02 -1.623985225613614608e-02 -5.780710519556197212e-03 -2.178274048183980252e-02 -3.779002333705198079e-03 -1.795790794128006296e-02 -5.308649887283622970e-02 -3.422784154756569608e-02 -3.553426140221366270e-02 9.156746113920118460e-03 1.395060338332541720e-02 5.596268310707904446e-03 3.994850013748173050e-03 1.985963319265870997e-02 -6.476282742866592765e-03 4.042023662532429062e-02 3.725037511284786523e-02 -3.136663847889353124e-02 5.016357006998288515e-02 9.839297191823223425e-04 -2.081481436825583300e-02 1.269311177361738367e-02 1.805338313091430901e-03 -4.242294278370840194e-02 -2.556007863060404117e-02 -4.622715238345623256e-02 3.298114845149438534e-02 2.125265682703797454e-02 8.327905280903288507e-03 3.089026709181753611e-03 -3.085030094489705707e-02 2.506454767977595033e-02 -2.048410758208547844e-02 3.206780117444007344e-02 -3.727589620072329323e-04 1.393447359225612279e-03 1.697328319182328515e-02 -4.585895256055069064e-03 -3.423035598534643342e-02 -6.962129723162920059e-02 -9.281665202590239213e-04 1.207479201341717968e-02 8.191603165604400411e-03 -8.631502889951413876e-03 -5.412644233177748253e-03 -2.384304295902640175e-02 2.902694441546886314e-02 -2.467675033878561144e-02 -2.521743344685042909e-02 -3.377508052883802358e-03 -1.499374192655560057e-03 1.977614542898523814e-02 1.644809512784633013e-02 2.746040255228058419e-02 -3.338800025292056051e-02 1.223511069021025049e-02 -1.511808510450869843e-02 -9.493068301981500909e-03 8.517622613779354465e-03 -6.647906488433596821e-03 3.488502370251760076e-02 -4.141602644617095597e-02 -1.200532262808160812e-02 -5.084326391029737185e-02 -5.729321900762325559e-02 4.053981487967265457e-02 2.747920476961704123e-03 1.624817822046890556e-02 -5.186074078979900463e-03 -3.233046386963497193e-02 4.731283223093843415e-02 -7.804025329642281378e-03 1.618280428104714244e-02 -2.500278519390377804e-02 -1.761806168618662918e-02 -4.898428528826487618e-03 -6.898375426334060062e-03 3.300686032053443131e-02 -3.000701307300744636e-02 -2.506731621151499917e-02 -6.894996224306734235e-03 -1.486631862554334098e-02 4.334727613914757943e-02 -1.831675290364354405e-02 2.888025221048509325e-02 2.619455869314962423e-02 -3.295210751042756264e-02 -1.260728687405928729e-02 2.086499199144083855e-02 -1.193803296630954053e-02 -7.764988100979752783e-03 -4.091595911723259343e-02 -1.977727167438870018e-02 4.134736057219854689e-03 -5.480782812131928562e-03 -2.132142160025180672e-02 4.941854655044110312e-02 1.312910237532187094e-02 -4.964437298233618373e-02 -2.317898717919495907e-02 5.727356424668464581e-05 4.841737631071365427e-02 -1.164618560116599186e-02 -1.199562884113902599e-02 -1.357093495331520953e-02 5.254638693379899694e-02 -2.450516414011716035e-02 1.518727846386657733e-02 -2.534863693785699076e-02 -3.037736128338740932e-02 -3.365246934912543425e-02 -1.585476429753861910e-02 -1.610246450008857508e-02 -4.871781086875746902e-02 -2.518373802937909269e-03 1.050830589430950916e-02 1.101745676653399656e-03 3.660691181227031937e-02 -5.561371368087068487e-03 1.104940154588404493e-02 -1.723179935787905181e-02 1.906778352748775621e-02 1.958973807795934621e-02 4.510010224749650548e-02 -2.478230751695269934e-02 1.602040040236012153e-02 -2.744580916242767357e-03 7.010684110598852659e-03 -1.747277083198936140e-02 -5.941059329291224766e-03 -2.402982680635211074e-02 2.724126491391409832e-02 -2.927398371800154331e-05 -1.199490007371169786e-01 -1.348960815878571390e-02 3.817819603532095207e-02 -1.711666178889558257e-02 2.907647764697919232e-02 2.625237408124288935e-02 5.032913906618502464e-03 1.742964118586001407e-02 -4.323428523136510493e-02 -3.892958284520038625e-05 3.072803090568387678e-03 -3.403054575572964091e-02 6.123482855018307427e-03 3.494374130225384734e-02 6.876257166643862107e-03 -2.964041862636421221e-02 1.857029645738393978e-02 -2.335429610810560441e-02 1.905824697223163985e-02 2.958546143882914703e-02 -3.580244468274015185e-02 1.640285888572157527e-02 3.372469774624379385e-02 4.048886341856811066e-02 -8.619751640991045460e-02 1.851981617713579012e-02 2.718857987496725581e-02 2.055764218166102053e-02 -2.004476086655553047e-02 2.431442252182948460e-02 1.330414903416894494e-02 1.306109974446106664e-03 -1.903639843207930241e-02 -3.880314498783893687e-03 1.496753728419879421e-02 3.036577537245650771e-02 -1.533913707254164552e-02 2.165623592976414005e-02 -7.898241658697699452e-02 -2.124953743926306926e-02 -2.739781607924977186e-02 -2.676338468262520059e-02 1.215323351725193686e-02 1.760125494355502598e-02 1.573612254962005949e-02 -3.828486645229198237e-02 4.413464035540379639e-04 -2.431745554214543789e-02 -2.699598972199723779e-02 -4.441151236260247603e-02 -7.008466175247508000e-03 1.948594903765814290e-02 -4.432530339239107789e-03 -2.147985319942120538e-02 -2.892883031956140771e-02 1.645483002797824487e-02 1.624315574718231125e-02 3.878780906087068991e-02 -9.698315064895723231e-03 -4.237104831727799004e-02 2.311977665784577599e-02 1.906191564029988822e-02 5.791189564503239698e-03 5.714380566115644100e-02 1.048914134497992874e-02 -1.143190737625341714e-02 1.253547504067337170e-02 2.706364708784873407e-03 1.182087304332181269e-03 -2.403848265753014309e-03 -2.884336626340741616e-02 2.344944266639473369e-03 -6.355706312714195713e-03 -4.176038318663684822e-03 4.795825307795012482e-02 7.383510618536563708e-02 -2.610533308183895455e-03 1.339514986827859862e-03 4.229642966250921066e-02 -2.389668876966730138e-02 -6.478219039045846755e-03 -2.967983743735044463e-03 -9.427357802323795000e-03 2.381712607805445969e-02 3.596079140103623090e-02 -3.798733767067625881e-03 -5.623306895737891636e-03 -3.123396889796456206e-03 -3.816459321412683792e-02 -2.718547644617248793e-02 3.137339316307270753e-02 2.247383592997962559e-02 -7.940365456445226677e-03 4.804675666528198524e-02 -4.457116466530969268e-02 1.231036226839494693e-02 -3.777231208305464709e-03 -1.425905240314772650e-02 2.040286748217733787e-02 -4.589572815212741158e-03 -3.106527507311927696e-03 -1.050298872646101764e-02 1.242969672293124835e-02 -3.559888382643116612e-03 -1.648195839212025088e-02 1.160001890519914147e-02 9.770807415111602487e-03 -9.685027447205776449e-03 2.573925934354810447e-03 -9.891292622469588514e-02 2.853127949706708508e-02 -3.161525952184198601e-02 -5.368541257181828029e-03 3.062617442773686929e-02 3.826917536512122742e-02 2.729232749845685035e-02 -1.806852962578599925e-02 -1.245576038480406683e-02 5.712751781743075075e-03 -1.628675032223812812e-03 1.037287423864467935e-02 5.046801195718591398e-02 -6.493725452332867881e-03 6.629623215144314109e-03 -5.210650261411487773e-03 -2.148864012930204112e-02 4.324741971481279104e-03 -1.206613238956049522e-02 -4.348849071878389642e-03 -3.626089297753733870e-02 1.962468423819475546e-02 5.515989295338083638e-03 1.923129503357545039e-02 2.642608933935864865e-02 2.098757079397426881e-02 -6.565004870078001986e-02 4.499662082555176690e-02 1.786015547043276128e-02 -3.505173230931372952e-02 5.673955399622490972e-03 1.289778041394687956e-02 2.662082423726811614e-02 4.458634391208726733e-02 7.043653425188388384e-03 -2.833509458921919244e-03 -8.308434819827553719e-02 -1.156140777737026983e-02 -2.732685608307089051e-02 1.377171618076154617e-02 -1.859092576655894599e-02 2.309024682509858758e-03 -2.691704303611809623e-02 3.367760247352842573e-02 -2.062977167137276802e-02 -1.738422735792665916e-02 -2.392180848961209319e-02 6.748110961770793954e-03 -2.998587626010954660e-02 5.124967822005915830e-03 2.279494578942876590e-02 -2.114158373577152208e-02 -7.035721682365401151e-03 3.697464775632613304e-02 -5.300147660946659227e-03 -5.891129372053684893e-03 1.015002878530351163e-02 5.220542838647941782e-03 -1.631768370851826785e-02 9.389055497930474947e-03 -9.950888810725782695e-04 2.001737439197950885e-02 -2.154725204976771016e-02 -5.728982471500426027e-03 2.763644912521564818e-03 -1.009954551009553669e-02 4.359827244696120284e-03 2.110135904158843764e-02 -2.537987503658640717e-02 2.511939012226120302e-02 2.056559051485508036e-02 5.813463598036151120e-02 -1.196012331636417056e-02 1.492910247468347534e-03 6.265890198060170837e-05 -2.949540750874140096e-02 4.306267098283609457e-02 -2.718428066109533636e-02 -1.233442240928473918e-02 2.639290495189004770e-02 5.177779506013358707e-02 1.250386645396683004e-02 -6.424708864054043400e-02 -4.583192367535345035e-02 -6.744498099707023353e-02 2.191527383535112408e-02 -7.550563640742250643e-03 1.393997334888565608e-02 1.242772411049965740e-02 2.756182998241928431e-02 -6.141932692197108780e-03 -1.945481092238076845e-02 2.835159518156498901e-02 1.777773854741432694e-02 2.581334385948791735e-02 8.978964584405255828e-04 -7.363609939207008126e-02 1.336621696346830361e-02 2.402388111506558246e-02 -6.812836429215301387e-03 -2.050553677070944547e-02 2.260467936532397845e-02 -1.017051270186838073e-02 3.850651367222262221e-03 3.959851438433577980e-03 1.242205369663637289e-03 6.636746225633742384e-03 3.179396460781942768e-02 -4.515874745373136406e-02 1.245671022397946276e-02 -2.935165528300723303e-02 -4.206104483378764886e-02 -1.742335561652001014e-02 4.639457527771383497e-03 -1.294164812793830409e-02 9.409115052120310685e-03 2.862037883838951594e-02 -3.743026580940566912e-03 4.321597578398311129e-02 -1.477587284740487436e-02 -1.046799197784714988e-02 -4.991501442260111963e-03 5.268806402617528389e-02 -3.722490379227442591e-03 -2.038698627308888067e-02 4.488038182791775910e-02 2.245059104129729435e-02 -1.650383202644269912e-03 4.175219636277153340e-03 -9.189090651520083128e-03 -5.281566569364919486e-03 3.196520903088013316e-02 -1.140451620595013191e-02 -1.292255775243175350e-02 1.576245891073649666e-02 -2.093208129057495120e-02 -2.995565084861340124e-03 -4.552584602264458935e-02 -8.019153036082783681e-03 8.281554792726717601e-03 -5.148157666369582164e-02 -2.145380480278933147e-02 -1.367690565654034775e-02 1.663149392988796590e-02 -2.366188684344616017e-02 -4.047795039418225493e-03 2.245074706541642928e-02 -1.280010266413591537e-02 -4.055857500519744960e-03 -2.623419250543436096e-02 1.004497672012539117e-01 -4.351351585076508599e-02 -1.423409003125705036e-02 1.084388112099690313e-02 -6.764769896458962956e-03 6.731925934733805350e-02 2.589765008905428102e-04 -3.838822463510005445e-02 -3.293777380823516981e-02 1.160298765970897879e-02 -1.952891786969472229e-02 -4.736884135506862908e-02 -4.716412880959693771e-02 2.461082893367133161e-03 3.395673534266560600e-02 2.564514583270090936e-02 4.497742907635923770e-02 5.380271905094436563e-02 -2.137054718474544826e-02 2.096436433133522931e-02 -4.916683393844427374e-02 -3.549040666652962528e-02 1.110703099795007538e-02 4.984143653089394103e-03 1.537810547625420576e-02 3.172740480442380606e-02 8.831208218148040761e-04 -2.791291746865242826e-02 -2.317565309117773295e-02 -5.800137725565861213e-03 8.521879939643204824e-03 2.713663730534262436e-02 -4.593801582064461347e-02 -1.062438152729133951e-02 7.928971080677816793e-03 -3.742617380841754826e-02 1.919826477152972513e-02 1.186314497832834623e-02 -7.479962674347823137e-02 -3.547691748251503852e-02 2.779142507817955465e-02 -1.384319016060282272e-02 -1.638277286714430805e-02 9.156012137812859913e-03 4.325333670509944745e-02 -4.317699621939601745e-02 -9.287762745913828721e-03 -1.036208722485227988e-02 -6.098627865249172525e-02 -3.422991686850580806e-02 -1.419093960653687201e-03 1.074673325726543081e-02 2.671499275405860713e-02 -3.976485322014650103e-02 -3.809196313020310996e-03 -4.039444664379662070e-03 -3.580595573656274871e-02 2.271511255343784327e-02 -3.713579486004235652e-02 -1.238785421869371961e-02 -1.412639118053282683e-02 6.739449197014149573e-02 7.105446088919167846e-02 1.404063127343920317e-02 1.798412918678309741e-02 5.732355168213389141e-02 1.975533729265884289e-02 1.153247795718415417e-02 -1.620739280674263899e-02 1.715607885985646897e-02 9.853955778693338288e-03 7.679284540103656874e-03 -1.244818895065545605e-02 3.929337480159947327e-02 -9.033149157668002652e-03 -1.528116944798376536e-02 -4.613013027232352320e-02 -3.046223858486719546e-02 1.461310574945271640e-02 2.442247273008953112e-02 5.545465478612784938e-02 -9.148945609737453577e-03 -3.715483570807910640e-02 1.276558345230472151e-03 -1.963696461249159544e-03 -3.702865202730276639e-03 -6.788062573619972617e-02 2.548088406926310098e-02 -4.784525782391077509e-02 -1.905367750911122690e-02 1.848501927517864560e-02 1.069052514160304980e-02 9.422723425142644216e-04 1.027741007159674140e-02 3.684019923546864861e-02 3.082754198199466958e-02 6.284198721240011679e-03 -2.086477318303454898e-02 -2.667849745133296234e-04 -1.430373767256176189e-02 -2.177093115120482762e-03 2.000258489287911820e-03 2.328733646906380392e-02 -1.330440323002963013e-02 1.833563075458774505e-02 3.702367473253156526e-03 2.270113932099096510e-02 3.601924465585091412e-02 3.014298069043076442e-02 6.944463341920444066e-02 1.960373431986491000e-02 -1.694429033406917931e-02 6.145787644978122355e-01 1.844416230633640422e-02 -1.425148189329128283e-02 5.168577798517234173e-02 -1.016917423020796511e-02 -4.220193672263845841e-03 -8.958568993563345182e-04 -1.347691279839300510e-02 -2.406774074689462667e-02 2.974550933778477915e-02 1.397228495986949960e-02 8.489169152077119529e-03 1.404039432923686465e-02 -1.292469746757076397e-02 -3.691733778852650250e-02 -5.718654548834256612e-02 -9.431998846234591546e-03 -3.784287099718922076e-02 -2.562553270723838886e-02 -1.276520670986055171e-02 3.017708931745644030e-02 2.721046909428541122e-03 4.881974821081437946e-03 -2.186064783141140541e-02 9.258794700879067335e-03 -2.741843240978577428e-02 4.500874401170976082e-04 -4.458412839872225725e-02 -3.639257436077540653e-02 1.279509316979836851e-02 -1.971613011009327315e-02 7.834379843734766771e-03 1.437387073536591786e-03 9.071303068298822506e-03 1.608762855309590553e-02 3.980673709849117531e-02 -1.243448048051253550e-02 2.657737320941267259e-02 -2.603563343828302346e-02 2.278756052365096818e-02 -8.231787554063143414e-03 1.394353132636563623e-02 -1.339894969554738499e-05 -3.634839186944285178e-02 1.718172200592583618e-02 -3.554718870726696761e-02 3.399763387200358672e-02 1.379199716703174289e-02 6.763755744309213856e-03 -3.581363615007310264e-02 -4.296398379923964395e-02 1.971987923867215067e-02 -3.388948749941879130e-03 -1.012798148377973837e-03 1.682410070739730548e-02 5.645120493963749764e-02 -1.981791289090240743e-02 -7.437379479358001248e-03 2.128765201659621464e-02 3.153744976011590290e-02 9.099036143833558188e-02 -2.132462692562198461e-02 -2.710898900806766806e-02 1.421647963801654993e-02 -3.178659978753569509e-02 5.628518086112903156e-03 -5.207999488579333723e-03 3.772336884601001222e-03 3.745106013802621675e-02 -1.136483212913566056e-02 2.282365389302496578e-02 5.265283220025902822e-02 1.626824965862515640e-02 2.228438462934858449e-02 3.026441530449276371e-02 2.547384924441732298e-02 -1.130257945762146686e-02 -2.431331056379164648e-02 3.770707389680661749e-03 4.675552934300379604e-02 -2.328249604270454104e-02 -2.993661273552726543e-02 -3.096627773196600208e-02 -3.161597204710104442e-02 -2.429513908688020127e-03 -1.099679514467670309e-02 1.320658905762508474e-02 -2.609215022896967107e-03 -4.828113146217533937e-03 -1.174152426747550847e-02 -4.213664458068104926e-03 -2.155118546288086606e-02 -1.381917757172778510e-02 3.199663673948690418e-02 -2.977990046769329185e-02 -2.454069636379369902e-03 4.160589863440905707e-03 -4.093675483687326394e-02 -1.624421598876369180e-02 4.733707736510537646e-03 2.173742885222074497e-02 -1.549979541573225615e-02 -8.254208599020617688e-04 3.734341407254505169e-02 -8.596272218791320419e-03 1.362524191963638032e+02 -4.005164276803117873e-02 6.056445921246727919e-03 -2.628733608049482751e-02 4.099068975509807117e-02 1.194976036409170321e-02 7.750296724861458451e-03 2.861525678787144727e-02 8.246222393645925852e-02 1.432015230722620503e-03 -1.204221195098473425e-02 -1.599267117312473674e-02 2.619343897382326539e-03 -2.871332187068144359e-02 -3.368462131719816843e-02 -2.430119731920307724e-02 -7.797883596222318289e-03 1.123621360975271544e-02 1.339728956217053901e-02 1.082903939866004632e-02 -1.477574190146405120e-02 -4.287087851468568411e-02 -2.712202320478079853e-02 1.677131875629461755e-02 -1.972978345857099094e-02 5.650945372994815863e-02 6.709385182679469817e-02 5.856955808514187518e-03 -1.494007503006141400e-02 -3.703586961873324424e-02 2.035863933870688675e-02 4.372248506995619552e-03 2.005094865060856255e-02 -5.937896056074778994e-02 3.897018442983794795e-02 1.825704749669961047e-02 -4.968633878272123855e-02 -1.997076700459287854e-02 6.796182175105310681e-04 3.961958281200716331e-02 -1.251597992510409575e-02 3.763474621566766792e-02 -8.020401759999898003e-03 1.687535735343924023e-02 2.227589512068758187e-02 5.007479096987763750e-03 -2.730409913932518862e-02 -1.397928335619849638e-02 1.442960318094494571e-02 -2.063675882790041993e-02 5.538283881554186168e-03 -3.388760970676078094e-02 4.275494422887883561e-02 -7.149559412969747063e-02 2.162372255459359821e-02 -2.536218499245973881e-02 -7.766048837435486629e-03 5.358255660403817705e-02 7.332911158806706617e-03 -1.652344511872957944e-02 -1.165411367523080596e-02 -5.506530361537957489e-03 1.315008665652819819e-02 -4.372724705466807943e-02 -5.466143448735419179e-03 1.215101494166824113e-03 5.577721321967939183e-03 1.108622644987183360e-02 9.979839843805887907e-04 7.619669060521106277e-03 -2.380138280678523871e-02 4.737553238318967025e-04 2.152447189892303311e-02 8.679213352221980607e-03 -3.639858779961913787e-02 -1.234170819001426285e-02 3.923402484198732637e-02 -4.001885270631358091e-04 -6.179981980330069916e-03 -1.754629839248023765e-02 5.460433613764383715e-03 3.029969136096765520e-02 -2.168187040804158208e-02 1.027812115654099055e-03 2.983093082744654474e-03 4.307790902921956183e-02 1.955720184215595583e-02 -1.389408674475919349e-02 1.727220603291285128e-02 -4.917168080444935842e-03 -9.084387236416309463e-03 -4.685603801474620689e-02 2.803799414135839732e-02 1.083393850895844873e-03 8.196062291079435347e-03 -1.858593237201623671e-02 4.750356867246567638e-02 -1.720495595890201082e-02 2.003919732885910479e-02 -7.298889250690690673e-03 -3.010193137503897401e-02 -4.539575722160912180e-02 1.691864670527280790e-02 -3.357837085069596134e-02 -4.134050755453912845e-02 -9.071340534603398661e-04 2.898940126519704459e-03 5.846244895758272164e-02 9.337806497665712170e-04 4.016508163722807417e-02 4.420219321177386307e-02 -8.179280572279313058e-03 5.007570816747602266e-02 3.971401869970190429e-02 -1.096152800781478864e-02 -2.548266947769260715e-02 1.017573732973300546e-02 -3.031015234152710514e-02 -5.398719594679411140e-04 -3.469191292895964368e-02 1.623035016004100925e-02 -3.202721811548247394e-02 1.409332170555761994e-02 -4.666685642616161256e-02 -1.858933098410341794e-02 -1.878659331094678295e-02 3.878158074312693104e-02 -3.641733567394778159e-02 -4.697385020813561740e-02 -3.601979354377329856e-02 2.860864420598198052e-02 -1.645208781702289444e-02 -8.246768020907782257e-03 -1.314552586931259925e-02 2.011607417832766108e-03 2.425077082138661633e-03 3.871201497556176624e-02 -3.011282691625546872e-03 -1.605826162686628533e-02 6.222860059145979110e-03 1.668706102836292268e-02 1.671608043054390383e-02 2.470115645167987942e-02 1.472956118975098615e-02 -3.262311308768847673e-03 3.401935364829311581e-02 -1.172168402666879002e-02 -1.432028993380108977e-03 -5.603867276774416456e-02 1.038734124491437656e-02 -1.997976440035873630e-02 -8.421557111039260990e-04 -2.087050780131331079e-03 6.146197922751299794e-03 -1.532143627786830380e-02 5.246627156431174673e-03 8.376244142484381636e-03 -4.507883342616846728e-02 6.530758971031904413e-03 -2.887670554862391010e-03 -2.262862120747241926e-02 -1.060412368852218200e-02 -4.108719431367062469e-02 2.813739478713438158e-02 -1.975624574820487866e-02 1.295296371382245737e-02 -1.201934334347532635e-02 -2.235595061167921713e-02 -5.401156458601815216e-03 -1.396245780119985402e-02 -1.321281285929544642e-02 4.398172000372720797e-02 -1.418105780796605339e-03 -4.127527072477395892e-02 7.722815999044345577e-03 -9.781817726098689103e-02 2.302582775098245202e-02 -6.791109282970522049e-03 2.944343423364086804e-02 -2.408434398214676780e-02 5.352266659638884802e-03 -5.821340692881851221e-03 6.969251024506524397e-05 5.137015564730108147e-02 7.051463823157007316e-02 3.932787277131339493e-02 2.466681987037586468e-02 -5.292629640550244874e-02 1.784475865936498845e-02 7.527404136546628731e-03 -3.283864404330949505e-02 4.913533378507576460e-02 1.538312039432564865e-02 4.040679832621858064e-02 2.112405794370383200e-02 -2.323639482447281343e-02 -1.081767093923656324e-02 -8.645289026426049295e-03 7.041712041453642920e-03 3.968315620270349009e-02 -2.193928937987112485e-02 -5.474807870666434373e-02 -2.708713169368665713e-02 5.626198819285329472e-03 -2.200943715345552668e-03 -1.759084591012639517e-02 -4.529221766813710387e-02 -1.696391710383461995e-02 -1.709399660949081912e-02 -5.902604148016249094e-03 -4.723969038242005480e-02 -5.547676773372612474e-02 -1.184306424468384647e-02 -8.808660653099653626e-03 2.933706327046653548e-03 -2.106211506832931721e-02 -1.837724406417891657e-02 -6.426351565878837997e-03 -3.125566437622893934e-02 1.121836584772139579e-02 -3.981175108235539273e-02 1.802174990114542227e-02 2.117420640931340706e-02 -3.917123912951177289e-02 -2.119426117258823780e-02 -1.172880243987737235e-02 -2.068189332804148267e-02 -1.028472716073618263e-03 -6.283418913456476941e-03 -3.094220686410711560e-02 -3.823892503792414299e-02 -5.180441977814617682e-02 3.304644916467941451e-02 3.787378525959178219e-03 2.934614769973496393e-02 4.708065234570529140e-02 1.440358431173571069e-02 -1.201455993967162281e-02 -5.629401520525595393e-02 -1.803316786476789890e-02 -2.689893645701019187e-03 2.086213680291703135e-02 -1.858918381568624642e-02 -3.493212804530228949e-02 3.942271844022594840e-02 -2.056065382146754841e-02 2.448508354756157718e-02 -1.334838931981777513e-02 -1.268918642794679939e-02 4.669203937830029155e-02 -2.202696392857816238e-02 9.403114291630916208e-03 -1.525187453426163006e-02 9.556449566142028937e-03 1.120409890060593966e-02 -4.694844056286932160e-02 -2.302329367968029838e-02 -1.661780887046667571e-02 -1.835645544334018470e-02 2.121324118963349020e-02 -1.654529999186289679e-02 1.327422510633348429e-02 -1.220710671007626744e-02 -3.593037195802216335e-03 -3.535241118276331862e-02 4.718417447961612173e-03 5.129184561071607751e-03 -2.453568934246631861e-02 -3.310976853708431922e-02 -3.806198158930096387e-02 -5.513813262715144999e-03 -1.697328586357560454e-02 -5.850803432101953083e-03 -1.565086854742706729e-02 -1.684971052741799161e-02 8.287763947712439849e-03 -1.625721887480122705e-03 -3.599760364192056833e-02 -5.524610295664577134e-03 1.184631758680418541e-02 -7.608762202579592675e-03 6.902977130805975671e-03 7.068617803580255765e-02 1.997989287384783694e-02 -1.540885090510098719e-02 5.384717565482541324e-02 4.138108996861331740e-02 -3.036228243235687338e-02 2.324711643764016539e-02 -8.547126437858293402e-02 6.364200836012363915e-02 2.159744314681546692e-02 2.864095402788645675e-02 -1.523360374851992841e-02 2.145549627374270657e-02 -3.728427765754786100e-02 -2.047570736026299229e-02 -1.686869298059571684e-02 1.426008434171142231e-02 -7.124469289509662365e-03 -2.193110891224982553e-03 -2.045629431200194563e-04 -7.582705070174184520e-03 1.018424298302918890e-02 -1.972456678490685025e-02 -1.687746204817450538e-02 -6.513927811554738601e-02 1.689259826860162184e-02 -1.846802123142611595e-03 -3.384155129834146014e-02 -1.033608523419623018e-02 -2.665493645148052371e-02 4.398186243463678147e-03 -3.324856258994408897e-02 -4.490720030501386267e-02 2.844036498316440328e-02 -1.639769792658862455e-02 -4.092600837636254513e-02 7.031651381894450832e-03 1.847751668116182772e-02 -1.337440189888549832e-02 -4.324213772282035559e-03 3.142161912941662111e-02 -6.140028508241710536e-01 -2.118286901121612699e-03 -6.415558110667723968e-02 4.510456103495026278e-03 -1.983771112770030612e-02 -2.814645655254703269e-02 -2.623568297964170778e-02 2.617106132303228735e-02 -7.004891651048731488e-03 1.005829735103857224e-02 9.553363627952131745e-03 3.605749425215793239e-03 4.078354349494872633e-02 1.471034229845365540e-02 1.881034413434325842e-02 -3.914220352315292764e-03 -2.476453084157899040e-02 3.900642000923702085e-02 3.002656728538676684e-02 3.406577915236367465e-02 6.956450255315994348e-03 -1.923467315038402195e-02 -5.962720619598542958e-03 -2.409609288627849455e-02 -2.059303046400176584e-02 -1.619178239785593054e-02 -1.070042583812128717e-02 6.476333736373160281e-03 7.410440593011599630e-02 -3.657561977858196645e-02 7.912539020579367754e-03 -3.821313352116315065e-02 -5.398439489429214533e-02 -1.303509336841240582e-02 1.863841403078575140e-02 -4.884173118445371900e-03 1.634333201443556594e-02 -5.435883021801794779e-02 3.522906722960430365e-02 -2.807644250461835411e-02 -9.749220717981843531e-03 -3.420376764414368581e-02 -1.505954001505912729e-02 -1.549156321506730194e-03 3.302963866882749344e-02 5.704461637776398614e-03 4.399132604661079582e-02 -3.345827877725147947e-02 1.034889508210581725e-02 3.842733830797372130e-02 -9.462617652129273749e-03 -3.956882659499261906e-02 -4.998564926011749010e-02 -5.965228143766525964e-03 -3.667731987748235750e-02 5.791702279638264936e-03 -1.184253377469644472e-02 2.417161258349499742e-02 -9.260157973435920176e-03 3.997246747993032923e-02 2.043605980396602864e-02 4.213062309110583541e-03 -1.934593183173566669e-02 -4.865682378566741489e-02 -2.289208879373467662e-02 1.804215730102110005e-02 -4.656962097302709547e-02 1.469619329592389972e-02 -1.300859423603375857e-02 1.908433967542953746e-02 -1.263105611966235109e-02 -7.701149361235875429e-03 -2.686619277706605094e-02 1.461966708046108857e-02 7.201954241706775249e-03 -4.522730057768609320e-03 -6.496957173805779050e-03 4.151186217785993865e-02 -7.892048388586271265e-03 2.026875142408976482e-02 8.275945832282759901e-03 -3.783082787883480791e-02 1.075728555816999991e-02 3.188456227696262468e-02 -6.405407646590580671e-03 -1.327300238950101206e-02 -7.137641199829004380e-04 5.187121167068374158e-03 3.372515572397891820e-02 -3.107980423347739274e-02 3.985502513963597865e-02 1.331421359104901191e-02 3.808354221235364656e-02 1.166975735716601573e-03 -2.133748115226999365e-02 1.684736630785120190e-02 -1.511827219545373857e-02 -6.076237885929268445e-02 4.598391471568959079e-04 3.465686243010288742e-02 1.184694436896089427e-03 3.022803868054834905e-02 -2.020567767817328317e-02
