4.599459632091896372e-02 2.679894645846046114e-02 -5.337514085805455943e-02 -5.046482795114595743e-02 1.867441819414581913e-02 -6.413583211524710725e-02 -1.004166082080918884e-02 -8.006516089656823265e-02 -1.573972096537432780e-02 2.244606796450902483e-02 -2.873245425049739121e-02 -1.706639762990000420e-02 6.853532071726411989e-03 5.719489882312493723e-02 -2.454187836389185723e-02 -1.253502863591762773e-02 -9.853011231460796771e-03 -7.023166875491078376e-02 -3.360039429905115060e-02 -6.519242926672362548e-02 -2.071198836917085423e-02 3.989868659776581172e-02 4.431320527808087911e-02 -2.224852617762411444e-02 7.011973298526048837e-03 6.230399566820241791e-02 -6.537445463745688787e-03 -8.295042630996506128e-02 -2.719333155340201286e-02 4.060762386655914630e-02 -1.380007717245988752e-01 -8.329988304821333081e-03 7.519812887451368666e-02 -4.587718702021376799e-02 3.144598383155131939e-03 -6.607543137530340338e-02 5.097024897018193057e-02 3.511643481515076826e-02 -3.559612082885581230e-02 -8.752266286872518661e-03 6.018520717459346914e-02 8.825552754429603908e-02 4.012354461035162051e-02 6.096664886306230047e-02 1.019362398688778218e-02 -7.525422003988513353e-02 6.793676589502199714e-02 2.633350971754646122e-02 -9.551145681082982147e-03 -9.162903312408088308e-02 -1.534366211054033653e-02 -1.584775010427540197e-03 2.873469807358558850e-02 -8.972398488699913355e-03 1.030816880910282807e-03 -5.075972751493174062e-02 -2.163601788273360887e-02 4.942426826257342691e-03 -2.575173925339237224e-02 8.827053410759223145e-03 -7.853796618212211200e+00 -3.418933831841618892e-02 -1.849308761408379950e-02 -1.105785671561346217e-02 -2.183737715177820615e-02 -4.865713935386243097e-03 -2.131757954254206305e-02 -1.215196680080371169e-02 3.061080915890596402e-02 -4.314581446792273289e-02 5.058930570382633163e-02 -4.096335029092184471e-02 -8.570332976432286365e-02 2.443974559889778436e-02 1.010072993775242879e-02 -1.029756304213010482e-01 5.943032461291231083e-02 4.218739241235078263e-02 2.190769038521556480e-02 1.623761423548419555e-02 6.997784105319590497e-02 -2.255229268874622134e-02 1.151987895433424433e-02 -1.283326208247912922e-02 -1.478918703649679395e-02 8.927084347302821632e-02 -3.245895691980913572e-02 -4.536312658498426603e-02 -2.522942801605030164e-02 1.075836549688929597e-02 -2.864639878637236653e-02 -4.750418893999636648e-03 -6.420128798425964005e-03 5.488634324130017145e-02 -8.129478375975508764e-02 -2.488979672146494557e-02 8.005044645153785651e-03 3.968139198348308305e-02 -5.134266939121382572e-02 3.123349100761500102e-02 -3.075670135068106145e-02 -2.659561091445165545e-02 1.164188426967705144e-02 -2.490924004200134254e-02 1.048376894287753880e-01 -1.554298494777919468e-02 -1.091716320398674750e-01 1.213061574650999529e-02 -3.082446548195890909e-02 2.484325325086773201e-02 -1.655918134615911794e-02 4.998466816451853627e-04 6.952708635835211370e-02 -2.325184510495435092e-02 -2.315322872298392065e-02 1.657934797685300249e-02 7.452523257712846683e-02 9.812835359258936189e-04 -2.110781624203337051e-02 -8.931578841474066555e-02 -1.890267810785299651e-02 -1.437707286280730523e-01 -1.793709391217656116e-02 -1.046550940388511070e-02 8.901149513058391471e-02 3.859905239213760886e-02 5.116678863098334668e-02 8.985017452067654842e-02 -9.023313751110183245e-02 -1.976425715325771135e-04 5.069644750517990350e-02 2.485546464025831515e-01 -2.800687300167490484e-02 -2.544721567657887715e-04 9.855062686797166904e-02 -1.159917897675935387e-02 5.840775372164661722e-02 1.230457223968845111e-02 4.218926014878938979e-02 -3.013964067538267566e-02 4.112996864596064894e-02 -5.075531396432178544e-02 -7.596286550456513020e-02 -1.039385053144712828e-01 -8.248245476818295840e-02 -1.078643962272302775e-01 -5.966081996484380590e-02 -1.171524294504922709e-02 -4.293808820242439594e-02 -6.534420708431788738e-02 -3.594747645638747893e-03 3.346925049997714896e-02 1.782487840096538823e-02 -2.786396376178893602e-02 -3.019728743227152734e-02 3.145255658166244694e-02 -9.040976097698168179e-02 6.602769338529271281e-02 5.407837687437489285e-03 -6.085363761447121385e-03 -5.837266390805615109e-03 -8.621113858193836868e-03 -4.195556698681385949e-02 1.069523218176898077e-01 -2.297874408703763638e-02 -9.242171096415234544e-02 -5.699342204291786215e-03 -4.179692325848256146e-02 -2.388433461833940410e-02 1.920593201868411870e-02 3.090312106886579369e-02 4.106760598825322239e-02 -9.471423224763993523e-03 -8.348996604641552993e-03 -5.126811249263628356e-02 5.880991382662043715e-02 -5.035408945572817513e-02 2.649267359938992095e-03 -6.178784418995336702e-02 -3.708416422438889221e-02 -1.882018550807686152e-02 -7.834321879685808565e-02 6.223741729008845647e-02 -3.233618064210336263e-02 -1.087123757812008713e-02 6.719276673976745662e-03 -4.036104331854018651e-02 1.711928889725842715e-02 3.994519745692397955e-02 8.231835606327303489e-02 4.499882579433112789e-03 -1.858850994502822193e-02 -2.747970515608817547e-03 6.657933218341971493e-02 -1.482863126862561101e-03 7.431013970516794909e-02 1.597890892967214135e-02 -5.444816527642153126e-02 -7.214885460815593891e-03 -1.759006881204092446e-02 6.741411760916368734e-02 -3.327512836618265468e-03 6.086996045336607458e-02 6.473198625235987436e-02 -3.486645719493769446e-02 2.121816993212285660e-02 -6.941649441374899126e-04 -3.268134079177194284e-02 -2.836466525345247066e-03 -2.044799174556983026e-02 2.106141799598795772e-02 1.528111444178194833e-01 -6.345052729899852695e-02 -6.528309296792553229e-02 -7.215507653832761280e-04 -4.054511808634238268e-02 -1.725525475626091543e-01 -1.739482649525997057e-02 1.158070519106036735e-02 -1.259661670359856767e-01 -2.802650854494535132e-02 -1.119625828292540419e-02 2.375438141089272065e-02 -1.149949535553307367e-02 -6.198410599328465359e-02 8.990662807532433243e-03 4.929481529894393782e-02 4.011991014571703040e-02 -3.204232555806613841e-03 4.258833477220828889e-02 2.375772077897242776e-02 4.801432382238361024e-02 3.386671909957466448e-02 -6.103125625338997468e-02 -1.809589802999040167e-02 7.143377255039594365e-02 -9.841273418685643481e-02 7.991516104351484642e-03 3.750212485456318103e-03 2.311211778190302296e-02 2.549560425670079240e-03 4.406440757959310950e-02 2.784510848352346815e-02 -1.075535388099288225e-01 5.505649969124885856e-02 6.543789368238060733e-02 -6.431281036565142384e-02 -4.796380824166356777e-02 1.053631980060936238e-02 2.933914227424438970e-02 -6.509997697758884705e-02 -2.100019777930851525e-02 -2.549727246444294382e-02 3.510982977675778521e-02 -2.404166173686555011e-02 1.838257540646221974e-02 -4.983007943940007123e-03 -1.321726320912252131e-02 -3.577168443089967422e-03 -2.787920407152462074e-02 1.851004910216878102e-02 6.829104039018359107e-02 3.760278012475786608e-02 9.742457544101329470e-02 4.446675665547478173e-02 -2.242542664046469868e-03 5.900214932772412241e-02 2.575372842245691671e-02 -7.109546081008706608e-02 3.720842521714752549e-02 1.127918252413231612e-02 -1.008307606799806362e-02 4.534321249775841167e-02 1.599715521639634083e-02 1.251741630112464254e-01 7.547823035198572561e-02 -8.304996696390480257e-03 4.111644777353947074e-03 4.059968170813963578e-02 1.633336899162209366e-01 1.458049156502113242e-03 -2.909502513308586183e-03 5.231204570817446498e-02 1.195720063607923211e-02 -7.597628334182472687e-02 1.030919710145275781e-01 -3.738153527048366370e-02 1.387677314975356915e-02 -3.572482582555255859e-02 1.023678512314570022e-01 -1.253121898820934096e-02 -8.123785195234416862e-03 4.330706316870376604e-02 -4.299230969632595462e-02 9.265498723871565603e-03 -3.502662988230195729e-02 5.343431555939786443e-03 -4.236945729904199355e-03 -7.021510747483102229e-03 -4.893729949621569708e-02 4.010116352411068757e-02 2.571344947525940668e-03 3.931587109800963042e-02 1.888514349176038248e-02 1.942445411082307019e-02 2.520696985867122361e-02 4.922504729491196385e-02 -2.818400636608716509e-02 1.205236054326809048e-03 1.853761327441321447e-03 -1.126870788957428510e-02 3.607985976298462572e-02 -2.636323669527681698e-02 -2.361749457971240237e-02 -5.317336065020848712e-02 4.748688391708312528e-02 -3.415437196590030700e-02 9.315454172508246325e-03 -4.171458517092079682e-02 2.612474474627136944e-02 -1.282208530187659359e-02 3.471301304923729569e-02 -1.760181451610681388e-02 -2.459317189169996087e-02 -4.959566467584896471e-02 1.884885400309743025e-02 1.640005301964012063e-02 4.517298327613403219e-02 -3.675355045885146665e-02 4.782174501126030403e-02 -2.997871176613969499e-02 8.532934196409661110e-02 -2.372877489111158492e-03 -4.121444342779288089e-02 -1.486253591949364058e-02 -5.139444756632389338e-02 -6.693704410622284412e-03 7.661170407697484586e-02 6.067814296716975836e-02 4.965575235776434684e-03 1.230437343426898367e-01 -4.940903247023350521e-03 1.396359516233354643e-02 1.972276703150132801e-02 -2.909773454292498979e-02 4.996055172982333953e-02 -5.814981226980341089e-03 -1.925700640524139959e-02 1.050660555610412605e-01 -2.541847227205009871e-02 1.219097060035304568e-02 8.876689389155935014e-03 -3.568746572527322497e-02 -5.484786781837567432e-02 2.250100523896367624e-02 3.933507492800610017e-02 4.831020027209881329e-02 6.836763806851044352e-03 -3.322943057286421170e-02 1.990767236950363381e-02 -6.145309404056938790e-02 -3.984310734378049973e-02 8.470370536903344336e-03 -2.993006663505056938e-02 1.314829907518511865e-01 4.992333091142736601e-02 7.760588596953611751e-02 1.127598729046491027e-02 -4.609987576962422395e-02 1.109037131304435077e-02 -3.547384635378573537e-04 -2.914980429756137276e-02 -2.717766927723280074e-02 -2.129841417402129899e-02 -5.570607400672768217e-02 -5.300462708526550160e-02 2.226426967988348257e-02 2.983380638056700243e-02 -2.536878510686584390e-02 -4.750138945681048330e-02 4.475380774610816619e-03 1.508158149056264101e-02 7.002255108229930858e-02 1.123623392376407910e-02 -8.759196373523646384e-02 1.401135049816981497e-02 1.972340850667475207e-02 -2.896906983710498262e-02 -6.811209739766538318e-02 -1.159186861132897352e-02 1.091946865604045145e-03 -1.104404750560132511e-03 2.959772437675643394e-02 1.823804351183858086e-02 3.139900548223938104e-02 -1.447469581521200130e-02 1.203131303051051780e-02 8.339140808251570584e-04 -1.886807165425917476e-02 -1.271103074905902304e-02 3.361091924986313317e-02 1.700368938194604662e-02 -5.810200237953176000e-03 1.133712117959094837e-02 2.486454587089777235e-02 5.893019357361224588e-04 -2.124563393369590866e-02 -1.161209643512184191e-02 6.194576664065865913e-03 8.170621035550116110e-03 -4.132392648188267653e-02 -9.500804037255687964e-03 7.891551985306816119e-02 -2.619764156636878935e-02 -2.389821231795726669e-02 -6.608912885961565342e-02 4.601221300284788485e-02 1.116613294565468699e-02 4.580911711400342812e-02 1.632866272407272959e-02 -6.158085056413025588e-02 -7.604497093892839676e-03 -8.290376904615313902e-02 -5.079754288418190933e-03 3.923391093639444493e-02 -7.257150549661543770e-02 -7.539126008839072690e-02 -3.373517391802285242e-02 -5.828031211765193932e-03 5.101749845876754619e-02 -1.457692158651903436e-02 -1.240719185108614397e-02 5.314902223346165688e-02 3.795443789830168363e-02 3.086621273026341622e-02 -5.555936146517228419e-02 1.308011123567048828e-04 -8.439696280683110785e-02 -6.832900249089147462e-05 -1.991293096585780575e-02 -1.160036536253841385e-03 -7.178819863620135300e-02 2.567174606246783175e-02 1.530639939932425817e-03 5.573483170320053109e-02 9.856663974742974066e-02 -2.613210244613720784e-02 -3.943518131731826859e-03 -9.264053482091329922e-03 1.567401579213027751e-03 -3.068535287928149738e-02 -2.643284732729925257e-02 1.097055084075572867e-01 2.543594053167300487e-02 -6.319748601147768749e-03 4.991738564736965950e-02 1.585170994202786052e-02 1.660856918939195015e-02 -7.786330391791146388e-02 -6.373036590763571374e-02 -1.187474983782261205e-02 -2.235258781983400639e-02 -7.070094687876957162e-02 -1.694665927277123202e-02 8.668106140281552074e-03 1.377837460823422462e-02 1.546379634807399338e-02 2.452689078803601055e-02 -5.295410276996718318e-02 2.062587844819705613e-02 -7.577919757205836028e-03 1.055544444372794261e-03 -1.773258783752134802e-03 -5.634952731988744634e-02 3.579546541907591833e-02 -7.715230637285314108e-02 2.844354569721873824e-02 9.661910740752310822e-02 -1.957246745868819124e-02 -2.436127544260758768e-02 -3.534789816382271493e-02 8.711101975092333527e-02 -3.685340718904834417e-02 5.350608186673616595e-02 -4.854435617096636985e-02 -2.636948478028046036e-02 6.864099380016783040e-03 -1.013334023452878638e-02 -3.650015072291037943e-02 -1.165654630865303699e-03 3.644731160079566629e-02 1.051088024040909702e-01 1.654237273641857506e-02 -2.264038983174603697e-02 -3.572095253501480615e-03 9.147193730520558619e-02 6.794171210532476413e-02 7.760884747385132787e-02 8.691442516328276580e-02 4.774488144344707537e-03 -1.460786340315553371e-02 -2.024003383552627419e-02 -4.929294335332998905e-02 -4.740207922346645342e-02 7.975149495141416536e-03 -5.749213760236575321e-02 4.640061326005230635e-02 -5.847714882710694506e-02 8.474100686832510823e-04 -1.343828612485171992e-01 -2.876652748588706329e-02 -5.856406703882403864e-02 1.273120700082431590e-02 -7.739291391054884360e-04 1.972544887279272744e-03 6.221844328307580413e-02 -2.548100691220678282e-02 9.198186419063775557e-03 -3.395000145637154521e-02 1.238786672382601040e-01 -1.308456466106488331e-02 5.842453160321019537e-03 -2.087810937331962755e-02 1.343229803715186455e-03 -2.778445351654367304e-02 -3.411412660587909151e-02 -1.036633639820957048e-01 -1.245483341433187979e-02 1.322844741419403058e-02 1.482037074073292056e-02 1.538451790906627537e-01 -4.909172964210999079e-02 1.565591886345917005e-02 4.959211593432193838e-02 1.055375581874565399e-01 -3.357556228225423017e-02 -9.133548775635071809e-03 -3.004158240559129042e-02 -2.572619887278561335e-02 -5.494994148709018977e-02 1.760080087790994244e-02 7.805507446546167127e-02 -7.842587816403090786e-03 2.778893702494565632e-02 -6.011681116507867906e-02 -4.962730737884962773e-02 2.194003982578908440e-02 -6.539292833377263747e-02 -1.132301495626560420e-02 -7.785004033320444376e-03 -2.132327538034921657e-02 -5.188916098423191486e-02 3.744443517495760904e-02 1.685772962161556903e-03 1.133355628907418804e-02 -1.393078450297136062e-02 3.800079292301334483e-02 5.390095834474650099e-02 7.692500476097081930e-02 -5.144952061808442251e-02 -1.132030229170174901e-01 -1.956139540850033130e-03 4.670746624550267331e-03 -1.301171635969538831e-01 -2.696293543346253707e-02 6.625026382227731936e-02 1.815101432090558686e-02 -9.133330876987331981e-03 5.454559124875239806e-02 1.008484396553959925e-02 6.461194649408681309e-03 -1.802025458450461906e-03 4.074853211107758687e-03 2.099356264834204705e-02 -2.159497631226851150e-02 -3.680476667837955657e-02 5.843166876442333971e-03 2.004827596069086795e-02 1.085992412265390696e-03 4.725608499937767465e-03 9.663345587151384031e-02 -6.398333500919106687e-02 -2.290839345764416474e-02 2.982731980409446607e-02 4.642578720658514790e-02 -3.914235857650496912e-03 6.211526665478437487e-02 -8.696938152510662323e-02 -7.107590202993417650e-02 -3.513660717064058525e-02 -7.044663080321883486e-02 3.890254383586600612e-02 1.794524218904940474e-02 7.445831327178569804e-03 -8.617107992229265656e-02 -3.932221300239838180e-02 -4.895418595317378024e-02 -5.585350509598227542e-03 -4.127960173593836317e-03 -4.540058257305981020e-04 6.683757298226726540e-02 9.065986478185023012e-02 -8.265680108990139385e-02 -9.604622609033634795e-02 -5.072610317459306378e-02 1.347026972733730010e-01 3.586413501127052456e-02 5.949768854979971613e-03 3.976025137707814988e-02 3.213031914437716741e-02 -2.882504480197104965e-02 2.757028088953154647e-03 5.957592015128125584e-02 2.302040834362892308e-02 -1.492286840606468941e-02 4.629857640444609568e-02 -8.271495920553539882e-02 -9.825646783968249032e-02 3.103986321115701288e-02 4.250868334586323238e-02 -2.169616987392932947e-02 -2.465039770051616341e-02 -1.722918500107951598e-02 -1.268545245041226288e-02 6.243443032816103910e-02 1.770676140973952845e-02 3.943466976234352717e-02 7.716574905648140859e-02 6.150771472202930246e-02 -1.940429861278738241e-03 -7.204533204713378658e-02 -1.244728896831696907e-02 1.244772281401781699e-01 6.291849759554905483e-03 1.345883909367164843e-01 -1.828485234015657032e-02 1.835300569228501999e+01 -6.095791659775999516e-02 -4.326485940667155333e-02 -7.385753107184761176e-03 -1.369472803651454679e-03 9.082248454363348045e-02 -6.892438204299038140e-02 -1.877831434540939287e-02 4.026923683650902863e-02 2.427020419391036701e-02 -1.478700441628955781e-02 -4.820283560382171428e-02 2.159515382161733207e-02 -2.065973956492620639e-02 -3.073623838930599969e-02 -4.823645441265311806e-02 -3.501620353123156143e-03 -4.592409194403523215e-02 6.605215830601844640e-02 -4.569692264430010725e-02 -1.410230974810020846e-03 -7.728217412812783682e-02 -3.715418694068903238e-02 1.558195789055570081e-02 -3.416406818539300533e-02 1.050181068027767999e-02 -9.010452846485277056e-02 -5.158388208888695092e-02 -5.015903683101612803e-02 6.701284138474827845e-02 -4.228932251822196367e-04 -3.148477306752311272e-02 -1.035945354769050517e-02 -1.252843705312116640e-01 8.270370786933373131e-02 -1.573720492824490919e-02 -6.085602125472721474e-02 -4.221799683043816749e-04 6.194917570866064621e-02 -7.786687007022391818e-03 -7.718082176159120344e-02 -4.386050313032171383e-02 5.982157313647790825e-02 1.837922006708668857e-02 5.107823783373650200e-02 -5.526428075552529406e-03 1.251493821343970490e-02 4.740693156304096045e-02 -4.273467065892050908e-03 7.253144114693399480e-02 8.678180644073962835e-02 -2.231977566296342724e-02 -4.619905526134058388e-02 6.802698937728003659e-02 -1.029060499546416152e-01 -3.053711739424041366e-02 -1.106438334777927641e-02 -7.891732074142414691e-03 -1.460774943212192478e-02 4.911858114336007525e-03 -2.510528265317109667e-02 1.427497247149166204e-01 1.278884061037018592e-02 -6.237589401087483693e-02 -3.216282907706521227e-02 -3.697971632380379903e-02 -2.149366606876636915e-02 1.958995624294473589e-02 -1.531805778716958250e-02 -3.691208282990763277e-03 5.042079830698891624e-02 -2.914749037886893088e-02 -2.045164917096924106e-02 -2.646911797020244997e-02 2.144185109679954890e-02 -7.621953490988338416e-03 1.309233239307318504e-02 3.182452966489920237e-02 -2.688821389050368924e-02 2.223668818323736029e-02 1.005586949207443459e-01 -3.223771747869683818e-02 3.762724218946811999e-02 -4.818030079310774844e-02 3.330145275295457591e-02 7.886284331997504837e-02 5.576668088435948745e-02 1.821938644277216329e-02 -1.861855580921741027e-02 -3.669407284693809029e-02 1.916946602466351735e-02 -5.871289057863218058e-02 -3.035160819566337653e-02 3.213015007393681816e-02 5.366969027745897153e-02 3.073252989337129856e-02 8.827492910686972338e-02 3.983561996235254060e-03 6.065561087609892994e-03 -3.605382393638047883e-02 1.113491671542083533e-01 5.499838380824735584e-02 3.340722643539838221e-02 -1.083118052246690860e-01 7.651702113899243318e-02 -1.373334187924452332e-01 -6.845959539748698586e-02 4.779049714271661753e-02 -1.382778908671657668e-02 -1.433300745267391749e-02 4.842960830346168533e-02 5.232636675672323184e-02 -2.926755412737249221e-02 4.403367950666772779e-02 1.880713567727297468e-03 -1.711179650473461031e-02 3.819217277626772711e-02 8.890496280778152627e-02 4.034087200658360156e-02 -3.703784753633028275e-03 -5.252115932171329271e-02 -4.704193774393153511e-03 -5.647064383358723488e-02 -3.846784842117537823e-02 -4.050673304034772132e-02 5.473670922189682875e-02 -1.364804817815900781e-03 -8.142615005863845790e-02 -1.076460795410348337e-01 -8.185643129893548087e-02 5.612640306516995282e-03 4.870129201865504298e-02 -8.637610123324854228e-03 -6.126166165438559630e-02 3.455825237608051853e-02 5.797425535853166501e-02 -1.205549038161978295e-02 -4.602173875006809398e-03 4.926137475925668197e-02 1.802546817677336613e-02 -4.623200003726463808e-02 -1.565802295498265259e-02 4.140979729211868160e-02 2.869710849855352727e-02 3.671865657590654697e-02 6.293714582604061081e-02 -4.915528414276144897e-02 1.323522091049013361e-02 -2.319626919506839518e-04 6.490268163953544743e-03 8.016448411183899059e-02 3.772613828393505536e-02 -1.135180972536144056e-01 -7.478926574187879858e-03 7.130503938474116836e-03 3.644136918311379619e-02 -2.908341615667070848e-02 3.171511758982798607e-02 -2.148256540563177330e-02 -9.004550215949506378e-04 2.716678429202621509e-02 3.529217426993502826e-02 6.142294642297686791e-02 3.589249519741756489e-02 6.444466072777313426e-02 -6.062813341184353916e-02 7.420820890815213455e-02 4.145835539789278351e-02 6.188317388287564030e-03 2.053528402875650152e-02 -3.727359317297145730e-02 6.267493162629144375e-03 6.320118466867342966e-02 -3.516781089631741686e-02 -9.415867628522306410e-02 1.405221830702026338e-02 7.233260308886672874e-02 -3.147262050742426209e-02 5.795966652555924192e-02 -4.080764109307248588e-02 2.998457296488270078e-03 1.292272258253697459e-02 -3.415033443341551622e-02 -8.664694122282103408e-03 -1.045811466373831704e-02 -1.421511809110151360e-03 1.083714707322770525e-02 -4.448558096931599232e-02 -3.059722698726927842e-02 -5.348024135640363358e-02 1.210840201865484925e-02 -8.035972723831280237e-03 -7.618128001307404758e-03 7.471587714105167033e-02 -2.333226344684932382e-02 -8.799440432083685190e-03 -2.819270165982046966e-02 -8.057396740071137708e-02 -1.241275548297962605e-02 2.127707407911876014e-02 -3.198504519557697490e-02 -2.846582434512792345e-02 4.587981420446459596e-02 3.467264209826649568e-02 -2.398339022248776459e-02 -3.712087577589783666e-02 3.528933922632404574e-02 1.184159671085706356e-02 1.295529128003220232e-01 -3.051059166810374604e-02 -1.781723678312393047e-02 -2.592268635082144862e-02 -2.749213853457594531e-02 1.297150413880292837e-03 8.881011200813998530e-02 7.314413841208727840e-02 -3.785193196316276321e-02 8.231438688380617041e-03 -4.508981812728647676e-02 7.859862638246339905e-02 1.188163414380397215e-01 2.198015847167938269e-02 -1.598485861728311114e-02 2.664716307440167208e-03 4.910189347156904832e-02 5.082297608233308367e-02 5.007850157339061026e-02 3.154692566596553616e-02 -7.901988575909924331e-03 6.545759847798660047e-02 1.745356377334951817e-02 1.548915456566508052e-02 -3.161385409985988798e-02 -5.063992983450869151e-03 7.634859493266184759e-03 -5.741861278672432539e-02 -1.356804871534091420e-02 -5.230044177779318709e-02 -1.341038050312448084e-02 -7.216992070745242849e-02 -9.261770752665475503e-02 4.448036980929047021e-03 -1.398556349334525127e-02 1.346236195309666317e-02 7.304033661388149683e-03 -8.406633373622941774e-02 4.899990242174172284e-02 -6.238671391357048651e-02 7.422874191523472220e-02 -4.963769760477515502e-02 5.630381238013635464e-02 4.915464592972477141e-03 -6.368309830947605811e-03 4.459718318226517722e-03 6.008626818786270106e-03 -8.842293251996972969e-03 4.428820428350659782e-02 -4.610173500336954555e-02 4.172412439756633534e-02 2.236030662036823588e-02 -1.393950143662749911e-04 3.026386925999944091e-02 2.415042395629210525e-02 -4.044752919192227958e-02 -5.543407771980433940e-02 6.341520150564404490e-02 -9.719233579276397028e-02 9.956992925965635344e-02 -4.476377285106589859e-02 6.109767271486794306e-03 4.120281635117023500e-02 -5.166432787408852673e-02 -1.774986449170276939e-02 -7.748484426632579192e-02 4.866963253962110214e-02 -4.792991337404760299e-02 2.980282924371156078e-02 5.107863141370640392e+01 -1.569192879600924545e-02 4.537264179101531403e-03 6.211492602425779802e-02 1.628182984445728301e-02 -3.567022899654341897e-03 -2.391879042842606426e-02 2.250092874126146184e-02 -7.006173895288264619e-02 1.152281360819212147e-02 -3.505496940804751771e-02 -2.671888104295271418e-02 -4.392602646262787347e-02 -5.458322907611868301e-03 3.248758357065669594e-02 8.523242128939892285e-04 1.790712564397231588e-02 -6.638182305416973246e-03 -3.641747722592950792e-02 -3.246713844440229924e-02 -5.910340443028805346e-02 -1.975655661285927872e-02 5.431424296351992920e-02 -4.635423916475473610e-02 5.636282430140340804e-02 4.517995812505851139e-02 -3.959874216680466050e-04 -2.456675182377018526e-02 -1.387395935753526488e-01 7.760715487435558557e-03 1.144113538152533027e-02 -4.160020476404617529e-03 7.618504395973271781e-02 -2.220364407726584804e-02 -7.171502453878804417e-02 -9.820873863040514851e-02 2.019289438165229253e-02 -5.082054629611643809e-02 2.145921512687702648e-02 6.022779845172627003e-03 -2.262999964123251634e-02 -1.557197231371038881e-01 2.232596410148631957e-02 4.858018122962840663e-02 -3.755893641304620251e-02 4.896298540630565632e-02 1.457366787933626852e-03 2.943194686317196496e-02 7.453352889378991788e-04 -1.060180935259338528e-02 -9.547454237857952442e-03 -6.914208910625638249e-02 -1.760277663518169250e-02 4.122712976547446978e-02 2.607796272325179840e-02 2.438107511780697109e-02 1.320135508304922170e-02 3.237051650239224782e-02 5.912793818644821592e-02 1.257747361503955795e-02 5.479436200149873093e-02 -2.777353801569690250e-02 1.968045114597711046e-02 3.220912655730243102e-02 -1.183822241034137267e-02 3.015214059971453153e-03 4.889176449299141580e-02 -8.011858070418802213e-02 -4.594036503134503457e-02 6.149352392414243751e-02 -9.793399245651580876e-02 -1.904432308934645574e-02 6.491782782231915461e-02 -2.888354052190035895e-02 -1.173980222924036251e-03 7.012165473980232211e-02 6.614341387782880777e-02 5.651501169560359250e-02 -5.496612165405025119e-02 -5.549723092455154105e-02 -8.118131241332961212e-03 -2.688313589247968635e-02 6.277993639744470881e-03 -1.939822312064322027e-02 3.949591853877894992e-02 5.159522291472665168e-03 -2.369490714265241188e-02 -3.539296917228228895e-02 -1.461018822067555734e-02 1.718506972149031614e-02 5.962605795724525148e-02 -5.022178402448690404e-02 1.700223068445017027e-02 -3.448077809175574548e-02 3.350976484758248775e-02 -4.288507363531734659e-03 2.593048157549138547e-02 4.117008186924679680e-02 -3.167054080661629856e-02 -4.257348655262558831e-03 -1.143875782783342759e-02 1.103737705564157914e-02 1.658318543640131121e-02 1.151911493174937254e-02 -6.664849399812949882e-02 -2.234488883417301563e-02 5.671178676362648163e-02 1.080387728223961355e-02 -7.783468520161784289e-03 3.143258128820056174e-02 -2.755427771721141381e-02 4.546300203558320020e-03 -5.467211314288329335e-03 -1.741186874469557652e-02 2.231964103684517739e-02 8.455155121516604033e-02 6.787841102954284001e-02 -3.535786783130261124e-02 -3.310616437997224160e-02 -6.004489738688743167e-02 3.680645077301763352e-02 8.605563123315411456e-02 -9.305306200024573982e-02 4.188869156659108008e-03 2.294572366491133900e-02 1.153876605168385749e-02 7.322396927183214867e-03 -5.140679957896575336e-02 -5.298287291850892200e-02 -6.742348343174413283e-02 2.291961041525809525e-02 2.862969927723911165e-02 2.326418705531470288e-03 5.686970414023967413e-02 -8.408868192904388195e-02 4.917203382244776828e-03 -4.924918104299846194e-02 -8.348129060656428804e-03 -1.626253718039196924e-02 -8.069703033527414471e-03 -3.374436040580054003e-02 4.574028721550565946e-02 1.862448326502910007e-02 6.794843967382754868e-02 2.304215544626999485e-02 -6.782900139481794211e-02 3.965975347537879087e-02 3.125116392645365532e-02 -1.187082951177045181e-01 2.784139461834041207e-02 6.435988319733024210e-02 -1.271082214347434881e-02 4.819573384825772550e-02 -9.105340544191478647e-02 2.425513163612395134e-03 8.484780078539688741e-02 1.296563922821502256e-02 -3.453204769109437244e-02 4.697197485781278575e-02 2.143487040143399192e-02 1.240361805243303701e-02 7.238361483992927781e-02 3.317143084249540158e-02 -2.782164987035327594e-02 7.694863653120824487e-03 7.639462584425620040e-02 1.152130597938215949e-02 -3.021787904755552766e-03 -2.845201564058214960e-03 -5.821368898320416346e-02 -2.764964818340389513e-02 -6.067179470349828158e-02 5.560374129522067249e-02 -3.803157417743515539e-02 2.491517744972315991e-03 -8.928489951988055617e-02 4.295540478497226339e-02 -2.381048353038403217e-02 2.884995395570979712e-02 5.377921986183206195e-03 -1.603212297518835650e-02 1.134181328922673334e-03 4.357378556500330485e-02 3.220693617584971177e-03 8.651869903091538583e-03 3.579292134538088893e-02 4.574726334237966957e-02 -3.152591429869991413e-02 7.497475588424724890e-02 -8.929581142888483314e-02 -6.191141302677807823e-02 -1.014554692055419545e-02 -4.173470259916249418e-03 1.037861926396954210e-01 -7.143088111339298586e-03 3.437596684767385384e-03 2.167093047480171675e-02 -2.424383225144476853e-03 -8.654808066191191362e-02 1.407146340942873851e-02 4.879357351857688957e-02 -1.838596609079775832e-02 4.179308046112104741e-02 -3.926129676481777964e-02 1.976909820737730167e-03 -2.946533664243050285e-02 -3.737709273410810135e-03 -4.624990100825016048e-02 -1.320429472758248846e-01 1.563909920829653355e-01 -4.778874587009269287e-02 -7.912214473715353802e-02 -1.235348585551537641e-02 -7.229318725130245114e-03 -1.671303041719971599e-02 -2.739682389402595900e-03 -2.070308074477170829e-02 3.587858204794348860e-02 -2.768250011867773568e-03 2.331893541169513095e-03 4.129801803605837041e-02 4.646698639712687484e-02 -2.359928359624702699e-03 1.114255733234533474e-01 1.951646977085821216e-02 2.092737540776928515e-02 8.237405993886615096e-03 -1.055088611166454665e-01 -1.034993981576864258e-02 -3.445187572503811274e-02 6.704282188147631105e-02 1.405270864029494610e-02 2.859998558101399524e-02 4.307278874796678647e-02 6.547937865182168471e-02 -1.123840665539693057e-02 -1.477355900056486968e-02 3.123631673523209057e-02 7.582478600478737008e-02 8.252414243554745399e-02 -3.501690747954266936e-02 -4.107030156553670430e-02 -7.334415106306534267e-03 -5.201070171516906059e-03 7.951096147739980524e-02 -4.032136397956086887e-02 4.866167774173650595e-02 -2.497927041352862240e-02 -1.038271951432732931e-01 -6.436473117636208607e-02 2.666606914316654517e-02 -2.903109600909650062e-02 1.142490708606250932e-02 -2.868837734366212408e-02 2.247349935324658224e-02 2.489614317353511588e-02 1.209136279731059214e-02 -2.217297023456155872e-03 4.453016126559880550e-02 -8.066238895534195985e-02 -1.475061543949105214e-01 -2.053983397352916046e-02 -5.983922792170482015e-03 -5.980996024401422778e-02 3.465114823803214922e-02 -2.351347746804839309e-02 5.687524062044369694e-02 6.002706984010901248e-02 -3.824710051489151053e-02 -8.070671803330944916e-02 1.781981897136120097e-02 -8.343556578119398076e-03 2.588177168463751295e-03 9.762163989865185743e-02 7.850394660960506935e-03 -6.826540021163955696e-02 1.424622412065690291e-02 3.947734550401507843e-03 -4.724317407963501275e-02 6.468665870148770924e-02 -5.188819719420870863e-02 2.221589288083396230e-02 2.275173596535708456e-02 -2.331516592324070145e-02 -3.922867458576666244e-02 -1.801673568800734801e-02 7.143196657881533199e-03 2.745542965165286790e-03 1.332771784883853179e-02 -1.107609298398202005e-02 -1.457531367724663844e-02 -6.634758018901322496e-03 -3.505233460421523783e-02 -5.355287518652550836e-03 1.273009303178625762e-01 -1.425666534374389095e-02 8.929000299613069902e-02 2.758746203458990048e-02 -5.475426321430248294e-02 -5.482600708699791187e-02 -1.855546582612332615e-02 2.331468342700598884e-02 1.510834638407750584e-02 -3.292033440813176698e-02 1.275740310228284588e-02 -1.134789194987201669e-02 -4.221618134212535428e-02 -5.962641661581346425e-02 8.068701744278638024e-03 -1.588688509845076089e-03 8.229686537484054432e-02 -8.281908154636192024e-03 5.005774950074080333e-03 -7.717105594238848161e-04 5.841151049062142525e-02 -1.523400736295961629e-02 1.418916348449908785e-03 8.815140247918230984e-05 8.817837901931231334e-03 -5.062566636127579373e-02 1.371368905662614934e-01 -8.609591808538151481e-02 1.778268066810150330e-02 6.945149683341304836e-02 -1.708135265140678719e-02 1.964084180092459664e-02 -1.250004423353006863e-02 -1.477825665364963618e-02 -3.626086665996431507e-02 9.494670377286266658e-03 1.494064052005496801e-01 7.977845025719507155e-03 3.990440620195116056e-02 -6.466871482686076256e-02 6.091457943395272440e-02 2.255688698800110276e-02 5.073307398493268061e-02 -8.732148146939680555e-02 6.590429552049813060e-03 4.035001595470517205e-02 3.989247784309919720e-02 3.015367127675125272e-04 4.085382561105393995e-02 3.589872579928438806e-02 -6.057101590431004934e-02 -2.294736726002666663e-02 -5.207996902139195444e-02 -1.143123943412247545e-01 -1.526162945296568284e-02 2.959585756558234283e-03 -4.825017757505446758e-02 -6.359247997650487039e-02 1.411664461903278101e-02 -4.670731181445110514e-02 1.290711885973581073e-02 -5.830919642687855398e-02 4.524098850476186706e-02 4.747252125381266202e-02 -2.290271267482664116e-02 2.049104875343638749e-02 -2.419282612269055971e-02 2.469823804164356096e-02 3.850246749546495234e-02 -3.171461167591584085e-02 -1.641137633949545441e-02 -1.098962871038297595e-01 -6.068445231271168971e-02 -1.916067461205414602e-02 6.429819744698352102e-02 -2.131346716610909089e-02 -1.159719116589127269e-01 -1.243845411280758081e-02 4.757883626389051296e-02 -3.665386897987853859e-02 -1.177115559037860831e-01 -1.271838129165514183e-02 8.851082423961774415e-02 5.646983961029200180e-03 1.286377335551974199e-01 -3.041384779472399227e-02 4.465276718613680335e-02 -3.704494083431712770e-02 -4.164672131529061072e-02 -4.284290132134085244e-02 -8.252201100834802988e-04 -1.234447644646246775e-02 -6.532186553812754926e-02 -4.875071701721747641e-02 -3.255337712807202660e-02 -1.527990210881567668e-02 -1.702277441324211854e-02 2.278299468605037709e-02 -5.363289046720807335e-02 -3.360875121257901870e-03 4.539910417708507145e-02 -4.359890784256740398e-02 3.585964658352791545e-02 -5.197898860775704982e-02 -5.272091050988197969e-02 -3.518876473148333222e-03 -1.966839661137566309e-03 9.304076623493258424e-03 1.007763297356033261e-01 3.692967988657348821e-02 6.884245311676967516e-02 7.484569334546378738e-02 6.387294267303852621e-03 1.918691848140957612e-02 -3.180867350559097358e-03 9.891527356221667833e-04 -7.992311271561074182e-02 -5.812317476725189710e-03 -9.467053834345098839e-02 4.525400540012920053e-02 -5.914956696592976043e-02 -3.211667840116303602e-02 -8.101813083399297954e-02 2.763963494660895068e-02 -1.088517828355444405e-04 -4.532951472791161424e-02 -6.564066191254333549e-02 -4.906780025099084092e-02 1.933929633624192901e-02 2.420359873478878515e-02 -1.386447098571110328e-02 -2.467720838733668265e-02 3.122367941164299297e-03 3.472947845341180229e-02 -3.455140763961933592e-02 1.847821441202648560e-02 -4.409678210627242419e-03 3.833674644060772879e-02 1.543492812850688709e-03 -3.465177623359262660e-02 6.631650980287205795e-03 4.382166687756216400e-03 -1.245045115015079584e-02 -7.117227111490226354e-02 -6.863518955349917107e-03 -7.302161250770237630e-03 -1.783968910332874372e-02 3.878170729409466388e-02 -5.062559751257520585e-02 1.386060012244754412e-02 -1.624348442636262269e-01 6.693194746674074880e-02 5.671960602282490049e-02 -1.393921274925461785e-02 8.361234537853143300e-02 -9.005998202815271303e-02 -5.791641880069022669e-02 -1.756514653498981310e-02 -1.416661965805322485e-02 -4.274377987715685494e-03 6.992168965584424911e-02 4.902449202189202576e-02 1.048598576565178409e-01 2.294651087041154128e-02 1.475398736409309387e-02 1.035622672598287414e-02 -5.875846525428237571e-02 -9.949440432996349559e-02 1.381251622755591719e-02 -6.837207214178928072e-02 8.861221790065951232e-02 6.670842159572666630e-02 -3.185655580629937617e-02 -1.933816427556246664e-02 -1.750514168816641458e-02 -7.606265615895176080e-02 5.081168150099472924e-02 9.262639571183885201e-02 2.540657468684424242e-02 1.028880441311200329e-02 3.026277570177827309e-02 -7.717325547581946332e-02 9.105559518050515555e-02 6.150653476069195547e-02 1.243845020506923783e-02 5.572575485478878377e-02 5.717450309915216543e-03 -5.640311425944150026e-02 4.230684238172441325e-02 4.289924118809541713e-03 -4.960814168242278638e-02 -1.334898697843995424e-02 5.764530597055322197e-03 -5.877864594952408178e-02 -5.804681426107538567e-02 7.307611024526126930e-02 5.054947449652844038e-02 2.661449673147505204e-02 6.321366765504700391e-02 8.318974558939452868e-02 9.740641717520049855e-03 -3.658281027781735972e-02 -4.831742583421091974e-02 -4.940319005505330874e-02 1.201285946610877644e-03 -1.548682155562489289e-02 1.073495097038886827e-02 -5.407497828262912420e-02 5.601312684089383709e-02 5.485023603569585265e-02 3.283371341245257952e-02 -5.288108416587769534e-02 -1.244772257006913213e-01 -1.689975565007415664e-02 -4.280964567465815607e-02 -1.217960178191538900e-01 -7.685243470197644644e-02 -5.943686348339072278e-02 1.330454045295031973e-01 -1.957493986921985188e-02 -1.651285180999877492e-02 1.408996982192915574e-02 5.200118195863231985e-03 -6.996221159443408166e-02 4.154410073176807369e-03 3.759949396984423042e-02 8.997917951804328129e-02 5.516194770071369824e-02 -2.737203563402598391e-02 -5.309702022095857954e-02 -9.488215720194279057e-02 2.497357895829856872e-02 5.656582273982995596e-02 2.547991604301171747e-02 8.621497339246304847e-02 1.031535125113620943e-02 1.429995393588556485e-01 2.684310332414798893e-03 8.497151125698039487e-02 6.349269241031015032e-02 -6.859497210001608281e-02 -3.099563434760652450e-02 1.506196679000195273e-03 -7.198558660667899595e-03 -1.374123299053811066e-02 -4.844085008223805722e-02 -9.326359997790183154e-03 -2.518195030061740405e-02 -3.063128104712483160e-02 3.432977744338980980e-02 2.040649877974949622e-02 -2.210984032697857829e-02 -4.723246152313275575e-02 -1.737648723188539232e-02 -3.106326927756582201e-02 -1.257222269802258513e-02 -3.881207611201938773e-02 -8.875247488390219930e-02 -1.037205433532642322e-02 -1.427886367506908394e-01 -1.131269873005906652e-02 4.670369098126051291e-03 -1.639550471617991006e-03 -3.359891142305535677e-02 1.678922461001066541e-02 -9.502937425390384218e-02 2.266881853824372420e-02 3.716429730401727555e-02 -3.926210504437526762e-03 4.585646070744749114e-02 4.336440584248068414e-02 -4.681346015309857667e-02 -5.596539093222990119e-02 2.003986778417396475e-02 1.177191409485798743e-02 4.258473027840148362e-02 -2.259096317025601017e-03 1.187377737843024195e-01 2.068316226940070807e-02 8.421763168525329968e-02 6.062064350028698728e-02 3.115634395177262206e-02 -6.399070062289749505e-02 -1.257144345452876561e-03 2.320212750927613116e-02 4.107041673700280449e-02 -1.934443631164679475e-02 7.478855779613681476e-02 4.161403880364712010e-02 4.849111684376514186e-02 5.122957733546956716e-02 -5.992405761312712652e-03 3.141820323025908829e-02 -2.022703038083396160e-02 -4.016631408790476143e-02 -2.588514816937694321e-02 -1.850356751482467796e-02 -6.890953508777850067e-02 -4.228734444844056001e-02 7.491250556018293552e-03 -1.256173157999964513e-02 8.894492471142257523e-03 1.822411222319984467e-02 3.601041117296486377e-02 -2.570968402763129136e-03 9.552651131680836571e-02 -4.477411289874300843e-02 8.086253053511237299e-02 -7.335486602211323259e-02 -1.602212633916192189e-02 -1.359445174967031066e-02 5.722837430015870891e-02 -1.594464012540703843e-02 -1.542181483963448851e-03 3.979352016532222008e-02 9.992304260737326638e-02 -2.129948589084223326e-02 1.207008361652444186e-03 4.726937068965875177e-02 1.265735638140586851e-02 -4.883345742854529326e-02 1.381359418078621781e-02 -1.047131640572380451e-01 5.007491999164899454e-02 -4.264423527917630963e-02 -3.154275060058842062e-02 2.178627823101404737e-02 1.385293442699802972e-02 3.368263201876740831e-02 1.121121377947520946e-02 -7.308996915963847374e-02 -1.086113321712810133e-03 7.362752126215776904e-02 -6.369469694764151591e-02 -3.235195877350637711e-02 -8.011517687743446858e-02 -1.026633489390584575e-01 -2.083105735685076426e-02 -8.223374617481968860e-04 9.805037552812397375e-03 9.816841123634484356e-03 -5.470285329109651068e-02 5.338927474570120263e-02 6.206038408620075802e-02 7.054575301789289300e-03 2.757188316412680432e-02 -2.367862792177049310e-03 4.803436184265668166e-03 -2.360522394851627404e-02 -1.020136243894077116e-02 2.304201174445641778e-02 1.491971848467934722e-02 5.801757879683647201e-02 3.500592617848979210e-02 6.170282775085404736e-02 -5.781799042911923980e-02 5.813959526603890843e-02 4.571057697720833264e-03 1.994152832857430668e-02 5.212169603406147794e-02 5.427217620715711621e-02 -2.319647771270916606e-02 -3.145632654129770084e-02 1.176785880295786943e-02 -6.060973726971801562e-02 -6.128315400406760677e-02 3.502538596920257152e-02 -6.950735950657316664e+01 6.438844109099314816e-02 2.743262498226310339e-02 6.813223421656315615e-02 -5.118174997014087596e-02 -4.552371307223071484e-02 3.663403253859903730e-02 -5.883444518288715591e-02 -1.502206322375315983e-01 -3.914386673363593611e-02 4.990714148547487072e-02 2.540706998314007023e-02 -1.772310627338288119e-02 2.708187050524278258e-02 5.640927103653316232e-02 -1.394933729470076988e-02 3.980986941088283243e-02 -2.209813832223864530e-02 -4.887416294987814019e-02 -1.580073180662896690e-02 1.798058614882343947e-02 7.405721661390490818e-02 -2.512558426899395413e-03 -2.501553700775801733e-02 3.115892211084035635e-02 -2.801836866593053542e-04 -7.100235581611538671e-02 1.524439973468240568e-02 2.412799801046285053e-02 5.759015160748126583e-02 -4.013896086813961706e-02 -1.288303875212536316e-02 1.459167616026359540e-02 4.618687566687987994e-02 -2.627653025561310206e-03 -4.290612318218478549e-02 7.354483456373839267e-02 3.796626388687222853e-02 4.462249845388836789e-03 -3.967346132250531426e-02 3.060040796827284693e-02 -7.346553389547851032e-02 2.114981166571726356e-02 -1.189272705782775351e-02 -4.415613229313043731e-02 3.278829098889245175e-02 5.904591321818800087e-02 9.663708220975619767e-02 -3.517966683369568720e-02 5.092260764751468938e-02 -3.228115233608186418e-02 1.584881336348369779e-02 -8.356134549886722399e-03 9.679098507869189627e-02 -2.693047453594130461e-02 4.144497868590814316e-02 -4.135159878175548136e-03 -8.309476073911335747e-02 -3.691134653590642800e-02 -1.623458632870191515e-02 -8.900350683633408144e-03 1.217319402246344780e-02 1.071502594576677608e-03 1.945970493111532935e-03 1.420354735835036215e-04 6.420602826405888419e-02 -5.047628061999231974e-02 -1.995377943715408164e-02 -1.643374682702881170e-03 -2.532972526855079357e-02 2.906650375349260559e-02 8.857170071058876812e-03 -1.661061975648277927e-02 1.147722371648559996e-02 6.274211168440879671e-02 1.468073946655535159e-02 -5.125230641246534408e-02 -1.225335803614742945e-02 -1.440076250115388239e-03 2.465977815880510127e-02 -7.316349643313501197e-03 -1.118649081559644660e-02 2.300382462353391111e-02 -1.930748372200403323e-02 3.426005046737752580e-02 -9.921714382366514373e-02 -5.095628240855468866e-02 2.281790047809023267e-02 1.451294876067259643e-03 4.907923872681160121e-02 1.412426071949299256e-02 6.611526638410125667e-02 1.881825722264941075e-02 7.152696892337148671e-02 7.159809722292181933e-02 3.014770753031219275e-02 -1.514570462482219514e-02 -1.318044742044697159e-03 -1.115043831453444920e-02 -3.659888611631657157e-02 1.752234921587569882e-02 9.165395493262316895e-02 -6.161194894892493140e-02 7.758358307495859252e-02 9.411095267683054072e-03 -3.083826313295983182e-02 2.691403209257904605e-02 -1.249114288585971150e-01 -1.173511854210732008e-02 -5.507706026899342883e-02 -8.391012196971785186e-02 2.834962054389960837e-02 -9.032408900968331988e-02 -6.938923150704612297e-02 -1.257931034825268343e-02 8.806358970260140528e-02 -2.678559746112698856e-02 -7.031464426643705030e-03 1.346233157870498943e-02 4.434405360088189418e-02 1.540947524711241794e-02 3.530150652459788235e-02 -1.215794863075513911e-02 1.118934853843812083e-01 -3.445503087897310024e-02 4.151772961156157890e-03 -6.861419382571844194e-02 3.375093051768082719e-02 8.782482800622552765e-02 1.207001416838352353e-01 -1.353999393150657864e-02 4.895638794625242762e-02 -2.477788277488309626e-02 4.171698315848502980e-02 -2.592206732563898455e-02 2.238913676269757569e-02 2.089327529262547181e-02 -1.046312417392177355e-02 4.605464828010111256e-02 -1.184511556033450430e-02 -3.593737272840142466e-02 -2.161381978264511478e-02 -4.899878512429145516e-02 -3.328860209164014733e-02 -3.526980408180256936e-04 -7.270626079749842319e-02 -5.411359619341161824e-03 -1.273021969321207550e-02 1.141752428825146826e-01 9.544681705489001244e-02 -1.488295224703460422e-02 2.984716047741439726e-02 -1.546538024166494406e-02 1.294317440585389216e-02 2.992895681002179752e-03 -1.208429146739952928e-02 -2.642564307396003467e-02 5.017538124545242728e-02 -1.620929572536610255e-02 3.109137848421667221e-03 6.479734000412884498e-02 -2.996545342113784982e-02 1.117918955325408192e-01 8.773583095946575067e-03 3.391382885085147958e-02 -1.122677508471787988e-02 5.573704145292739283e-03 -4.207557312585200743e-02 1.571630208570769563e-05 -1.392901041725055390e-02 4.918006852629644432e-02 -7.169779104805119874e-02 -7.092106590727249166e-03 9.899572896980288195e-02 -1.180368587076701878e-02 1.892879389147525682e-01 -2.860911029397219044e-02 6.061669395588376724e-02 -4.675454228870799117e-02 -3.796835228401736206e-02 -5.455271575041184193e-03 7.714884783565716109e-02 -2.073979259433505681e-02 -7.445511377498673089e-02 -9.065794133432925062e-02 -8.319060534555922093e-02 -5.853320573117366116e-02 1.082965687741466454e-01 -3.080924421118801451e-02 -3.810005492921151454e-02 5.531673572016635593e-02 4.149334257313516683e-02 -3.305622522637025745e-02 -5.051697127989038943e-02 -1.873448651822424635e-02 6.333568951123241808e-02 7.116292625004734529e-02 -8.922041593551454861e-03 5.609968124005613836e-03 -4.177252341917905148e-02 7.058442981566079300e-02 6.941747808872135439e-02 3.389480384020236020e-02 -4.608227387356179927e-02 -2.599663932782204229e-02 1.127843699958776778e-02 5.434454468131408658e-03 1.087076246122487683e-02 6.731450488204344072e-03 2.906328016668133229e-02 8.865728865561421645e-02 1.404513469881904786e-01 5.003529923079756692e-02 3.739306599069028292e-02 3.194786865942612214e-02 1.665923149925076577e-02 2.505655596108096253e-02 5.639036239989866917e-02 3.474664209170227891e-02 -9.473194363482886904e-03 6.763957511708675041e-02 -3.233292778895551639e-02 4.572548069055522649e-03 5.239831005598122315e-02 -1.351856719638117217e-02 2.169467841482037706e-03 -9.658965807172669241e-03 1.835135536445081650e-02 -1.455167479073531328e-03 7.796965265868047168e-02 7.503350393424000619e-02 7.641766318625074772e-02 -7.211199562257748774e-02 3.595028062720085488e-02 -7.062367892382065415e-02 -7.845530812032133761e-02 -3.538186417463526356e-02 6.788712618079738303e-02 -5.282943222463055283e-02 1.675002778617492444e-02 -1.733790581969563496e-02 -5.632032584407389852e-02 4.184771803286013725e-02 8.685696738208130430e-02 -7.354407074380681086e-02 -4.876016827563568398e-03 -1.666038579093928260e-02 -2.272905783782952494e-02 2.241553020714108155e-02 -5.630496426184784103e-02 2.116132555568200901e-02 3.319839504045633567e-03 5.507274028120930087e-02 -6.131321095108319130e-02 -3.536592830696307088e-02 1.872893195976678762e-02 6.673335690174489465e-03 -1.461865501029924012e-02 7.472363429061150419e-02 -4.368987160361024330e-02 -1.091976755631748029e-02 -6.093852545933643033e-02 4.214606748920366602e-02 3.790970930130236564e-03 6.775654784403793707e-02 6.509681856493733376e-02 -3.975777374243393003e-03 4.339326850099939348e-02 7.817419508070667933e-02 2.359323789992503334e-02 -3.672644706419735811e-02 3.681938328834361007e-02 -2.510032215184066287e-02 2.832291565784850890e-02 -4.543829373927584306e-03 -1.300802056403559462e-02 1.393194297681092479e-02 3.114019891878739774e-02 2.107124093943966645e-02 -3.203502383949626692e-02 2.153104808877048110e-02 -1.730892507544067906e-03 -1.101335581224993504e-01 -1.755947384699012292e-02 4.660193509510547442e-03 -1.215803585356810407e-01 -5.244368010202527658e-02 -3.513271082659064071e-02 -5.856985666058884578e-03 1.107606502560982559e-01 -1.020225472553937668e-01 -4.651493171343212135e-02 -3.689849898137734230e-02 3.854577730338581976e-02 -3.443068496146210050e-02 7.497146805690918514e-02 6.826654467278690797e-02 4.817289759604908433e-02 6.127124476062209037e-03 4.446123585901902257e-03 1.489295408985340621e-04 -1.441965162318687484e-03 -1.486764847862407680e-03 -2.862379957407715919e-02 7.432422910545058437e-02 2.427072031885156578e-02 5.922870954492210488e-02 -5.206299590268056825e-03 -3.841797345465403340e-03 4.864756281312251213e-02 -2.857663005877078208e-02 5.270717037070190431e-02 -4.547830344592002777e-02 6.379514420420061283e-02 8.247079546638136360e-02 4.485765339019243299e-03 9.579096554167455466e-03 3.695905759149497455e-02 -7.299221903693617168e-03 -5.959059450260537766e-02 6.284630992203575628e-03 2.162164940168520566e-02 -8.531212118977430162e-03 2.770383753398132587e+00 -2.352437034180864667e-02 7.532318338697351068e-02 -3.520452032016402333e-02 3.247240521621046205e-02 5.893716902686924053e-02 -1.467219535461982208e-02 -2.884209759714018509e-02 -5.620426546093057474e-03 1.310228086709570514e-02 -4.118118377935856694e-02 9.859069876367960658e-03 -4.676647555226810110e-02 -2.708987055504484542e-02 -1.203909734421118420e-02 -9.895136323104460410e-03 5.061931190227488692e-02 -5.473675571823320707e-02 1.246295492410123308e-02 -4.461876056695079917e-02 -1.067159884637703358e-02 4.623782785804813472e-02 1.321245354935293151e-03 -6.438690664985594753e-03 7.897866986976645465e-02 1.080228931244336422e-02 -9.331493917467429886e-03 6.155731349272026975e-02 -9.901090249288112266e-02 9.889092441517921550e-02 2.200707111801877315e-03 3.152442090262297381e-02 2.705456083945436546e-02 3.763068848008569584e-02 -3.474799616313644854e-03 6.630088967574165881e-03 -5.788122743216380511e-02 9.157273677421026714e-02 -6.392886276524656353e-02 3.918020496454004825e-02 -5.238963378627349565e-02 7.777175337785231790e-02 7.290619888873835219e-02 2.396620545941222438e-02 -1.010032597157534962e-01 2.815532375122709388e-02 -3.021451260423100096e-02 -3.946480961148963323e-02 5.241517674293469375e-03 -4.594867512815510591e-02 -1.247698176137060702e-02 7.023676783315442596e-02 9.006935433115742518e-02 -4.709702665812703914e-02 -7.087684360276767098e-03 -1.252674313227407615e-03 2.256297987398704977e-02 -2.305664333005487052e-02 4.218042934022110668e-02 2.814011737122960877e-02 -5.294176545253949026e-03 3.403366641318863323e-02 4.614488512677410170e-02 4.558893852548075165e-02 1.155150244187900556e-02 4.647571603943505963e-02 1.364330445386767964e-04 -1.935474208401292279e-02 6.604177086226367677e-02 7.005169483101723014e-03 4.465610157124562385e-02 2.211442763303015507e-02 5.803074315740875538e-02 -5.411573509077571148e-03 8.849249018829613220e-03 2.303702730203035717e-02 -4.855627344508148084e-03 -4.667842597418792733e-02 4.528200794746609081e-02 -1.289114846806292463e-03 1.288826786262095223e-02 2.067541042906878568e-02 1.872853276403659700e-02 -7.896491600976500436e-02 1.636828820551537375e-02 -6.962567815291774431e-03 -5.249140901254129715e-03 2.429934075624367099e-02 9.376828558897815427e-03 3.039045489568638347e-02 -6.340724726561577929e-02 -3.033632572550368223e-02 -5.756358723480894252e-02 2.819643257337623235e-02 4.281126411092112116e-02 1.074198916241674018e-02 -3.027718870839934007e-03 1.367740765748142254e-02 -5.093128907234695246e-02 -3.738635998277807515e-02 -1.016721633110366681e-02 2.290523950968167965e-03 -4.023050019994290315e-03
5.185889160574270844e-03 5.019469683696950457e-02 -9.155411757347616713e-04 -1.932859950258823982e-03 -9.051680306489487404e-02 -2.831788731476572729e-02 3.319123597283152316e-02 -2.848886132886221598e-02 -3.979627287615729314e-03 -2.384713169285536394e-02 1.710223452693276566e-02 8.616563606577268275e-02 -5.593034964790642022e-02 -2.803352785565306829e-02 -7.596463418116793098e-02 -8.974180654626346190e-03 -1.544391679784270707e-02 2.175071962900479786e-02 -3.127575887620095973e-03 -1.856257899060927141e-02 1.312247605037468456e-01 8.226651089380838944e-02 2.036757468255535192e-02 8.644863450532794258e-02 5.276064839085455732e-02 2.923927860252959962e-02 -1.314883875270861542e-02 -3.306902542803370065e-02 -1.151382456233014315e-02 -2.084564619445558251e-02 -6.267953721415150947e-02 3.532224966723065962e-02 -3.972411775622181410e-03 5.247618483266579953e-02 -1.882492624140672671e-02 -6.790143387380050133e-03 -7.981067944779545939e-03 -2.707384388862302781e-03 -5.019900908866595929e-02 5.168272470260289880e-02 2.554142799027557878e-02 -1.133350653797740235e-02 -8.332775303249230145e-03 6.675759068509071192e-02 -2.102395711801924860e-01 -6.468258595575500369e-02 -6.089277119249952505e-03 -8.477348622611252660e-02 -3.761299181928511037e-02 3.042827502244510943e-02 6.536795630395020665e-03 2.959361418719008013e-02 -7.554449270863590471e-02 -3.724078532984192308e-02 2.548645634515097833e-02 -5.332187586429899817e-03 5.011487683938124077e-02 1.777276741647310435e-02 7.954469284464343176e-03 -2.203266012245086447e-02 -2.181295335182782767e-03 -3.738867094440360972e-02 5.251262233666743190e-02 -5.960678920816463167e-02 -5.303514777289139448e-02 -3.876345438746319622e-02 3.415354493777782857e-02 -2.893180582054151809e-02 1.033385719645307614e-02 -1.432400088124653227e-02 -1.771730451028196915e-02 1.403891918730302939e-02 1.397230934129467354e-02 6.593181598431760784e-03 -8.619151219553901344e-02 3.543944714393168494e-02 -3.626675507363279205e-02 -4.256750080190483537e-02 1.474041748284631373e-02 3.756641799050466218e-03 4.333334785783445574e-03 1.594992053071853100e-02 1.887123578462107307e-03 -1.956692630514095602e-02 -5.176414344091367914e-02 4.641028522134362823e-03 -2.936189002500472559e-02 3.760302269098950156e-01 4.666281918498658976e-02 -5.578610488434517130e-03 -2.388798622314755246e-02 -1.710584392604563245e-03 -2.579403195170986568e-02 6.546836606503894651e-02 -7.761920987421361273e-02 -6.278336078760268779e-02 4.045053173470895130e-02 1.779079490089664414e-02 -3.419400104296646536e-02 -3.229425112637446943e-02 2.194144130889078958e-03 2.931758410556146999e-02 3.907792922115738837e-02 6.235066671372473807e-02 1.032728719051260319e-02 9.914802312865874170e-03 3.226567077287259555e-02 1.103235427108608252e-01 9.535359829138652030e-03 -5.493946948808973215e-04 3.353336018661356999e-02 -1.022889204438711258e-01 5.841746519814091168e-03 2.056796744440615721e-02 -1.545746573710366119e-02 -1.576621156590519990e-02 4.866458910048328951e-02 2.705578214876654813e-02 3.648215110301349096e-02 3.695199165882421394e-02 -5.403177927068219394e-02 -3.525353210042449226e-02 1.622355253096794628e-03 -1.989676677682641198e-02 -3.426018987262308829e-02 -4.126021241082752922e-02 2.019420022895322339e-02 4.569295036546752731e-02 -1.344094352243093739e-02 -9.884594897230295288e-03 1.096400372018798558e-02 2.347073446727966362e-01 -3.294230724713519132e-02 -5.887064891514431214e-02 3.019428639826545607e-02 1.522053065355333593e-02 -6.822878648770555610e-02 9.398247436070841093e-03 -5.757206818667182611e-03 1.623239588070699707e-02 -5.816636262985478908e-03 1.713277939989863580e-02 1.424134365192538396e-03 3.663076495656224750e-03 -7.242847694808859926e-03 5.716959453277516189e-04 -6.330124758079062885e-02 -3.352998913292528499e-02 4.054192636438043625e-03 -7.546910108097733272e-02 -4.769255989507474244e-03 2.277911096797103838e-02 -1.361623273185181941e-02 -5.026783638136730903e-02 -1.152768974583297072e-02 -1.531731359135755921e-02 -5.174460938339172505e-02 -1.104744385227176412e-02 2.127668317968268302e-02 2.878058559994094504e-02 -4.330298285495057242e-02 -2.014989913129195884e-02 1.731624883817689184e-02 3.667575908108040156e-02 -3.152904521006831551e-02 -3.989901105478579901e-02 -3.369895800111010614e-02 3.318508503726743004e-03 4.723635283051419442e-02 -3.133958404368009792e-02 -3.904621662028075896e-02 2.331553454078038462e-02 9.730958703936637769e-03 -1.953106080347124379e-02 3.482406525475521819e-02 -3.184719460347430059e-02 -7.067412253343243432e-03 -2.777093323134766090e-02 -3.853726246320440807e-02 9.853642537739348839e-03 1.546951419313777852e-02 -1.893130805049578896e-03 -2.794861014503158617e-02 4.967103059412962020e-03 -6.606235971397018611e-03 3.142942692937093774e-02 1.071291528335348124e-02 1.905206569810209694e-02 -2.503990035315144941e-02 1.238055380178461687e-02 -2.323835616114296523e-02 -4.406333196659042301e-02 -7.807841331774807436e+00 -2.229203352309738762e-02 3.555417377162303771e-02 2.604569133015096141e-02 -1.240605918227676852e-01 3.901294112671085945e-02 2.640455927513632103e-02 4.869308521105805004e-02 3.023882795822655303e-02 2.055984689692457248e-02 2.367923603910600250e-02 -3.642244628931468053e-02 3.851058500165306653e-02 -3.418633170826145679e-02 7.872330433522715942e-02 -2.903793107647833355e-02 3.002603681120636497e-02 1.871889959450553087e-01 5.115567057202602581e-03 4.858236783700001921e-02 5.786712990388164120e-03 3.042571339572658698e-02 -5.380886805499609377e-03 9.100664571971586042e-03 -2.688226330659252566e-02 2.410962753451159624e-02 -2.727007417277184029e-02 -1.057636705832938791e-03 -7.102567473044108827e-03 -1.777796690964113246e-02 1.472586639432005989e-02 2.239760022613150603e-02 2.803744843056000385e-03 -3.065813362716288126e-02 -1.882068005040566164e-02 2.023299383004171885e-03 -4.252110795574762236e-02 1.175245782613537973e-02 2.582641234044542183e-02 -7.016431782316916166e-03 1.341552285298455022e-02 4.780963751858813976e-02 -2.175671874603183134e-02 -1.595982223664797750e-02 -1.405179899194037955e-02 3.027445127138439843e-02 -3.695526845891628637e-02 3.439510427589469871e-02 -2.925953231067188187e-03 -3.221274919376931889e-02 -6.439367280548384531e-02 -3.835144116416586146e-02 -1.181428439949350553e-02 -2.087867024353991675e-03 1.084455435004734979e-02 2.840301310271222540e-02 5.960759533116528897e-02 1.094907161834860095e-02 -1.709212816477355054e-02 1.320941653314776539e-02 -4.862380523659125264e-02 7.278623796560048948e-04 -2.587660251861360634e-03 -1.294801197392160021e-02 1.307213156745058030e-02 -3.578350085470085457e-02 6.533695355635690816e-02 2.343686035612076515e-02 3.466870110726479048e-02 4.457100420022442472e-02 1.339474352933852502e-02 2.772894126244954474e-02 -2.496233227301835386e-03 -4.471981215050802039e-02 -2.869297583750318736e-02 -6.724131961686911040e-03 -2.892392299581710013e-02 -6.474973242067418033e-02 -2.997474990370090422e-02 -4.282393447410576259e-03 3.493150477040724011e-02 3.590207624612666570e-02 -6.023653256282731489e-02 -1.827719670568422883e-02 -4.256854437543671626e-02 -6.886153207701666522e-03 -1.591632546027581599e-02 9.281331292157957158e-02 9.926209675520426823e-02 7.108196176386033516e-02 1.811825723616476399e-03 -3.842455196590131156e-02 2.912321141375279199e-02 4.785184784027043947e-02 2.914340732544355717e-02 5.973733222946051545e-03 -3.221908689024161054e-02 3.108053556193293709e-02 2.318806736231779353e-02 4.651151565250171566e-02 1.858502662375878176e-02 -2.382881532067766470e-02 -1.447021337262058716e-03 -8.852196173221367481e-02 2.726002917832374972e-02 -3.137307840348767252e-02 2.850603706286142583e-02 -5.927396262101814785e-03 -7.412172984891952357e-04 3.208339592263735607e-02 2.055730107429918144e-02 2.845135660762914548e-02 -2.799103602534471630e-02 -1.488826099881607884e-02 2.754738242069454737e-02 -8.421825467499068074e-03 -4.749360453589109195e-03 8.428796801415755491e-03 9.671915364114672120e-03 1.238412286571551196e-01 -3.337716026829279370e-02 -1.083259410675247586e-01 -5.178136820935630436e-02 7.522095919953275360e-03 8.093473089751809790e-02 -5.504068921452319463e-02 -8.399616878072538664e-03 2.663604429434666618e-02 1.371546736358006044e-02 -1.218637689447227140e-01 1.949752732560985913e-02 -1.727576837401219312e-02 1.736718099924654604e-02 -1.919914176733711429e-03 -2.671903491772659178e-02 -5.517697954992559911e-02 4.794622032847742354e-02 -5.266401723118703526e-02 1.849724435187751793e-03 3.919392976589256353e-03 -1.514582660216380432e-02 1.748108176106180633e-02 6.955874296016557878e-02 -1.295828705057622265e-02 -3.490862543970092019e-02 5.179591799532544394e-02 -2.841903443094489709e-02 5.942681087330676376e-02 4.655157251084889730e-02 1.549153296046338821e-02 3.681906659921353742e-02 2.850337298084577170e-02 3.723652676939767647e-02 2.311639643251328646e-02 7.776206185408093829e-02 4.676960885292914122e-02 4.526805521757504974e-02 -1.220427166682441604e-02 -2.921543954466853873e-02 1.309851966363737366e-02 -4.896584978031050944e-02 8.078092132339625975e-02 -8.552494494240289735e-02 -2.049700258096123079e-02 -6.668446403455417781e-02 -3.558255182607302728e-03 8.406456682154958907e-03 6.373565997433941477e-02 1.551770922174224195e-02 -6.850154631012785045e-02 2.557920359550733269e-02 9.845507311165169195e-02 5.108795261670556059e-02 4.320349252206022450e-02 -3.887136027700208857e-02 9.612044930973250023e-03 2.047618844189146373e-02 -2.968546395901931062e-02 -4.523426861531690268e-02 -6.666092924323395452e-02 -3.731522577362902937e-02 8.121707017823486321e-03 -3.282316753908402773e-02 -2.371793940671012429e-02 4.649825161796407660e-03 2.647705678108871682e-02 -3.982111634529355432e-02 -1.697956602450919131e-02 -4.048518501810153408e-02 5.436298883749040439e-02 7.096010590692996937e-03 -6.741193603540825141e-02 -4.632529812753594795e-02 -6.693737160144887233e-02 -5.613388890705785575e-03 7.313905915028269533e-02 -5.479779885909889792e-02 -7.137826473830328599e-04 4.986537382351231493e-03 -1.659661961479822617e-02 -3.337567084083929020e-02 -1.035680767077659138e-02 -6.748014562983226106e-02 8.794866770937423417e-02 -9.284334225072028712e-02 -4.824846059759289874e-02 -2.310035269054584728e-02 1.986986208713108562e-02 4.352831541010172833e-02 2.602899794910055846e-03 -1.341635495918269139e-01 7.679986255525665662e-02 -5.864763804310705111e-03 3.315543325456475621e-02 6.714610062854182992e-02 1.390933293138266538e-02 -4.197378887669535319e-02 -4.097795715093285884e-02 1.615888216193702917e-02 5.002161590566106542e-02 -4.177109655857184911e-02 1.723410106576222720e-02 -5.187228314179661778e-03 -2.302351126791910355e-02 4.070817787145496192e-02 -5.287886908363804983e-02 3.779414635939983436e-03 3.509510915053086488e-02 -1.811602300614012853e-02 -8.149887230117894288e-02 -1.202083860954169386e-02 -5.822187948175099048e-02 -3.631699164383847545e-02 1.416612535506763665e-02 -4.658579652199972693e-02 3.216247001777124766e-04 -1.109238336096295824e-02 -6.857597773291444765e-03 5.905960261140178608e-02 3.006187032987032992e-02 -5.393335983676163237e-02 -3.784924110488079724e-02 -4.475355255545237186e-03 -2.481467837682675703e-02 2.830345135315767008e-02 3.905824920248570503e-02 1.618636167329832185e-03 1.853650961190324992e-02 3.374274672985851965e-03 -2.911175503279456525e-02 -2.499575541833501044e-02 -5.231103375250201540e-03 4.151149196184675261e-02 6.693482790119306691e-02 -2.311540778057625742e-02 1.041285508906761477e-02 1.020332952440815196e-04 4.648633852499970895e-03 -9.673712868168697632e-03 5.024189949200534577e-02 1.180468056379082795e-02 3.344049380825064866e-02 3.345991764050734989e-03 -1.105394315863116039e-03 4.279166648893304586e-02 3.265215149506642961e-02 7.085979480294771204e-02 -2.275002700810335905e-03 -3.310343313566729319e-03 7.417835328026915753e-02 -2.986245693171373818e-03 -3.538791832431294887e-02 1.344778272187128858e-02 -2.081285373505703876e-02 1.708167119245839957e-02 1.769213764104127229e-02 7.081017406709624873e-02 1.449544475584145162e-02 2.353612558676030503e-02 2.192870135844743676e-02 -5.315360008024697103e-02 4.206985467488348618e-02 9.258230702941068480e-02 -3.483148672914120753e-02 4.513766298200882175e-03 -1.068609978291298196e-02 -3.873846080676708603e-02 2.696771884549695186e-02 -3.859001430273126254e-02 5.397302020532175441e-03 -1.143895859971960638e-02 1.649954966343373294e-03 2.589647756618386476e-02 6.870496299574846075e-03 -5.224235798998474317e-02 -7.303923460947413238e-02 -3.316859448936591848e-02 -1.856443284088260884e-02 -3.197454438868061605e-02 -4.796701440185486588e-03 -3.254359808732770754e-02 -2.799672268860524046e-02 3.597116996015364832e-02 -2.831763790913921150e-02 2.969270207253878538e-02 3.596152963739140951e-02 5.605748339883787805e-04 -9.818730522759774176e-03 5.824101595502039104e-03 -3.735239963818171027e-02 1.834898622235936819e-02 -2.933229792332678505e-03 7.031314724408633220e-03 4.005058354952590466e-02 -6.013370817882940714e-03 -8.230405417068875629e-03 6.663838014850006206e-05 -5.925208880213364560e-02 6.654070580379760520e-03 -3.334158158430540475e-02 -9.980173827613165669e-03 -5.717459893419762906e-03 -1.300895404913685049e-02 -2.685671305865099112e-02 3.068238968983554721e-02 -6.357342274176169816e-02 -9.678432751285537955e-03 3.610878359941635529e-02 7.217928460073450014e-02 5.006487030853408807e-03 2.347796623183076581e-01 2.563889833092891299e-03 4.628956928401692372e-02 5.555925871552093269e-03 -6.529650180672280646e-02 -1.918186624390932904e-02 -9.999188834334137368e-03 -1.429853598685305871e-02 3.828433256314917044e-02 -7.546409870531038677e-02 -4.310691518773369056e-03 2.825841303115447095e-02 5.792713413285908303e-02 1.840328296675676767e-01 3.621842044212334605e-02 -2.078091805175147355e-02 -4.389156120879552508e-02 -3.607849808441166567e-02 -5.072070326551490413e-03 3.562619227444041581e-02 4.128727496147619087e-03 -1.290087612368170933e-02 -5.027861615132232787e-02 2.664536772126347222e-02 3.925971728336708974e-03 -1.828845726956315407e-02 2.187490075940969406e-02 9.085606694956940496e-03 2.822848860779055696e-02 -3.669443156656947147e-02 -1.882143594586147689e-02 -1.965845492665830793e-02 -3.670660063625927338e-02 -4.310364082480183656e-02 1.428899005944030999e-02 -5.734150016127548960e-02 2.737344741305245896e-02 1.180894271459222676e-02 2.512160313653442889e-02 -3.527706043931633229e-02 3.777830114664769423e-02 -1.151587684898268057e-02 8.963440987463371090e-02 -5.852480560167575702e-02 -8.353693770598814849e-02 2.511815133983585566e-02 7.221288507611713049e-04 -2.798273871912961702e-02 -3.985793488811625179e-02 2.028142816981669955e-02 -2.530294559198904836e-03 3.660282132980446218e-02 1.265651117087954192e-02 4.601165651407218560e-02 -2.111367975982662154e-02 -5.145935919874063125e-02 -2.929103914849653378e+00 -3.769967936737437381e-02 -3.451526386551615616e-02 -1.273204739265932153e-02 6.148540568164499731e-02 -6.489114363298673083e-02 1.208552161358031687e-02 2.513174688769331117e-02 1.220110524197121245e-02 -2.941647722295060233e-02 -3.106144625244881483e-02 4.606898819443636106e-03 -6.968114282252397531e-04 -5.314841634405399057e-02 1.264520427938271852e-02 -1.088145567005246589e-01 6.758928114844900414e-02 3.214466759729059852e-04 3.139222401359903492e-02 -5.144476001354557348e-02 -3.175051483995468965e-02 -1.793410096749163130e-01 -1.290063884676683793e-02 -1.975183399612299995e-02 -4.010498561701836967e-02 -7.921666724737019827e-02 1.355306109260047409e-02 3.351438601734530592e-02 8.042215672515068414e-02 -9.915385187996478278e-03 -1.752468739883333848e-02 -4.451097703482218004e-02 -2.984487566222599961e-02 3.350983762618613311e-03 1.807346762121918998e-02 -3.190844735862706678e-03 -8.067710503882591366e-02 -4.444457823506832379e-05 2.875997599728809598e-02 -7.934936233169924413e-02 2.019467028191771277e-02 6.871803540942872206e-03 -7.445171942671432661e-03 5.457676307945964755e-02 5.468117577632968657e-02 2.694963974466461909e-02 4.669779957087897421e-02 -6.220016903992853230e-02 1.000930081604218744e-03 4.576373019130627190e-02 -4.454846096913996079e-03 1.246517953671570124e-02 3.783695103908250867e-02 1.073238569351434024e-02 -4.192717549682106054e-02 1.450457219487900039e-02 -5.788196097597759771e-01 -5.059140285774930967e-02 -6.427721120210351394e-04 -1.728545433052778788e-02 -3.205218767425324633e-02 -3.838705823785741600e-02 -3.192091320713876662e-02 8.245201873921047253e-02 4.221249518753346364e-02 -4.797983264786410962e-02 -2.307205860899157190e-02 2.150384031034295942e-02 -7.774242536527689595e-02 2.044299299998954787e-03 2.293517829958206800e-02 -3.442733504095905894e-02 1.128270745754444347e-04 -3.827600184421178081e-02 1.447525939656358306e-02 1.611044157733849957e-02 -3.959966547165677531e-02 1.754748154866929812e-03 1.399624306385786540e-02 -2.578842258404769744e-02 4.901809694352268765e-02 -8.724324067313141140e-02 -3.064997110964910038e-02 1.887630280886404971e-02 4.314251039644895723e-03 -3.486305312006080133e-03 2.822756937757948947e-02 -2.709657709214735935e-02 6.085496897117333853e-02 -1.531613794643051779e-02 1.042589128710555563e-01 -1.465485732997105078e-02 3.216392185592123476e-02 1.576119207387596116e-02 2.465522418839641294e-02 -1.122157739782102780e-02 -5.554549566579073533e-02 1.883365825056344117e-02 -4.413489406663042430e-02 -1.040110451521464308e+00 9.817046751000192001e-03 -1.421584285984352040e-02 5.714373015395741301e-02 -3.732051095615986774e-02 -5.125812067819554216e-03 1.460522251798529458e-02 5.962105315415707971e-03 -5.976877227081826144e-02 -9.653204848402713312e-02 4.756876514890636537e-02 2.662655359411077172e-02 -2.184574847989090643e-02 2.061467688779386465e-02 2.494203412327044081e-02 3.927262123657930537e-02 2.745984787630051036e-02 8.033968535651166490e-03 -1.321448891193758440e-02 -3.147164596509482992e-02 5.672733851047438713e-02 8.075010643301822055e-03 3.851598808410197639e-02 -7.816453779734208740e-03 1.678015116325770953e-02 -1.037153629533874369e-02 -2.564903838203167266e-02 3.733337636321337749e-02 1.576499663661137807e-02 7.671629948494807123e-03 8.042208301136041793e-02 -1.433216759586755477e-02 -7.581714920366914440e-03 1.230318774274215265e-02 4.439240528307370620e-02 -1.772497422805492662e-02 3.929660614805317864e-02 -7.469579487496818583e-03 -4.574396975771986840e-02 -1.672287543303717719e-02 -1.947681588828874613e-02 3.124944415446847222e-03 -1.125267976188726315e-02 -4.624640286050408361e-02 6.262233329587494637e-05 4.586667929336229500e-03 -1.265192334404238381e-02 -2.908257928854536198e-02 -3.399604026026647498e-03 1.577684249774934881e-03 -5.372699605406248968e-02 8.418619024892895486e-02 4.063871771063973931e-02 9.115336107141358210e-03 -2.624610559824635397e-02 -4.740000373401878631e-02 -2.459906463944008803e-02 -1.054052295482504377e-02 7.770345758554281224e-02 -2.783370858847235285e-02 -5.636316628628955383e-02 2.572586764284048519e-02 -2.075474534180699396e-02 -3.865235878739462644e-02 -4.597372600699493189e-02 4.274928552047728425e-02 7.688282427452809709e-02 -5.932873381201589358e-03 1.076950886144271424e-01 1.662750474207187051e-02 1.043525135330195626e-03 -1.225309446835844696e-01 6.748550684473725823e-03 2.307581354566869743e-03 1.670472264986338313e-03 2.382951333217329937e-02 -1.989122659995046574e-02 5.120780602618341636e-04 6.215735499811229220e-02 -1.360706708649045589e-02 -3.250210142088345161e-02 -1.540163845816197759e-02 1.531101098297707463e-02 3.735533500075290808e-02 1.177148485032395407e-02 -2.716023546456071067e-02 -1.949568869122056403e-02 -7.163462189431012150e-02 1.649724030028043922e-02 5.337883384153901262e-02 -1.976291133205513792e-02 6.684991007388074030e-04 -3.544815535886548102e-02 -3.815606889913511490e-02 -3.061976671025880628e-02 3.493569734645640690e-02 -1.187991509179670653e-03 -4.309033439850689512e-02 -6.614039153767249657e-02 -3.163547829036069542e-02 -6.400085545733903702e-02 -7.717436692668183489e-03 -4.533432127136238776e-02 -8.544120166578973372e-03 -2.752003430887078189e-02 1.792314083367213887e-02 2.791105939824109483e-02 1.765074798389511604e-02 1.113421032767908381e-02 -4.858954721484984307e-02 -3.158202980951026195e-02 -3.883284642014273036e-02 4.767570614533558904e-02 -3.515485923387234868e-02 -1.555386993544371002e-02 -6.648179141109776362e-03 -3.381952727178662299e-02 1.161488277937151870e-02 5.105614321518168325e-02 -7.425855842886436298e-02 -6.167039239305558557e-02 4.973714212312626420e-02 -2.263805337880826773e-02 -3.111221061438064137e-02 -1.297317006416099858e-02 2.495539087960342226e-02 -2.308142087694924766e-02 4.124505618334246317e-03 4.115453242993437344e-02 -5.097692709887862578e-02 -2.153706410061223195e-02 5.363509087296806747e-03 -5.303718778441567777e-02 -1.937456562709655855e-02 7.153769785424854422e-03 -5.790902899713654822e-02 -5.766658918206717804e-02 1.240140895790893712e-02 -3.072179332784226100e-02 -3.182087462832059593e-02 2.955448242835928552e-02 2.025367417839076326e-02 3.429433000417006494e-02 2.678612112686610397e-02 -2.356301952409249265e-02 -4.311094979951370088e-02 -2.522198002434743874e-02 -3.021300887303145222e-02 4.877151921510149146e-02 3.843203807828404067e-02 -2.591922375719794489e-02 -1.611376043985371376e-02 -2.843356664589343635e-02 1.301706263903632498e-02 -1.833071141038348714e-02 -5.103771645502511861e-02 -5.336347775964313950e-02 -9.759625723917301826e-04 1.722301407192171688e-02 7.557195455763518997e-03 -2.380969383341087313e-03 3.883245828176436210e-02 -5.492591458470541532e-02 1.356743907127807430e-02 1.927289287321891365e-02 -2.620308000716177130e-03 2.087378373005831581e-02 4.137710049127450718e-02 6.480263177785561268e-02 -5.592990390986781607e-02 2.370823800498188944e-02 -3.434110584938597499e-02 -4.194103794020712095e-02 -1.658846999623335081e-02 3.239353933892224341e-02 2.081478057085981229e-02 -6.576755094259575940e-02 2.126018579706514047e-02 -5.401834449391807597e-02 7.404000462906562899e-03 2.804599524783649503e-02 -6.768930238779537201e-03 -2.159221343440342195e-02 3.121825914759386589e-02 4.099919685218853665e-02 8.667177727353954711e-03 -2.987045902956499133e-02 1.895526319621387845e-02 1.453653956880021463e-02 2.526010217345249498e-02 3.344626544790538919e-02 2.257479509599072745e-03 5.035859130029523775e-03 -9.856047687916406896e-02 1.541341994898061743e-02 1.128464328728858747e-02 -2.436158856785892307e-02 6.688824882043224729e-02 4.240597372282702004e-02 -1.712801356208891457e-02 1.554925578160537558e-02 9.199881686975842562e-03 -6.193814940056028423e-03 8.985918129424931566e-02 2.023947131909598074e-02 2.495760196288219698e-03 5.586735821583884917e-03 1.723386517822651787e-02 3.062938111969783564e-02 2.099935503510340362e-02 -4.064993857308842225e-03 5.326122168337924304e-03 -6.524763028302481283e-02 -1.265650244513766634e-02 -3.623897294213742487e-02 -2.420904080157433302e-01 9.203688316526488500e-02 1.757678004628850793e-02 -1.707008167575243813e-04 3.546070076362496659e-02 -2.168228083332455342e-02 -3.863137691885461760e-05 -4.754202688715564173e-02 -1.544384551096925594e-02 8.914264489638770717e-02 -2.503122574897411259e-02 -1.008758074458178944e-01 2.762208418058325482e-02 -4.865958307278180420e-03 3.336906012872751376e-02 -3.548957842834864901e-02 -1.807774005582390292e-02 -1.768158249591903972e-02 -3.775549505367088721e-02 -8.328418665585329839e-02 2.792130794686386794e-02 1.906823766173517407e-03 4.502132075545987183e-02 1.316285098186862658e-02 -1.343561844328677521e-02 7.028365606136578736e-02 2.440143152726852518e-02 5.762160400789449050e-03 -2.782639774038106126e-02 3.611348521489154972e-02 -2.709822781130682978e-02 3.962070004181110494e-02 1.920583088341546590e-02 3.108227876059822120e-02 -3.378886096872687345e-02 -5.194488233550316469e-02 -2.461109062930846511e-02 -5.198858937348496689e-02 -3.936687530745416885e-02 5.596919208382885452e-02 -2.049720683615351494e-02 -2.578062226944069502e-02 -2.458746246523604156e-02 4.816846586198140351e-02 -3.351154496872083000e-02 -4.530472281590803424e-03 1.261792916951332173e-02 8.319263506621056570e-02 -6.477196705884141759e-02 -8.442169323307620321e-02 -1.053033221886413850e-02 -2.458367792379544114e-02 -4.570504985328328884e-02 3.600336320897239151e-02 2.829579627634914649e-02 7.391698030294859001e-03 1.661359135521497943e-02 1.507240540247671437e-03 6.180464239210874122e-02 -8.938373558638731953e-03 -3.977500575241720016e-02 -9.679226089656593757e-02 -3.224133268947474568e-02 -1.497431999680582174e-02 -6.398026681455654292e-03 -2.854548097659881031e-02 -2.417992452910348311e-01 -1.643409623816416074e-02 3.579804805723904582e-02 4.482606014413004214e-02 4.333108330845091699e-02 6.121820148930415782e-03 -5.402474925695077007e-03 -8.927489226809659506e-02 -2.829151482757556822e-03 -1.294189219491920749e-02 2.844734942753968793e-02 -4.441953932769725395e-03 1.065016668237704807e-02 6.939557525772171998e-02 7.168398451712254538e-02 3.072794530213797740e-02 6.344111900491691131e-03 -5.529319384520182956e-02 -4.765913783778914781e-02 2.482418424903254199e-03 -5.242829020297073289e-02 -3.506875057412239122e-02 -1.663736948799987569e-02 -4.415031289184788432e-02 1.352314920623236966e-02 -2.237361598991278663e-02 1.748356794401543027e-02 -1.611723840759841930e-02 -1.257237231177732147e-03 -3.245289639897311080e-03 3.183662612565808098e-02 -5.630273536179984835e-03 5.525198063317608710e-02 -2.425948886812666697e-02 5.256960039039184837e-03 -1.214182676686763156e-02 2.046219400556491957e-02 6.995201414452406619e-02 -4.178156600678746557e-02 9.474924926366784517e-03 -8.514698359661328209e-02 2.571992347077978192e-02 3.358768364862033118e-02 -2.676238186201003455e-02 -6.607985599197785387e-03 2.251365870064857277e-02 2.325759073729250781e-01 -1.548459435234195679e-02 6.114011968115516497e-03 -5.551012305674600522e-02 2.588255550345664249e-02 -1.370086185177206949e-02 1.603479126774418756e-02 -3.873926293264660925e-02 6.573231234167216386e-02 7.470082133344553565e-02 -3.174498594108767814e-03 -1.362939449047663974e-02 -6.119963249503385799e-02 2.876405939393952491e-02 -4.462339852058099660e-02 2.345418894917954133e-02 -4.166966359553979371e-02 4.566012847724658374e-02 -9.331345409129065266e-03 7.699220575004126453e-03 1.171623043447645937e-02 -8.086264927311627437e-02 1.218891425262658285e-01 6.406267269219267750e-03 3.768275531431541925e-02 7.063674942445406779e-02 -6.331995693774351841e-02 2.782306079162457507e-02 2.239251882946728320e-02 -2.563563679892240724e-02 -9.414109332918521242e-03 -2.034709677290929761e-02 1.495439884976351372e-02 -6.431978426230373913e-02 4.987848998897330410e-02 3.599492930732455659e-02 6.615906364303204834e-02 7.285428052462912529e-02 -1.144237013962559092e-02 5.032296787676118072e-02 3.213028966851460416e-02 1.465098032508387917e-02 -2.252213460201671694e-02 -1.976543266576748920e-02 4.025162531817766398e-02 -2.007570755686280406e-02 -5.619383456553623396e-02 9.925970858399382757e-02 3.972057155936459943e-02 -1.640724718681865410e-02 -1.819628876610617993e-02 -2.351556773476257904e-04 3.037261447760706418e-02 2.488551810390940075e-02 6.077385542640004884e-02 -2.788767068684520900e-02 2.013487312092606882e-02 4.846125229717459203e-04 -6.186605070970379455e-02 5.551474168156057126e-02 7.095683853648412920e-02 -5.064460974077393540e-02 -2.509644874100835921e-02 2.632311462991621803e-02 -5.884793948396381535e-02 2.005769660842139299e-02 -9.389368438895553948e-02 1.163823543533393581e-02 -6.023389090539495866e-02 4.982688664789415578e-02 -1.653209034914052491e-04 4.859723889318574852e-02 6.866683324311152747e-02 3.184763010608101380e-02 4.083524753381984063e-02 -5.809408650061352250e-03 -2.287792035774475694e-02 2.457074288446036651e-04 -2.982799313632134020e-02 4.277558162784589335e-02 3.598369344796416291e-02 -1.533200696351262778e-02 -7.496727730647509413e-03 -5.120553130707393430e-02 -1.875798881567181803e-02 1.649786088687528116e-02 -1.478747147112189318e-02 -2.337596661359505126e-02 -2.300432206078943317e-02 6.022598593699353409e-02 1.353437322871201866e-02 1.399582388488299252e-02 -7.102822274571173045e-02 -8.977266540167975692e-03 2.645918336889337419e-01 -1.435368063680384637e-02 -6.150441871362578861e-02 -3.575401421345775904e-02 2.081042062038246723e-02 -4.627119885003650943e-04 -1.859443192755727082e-03 -3.883197001993524133e-02 -6.107152524277621340e-04 7.567572382290571435e-03 -1.121013627663362822e-02 6.159752064690589973e-02 -1.263652554432455159e-02 3.458951672356415374e-03 -3.178440849497638637e-02 2.242399941757224069e-02 -2.676622473489998280e-02 1.417865482257887021e-02 -6.192705051210685603e-03 -7.555582362974773425e-02 1.207539279613486088e-01 -3.674242709932195455e-02 -3.513818034111435701e-02 3.605658700215295942e-02 5.201444436403845212e-02 4.012919024498256063e-03 1.500849313958829527e-02 -3.800444927372222115e-02 5.733535131073908692e-02 -4.273909517780272171e-02 -3.010440207419785505e-02 1.842000024971434530e-02 9.662002362454270854e-03 1.251081865271289929e-02 -3.955345148370750102e-02 -1.197696699233087997e-01 -1.051721203551856873e-02 -5.123089863484812934e-02 7.902387033983591935e-02 3.221473948987848418e-02 4.595410090451077650e-02 5.772295825419255372e-02 7.997763589617162827e-02 -3.277941629291453163e-02 -2.983191486204554536e-03 2.483511116302754285e-02 -1.579458871959397298e-02 3.030779233360625380e-02 2.184235142943780419e-02 4.150918726220097915e-02 2.914124752122710521e-02 -3.281340042163616300e-02 -2.168085132734063128e-02 -2.577247571280795457e-02 -1.420331082278949476e-02 -4.172936657016483239e-03 2.657976558805177306e-03 -8.860920779541742176e-02 2.948616716151993694e-02 2.205786900212665380e-02 -1.513063422058355187e-02 -9.897309150296552949e-02 1.176766336806059528e-02 -3.348883874543152200e-02 4.123686739429542614e-02 4.486139275796269818e-04 -7.128095447389838591e-04 -1.866137691158105752e-02 2.708787447643466739e-02 -1.754878548029667126e-02 4.537180765970642154e-02 -1.846290240919077133e-02 1.807022744762320013e-02 -3.623365208620594330e-02 -3.459336660997698598e-02 -3.064886924173129690e-02 2.797243911565806124e-02 2.939460716226263703e-03 -4.217325245945530154e-02 2.295507707159583077e-02 4.071081573474544246e-02 -5.219568904413206256e-02 -3.935521247297531222e-02 -1.901289096672374029e-02 -5.049001195216589431e-03 -9.222368905188512572e-03 2.266949678592164105e-02 5.031931281332628972e-03 -6.840124935110879732e-03 5.917950358838468261e-02 -6.543216994693999179e-03 -7.082428138710301913e-02 1.554465012753237195e-02 -6.939250912236212543e-02 4.272017338531738928e-02 2.368291617062530038e-02 -1.387295075703471638e-02 1.153421529287187650e-02 -2.614775529578411070e-02 5.253744289675346679e-02 2.655936027029867641e-02 1.855008168484311229e-02 -3.368841758252811430e-02 -5.117402189729064119e-03 5.252281065457968523e-02 -1.349400364758835368e-02 -1.726817789201731679e-02 6.087466090239575939e-02 -7.763091528387751480e-04 1.115568245264044883e-01 -5.577006028330647874e-02 -1.450839337198707793e-02 -1.554217101156766742e-02 -1.867309754697210958e-02 -3.742910975313968464e-02 -4.818156967680872760e-02 2.037331632669208206e-02 1.505587435863311313e-02 2.026345824341286780e-02 -9.307584008759832092e-03 -1.382967185877849621e-02 -8.063680613704436728e-02 7.887352144417299205e-02 -2.487785341304847922e-02 1.457401046930564999e-02 -3.245370510124171576e-02 -2.053435721176249083e-03 2.466117649775347032e-02 1.158322472767022056e-02 2.877107403974933295e-02 -3.267517836491615896e-02 -1.515282386245429824e-02 -4.778346622620759099e-02 -7.493603505523964425e-02 8.537872912845989289e-04 2.090768383988254528e-02 -2.176338216238028755e-02 -6.304525865242685545e-02 1.439118352550318100e-02 3.803302084695588375e-03 -5.262576108075884412e-02 -5.288054167933669419e-02 -9.513057421668290325e-02 2.045104060044510008e-02 -2.909014769289600903e-03 5.127076211116164683e-02 2.029877287850989989e-02 2.595542726613265377e-02 3.336726704884172140e-02 -1.747963848848272522e-02 -2.933753978712246024e-02 1.369000576042149822e-02 7.381833235257098495e-03 4.423205194068326879e-02 9.172853131723284533e-04 1.755871720800761954e-02 -1.703685941045175734e-02 3.153043163607124888e-02 -5.036756951079322808e-02 6.702432169615267499e-03 7.673735199660645934e-02 7.224374961393568995e-02 2.681286750815944919e-02 2.911865491311631943e-02 1.150097629724613699e-02 2.525651736901603911e-02 5.360403204233452068e-02 2.565547055028994522e-02 2.553730878351759270e-02 -1.103453348876281583e-02 1.123631443891992369e-02 6.126825369393877271e-03 -3.544563865128308455e-02 1.710541648915990878e-02 3.597154830243448186e-03 1.449528028493770292e-02 -7.850054432513134395e-02 2.260724284749866808e-02 -2.903866140544672167e-02 -3.377197367740862599e-02 -2.978077320423491714e-02 9.382428620891224147e-02 1.634289986918389601e-02 -6.760938855661965952e-02 9.598248866815745073e-02 1.340596812938643460e-02 8.068573771204193279e-02 -1.912943156636807279e-02 -2.703497912308338788e-02 -6.324406064354705023e-03 -1.767380856735511346e-02 6.640786250804157909e-02 1.080389645824077205e-01 3.373130956922244100e-02 -2.247639566242844861e-02 -2.796229929613932783e-02 4.167271964984676537e-03 1.271261040217298161e-02 -2.347807658873340975e-02 1.608285934549582435e-02 6.127087453961109487e-02 -2.122192071931157820e-03 6.851289420879994041e-03 -2.987834285319631439e-02 1.375769004068386550e-02 2.044929079958760221e-01 -5.711126643101516881e-02 -3.533707668107449219e-03 2.040054356072690603e-02 3.386283079306317938e-03 -1.044828762490589494e-02 -1.227296586028451923e-02 4.485162218753376701e-02 4.535690987718029449e-02 6.025906862616677885e-04 -1.438743334480058894e-02 -8.888872564611409455e-02 7.190753360970830732e-03 -6.980761117556516515e-02 9.551084056074464783e-04 2.608685928848258201e-02 3.649298545066435168e-02 -3.159419510867813446e-02 3.541592206755578287e-02 -2.435397277352925952e-02 1.228668382672819075e-02 1.535653274018976798e-02 -8.628727056046801847e-03 -1.065005243965796468e-02 8.840995532719164718e-02 4.605344257490182752e-02 -4.581888999187270356e-02 -1.968107166713607692e-02 5.067708732034087449e-02 -6.358993089188103021e-02 1.281097980716762279e-02 5.554824246541104071e-02 -3.060053786521977834e-02 -2.535713164183865491e-03 2.760755786483721011e-02 -5.332519939388716962e-02 2.499395462837936469e-02 -4.273241375725263073e-03 -2.944718262245100884e-03 3.251569289588061851e-02 1.203588324790567585e-02 7.250954525959930896e-02 1.825615301732970083e-02 1.569747303127113497e-02 1.211679732916137314e-01 4.859936286972805358e-02 4.698842635580623150e-02 3.301103580917964797e-02 6.596238307418936242e-02 1.767159742395780705e-02 -3.694313873887210969e-02 -8.802237485985665855e-03 6.321869543025145088e-02 5.049086196950942212e-02 -8.069523874914420747e-02 3.780429972685449280e-02 -2.393677155873513360e-02 -1.228653011416887091e-02 -7.071800916632113576e-02 -7.232307180164984639e-02 6.007911538529427109e-02 1.143855180731262605e-01 9.697179542088299464e-02 -2.427934247403449458e-02 -2.450203449887942975e-02 6.586127153802695533e-02 7.975719440264043142e-03 -3.012414650825877976e-02 -1.001670894928076844e-01 -7.461906354674764652e-02 -4.985269020964235714e-02 -2.970571152827070419e-02 3.848826906846571083e-02 1.932858369912803659e-02 2.942510071460023580e-02 1.830087600093039876e-02 5.773687782612114440e-03 7.871870842882936620e-03 -1.978539540682167780e-02 6.229972506412740372e-04 -5.546278196437877395e-02 -2.712920159105369072e-02 3.082075287683979509e-02 3.610340579788764385e-03 -5.291023228622488556e-02 1.312623331330077525e-02 1.900852816229987169e-02 -3.791478762931366903e-02 -3.268621301251596611e-02 3.442119543062716752e-02 -5.363232940474432081e-02 2.950314945415226722e-02 1.409388218178898311e-01 8.359188935812102150e-02 -1.701593567092940171e-02 4.834830632811204509e-02 3.456604077452474222e-02 3.872788806948326140e-02 -4.635209880330732474e-02 3.064838592640322171e-02 -2.980173387742192023e-02 -2.147563455087938156e-03 8.454894467184757845e-02 -1.773849330130191282e-03 -6.671354710456254590e-03 1.159890570531472813e-02 -1.569842976162530435e-02 1.527888532021889623e-01 8.181882635458525774e-03 2.622444186469673200e-02 7.756041845423901349e-02 1.614561497907862002e-04 3.340853475940823436e-02 -2.657832572209466865e-02 6.850776038062024930e-04 -1.111994495273211231e-01 -4.666632994849286703e-02 -1.710708175763553385e-02 1.583718165563952052e-04 -1.582960107838504368e-02 3.112878412286699398e-02 3.349129432911634313e-02 -9.809543254767177922e-02 -2.202288226307522190e-02 -7.145284945808415972e-03 -3.379922893197466471e-02 2.540444893019552786e-02 -2.430690887056022667e-02 1.803598661808115955e-02 -1.423886992375952756e-03 2.057910157943535975e-02 1.784624020757814844e-02 -7.587660054081276327e-03 -5.074559704611419746e-03 -3.843291979941882569e-02 -3.439284083098643335e-03 3.288270294405114258e-02 -2.983628460113962877e-02 -8.558650917568176586e-02 -1.613301696175757595e-03 2.055837967498594376e-02 -6.607101107187628164e-02 2.990465180253814095e-02 -1.900853922491580611e-02 2.571994441434700268e-02 5.907423611028884795e-03 -3.910126474696837273e-03 -1.793333113838195547e-02 -7.694491369666116298e-02 -2.571821622957904882e-02 -5.815631838573862185e-03 7.842168208909131022e-02 3.272623519554863913e-02 -4.356231030689770726e-04 -1.594894114505680804e-02 1.816970396072363839e-02 -8.358154591068417752e-03 5.125145701050969754e-02 -1.294773907171909919e-02 3.974479415961774953e-03 -1.566679781564036394e-02 3.062985620139051061e-03 -6.386498825912913235e-02 -2.458583836161034458e-02 -3.673196921896817319e-02 3.710679085016888035e-02 -1.803829481371053944e+01 -1.057248729126008396e-02 1.774448091371990874e-02 -2.905810093366751126e-02 1.494790992116570285e-03 -2.841143680051292156e-02 6.326490987847729550e-03 -1.449926199465425246e-02 1.430739088694781697e-02 -2.473960382561023880e-02 2.380180155508772669e-02 -4.206360473751928619e-02 -4.717828918426087564e-02 -1.245854186195919505e-02 9.418790778998127611e-02 1.856332716670948055e-02 1.743195987116211588e-03 6.086025433355377739e-03 2.490424394691894382e-04 -9.356383009912051883e-04 -8.006517415596424783e-03 -5.427142898666927583e-03 -3.641140839068389423e-02 1.123950557319230645e-02 -2.712526360984596208e-03 -9.966176642901952362e-03 -4.470860393549262041e-02 5.955952625084509622e-02 3.653916502060238630e-02 -2.543441113502849932e-02 1.599133786701118290e-02 1.737550218689044336e-03 3.848257936180191074e-02 4.583722664135007549e-03 -2.049803068381415155e-02 -2.665452230379667525e-02 7.543781785685907404e-02 -7.390445289070840529e-02 7.794191353967069857e-02 -6.593223842672125967e-02 1.339434025533046621e-03 -7.256326552721927003e-02 2.722165940822465855e-03 -9.187884604259765817e-03 4.189966752696593251e-03 3.868561919110753179e-03 -7.770116279942949553e-03 -1.740896862028146544e-02 -2.541405595232206459e-03 2.889457498929383361e-02 1.242159026497284269e-01 -4.728203372268276194e-02 -3.323201645051602343e-02 -1.024216367862090943e-01 -1.939926005272200188e-02 -1.422973623050152459e-01 -2.598476511854671015e-04 5.189722821002092611e-03 -1.750544707279434817e-03 -9.307307568058126312e-02 -1.151179235319600147e-01 5.525681933796501013e-04 1.129325832850538586e-01 -2.254607290181182520e-03 5.591843233613588704e-02 -2.845692930553368402e-02 -2.231389354174020956e-02 -2.108179287695561774e-02 -1.655290944188446411e-02 2.930603121449396053e-02 -1.355059843523201690e-01 -6.358790747185097403e-02 -6.489013196331663673e-03 2.821382262069170588e-02 3.159444494356883348e-02 -4.129349327486245974e-02 2.887471339754094785e-02 4.999145366071226781e-02 -1.961775794738300147e-02 -5.843495845132681832e-02 1.953241385036533131e-03 9.408618902229055891e-03 6.941911204411259362e-02 4.942590409038929294e-02 8.496692451743677321e-03 2.222279694121955668e-02 -8.037722643522060909e-03 1.713930777450459880e-02 -1.213067425828557450e-02 1.348445873857397580e-02 -5.027791833089189505e-02 1.678893381794595990e-02 -3.015925820611203845e-02 -1.887929744974795390e-02 1.307890699072841549e-02 1.299468749794214584e-03 -3.119547198434472271e-02 4.680158385789475600e-02 -1.639710642275049590e-02 1.252622808020875667e-02 -2.094906416930915338e-02 2.608798578154873302e-02 6.563863265256666968e-02 -2.846580761806602813e-02 -1.530663892406024761e-02 -6.482107944630483587e+01 3.192050401146035582e-02 -4.378045462320037662e-02 -5.887675993706341371e-03 -4.791111077378699956e-02 1.794138150956524694e-02 -5.770443639501188215e-02 -9.484908897202418490e-03 -4.896530402724638686e-02 3.742387091961260626e-02 -2.228330021061549274e-02 1.305219571449541850e-02 1.204506392476365970e-02 4.276171380328287752e-02 2.449820666395744959e-02 7.507860312909507561e-02 -2.228641943332784411e-02 -4.733323908053317652e-03 1.784174937798970947e-02 -1.030397126572581319e-02 1.779715165908180713e-02 2.888731090316979180e-02 6.997950906194298770e-02 -1.538765041076012481e-02 1.629541899862976470e-02 -5.003232217164510587e+01 -9.143060038760460195e-02 -3.048319921344761624e-02 1.178275120486637143e-02 3.152940989436067015e-02 -8.495310859282170432e-03 2.639310914898938040e-03 -6.513729768038878376e-02 9.846640294616207378e-02 -9.409447125612831198e-02 -4.165726954850237202e-04 4.613945747166155881e-02 9.798082040114177230e-03 -6.351231869074053758e-03 -5.652927652504804307e-02 -9.728141257746492814e-04 -1.661830358545548711e-02 -2.241173794031266903e-03 -2.936493934588821006e-02 -9.056213311103301564e-03 -4.680021427435513554e-02 6.028457711532502275e-03 -6.614244471078209453e-02 1.010126008156774597e-03 -2.030409775202660690e-03 2.002852922452982160e-02 6.738130965868058264e-02 -9.742707626073367211e-02 7.563721310292829958e-02 -2.539077701550002120e-02 1.950101789032802901e-02 2.357540544297920607e-02 -4.588132014828015526e-02 2.041291017747236952e-02 5.807182115955009105e-02 3.822471048276109701e-02 9.129448912241905356e-04 -3.371911859686560486e-02 1.067473783120192754e-01 1.339592528567428581e-02 -7.041218818164717008e-02 3.896669011310081865e-02 -6.601671142768199968e-03 -7.537326757341279541e-04 7.600845906229512609e-03 2.854452388704535257e-02 -1.043833000038691533e-02 -3.593712706550367814e-02 -3.354062693158677694e-02 2.463230138636949076e-02 1.522011202326925550e-02 -4.351306414411943574e-02 1.380958789583106375e-02 1.682088816253943936e-02 1.767638710241690655e-02 -5.876870725081893149e-03 -6.339478650638882828e-02 2.963707072974195236e-02 1.765008438892772674e-02 -4.329892188655357077e-02 -3.654500687128863119e-03 4.737467475173594463e-03 1.056157747509289813e-02 -4.435115468680055073e-02 -3.915092179014698776e-02 7.735953638634417324e-03 4.685487006847298408e-02 -8.964117416493187773e-02 -7.780706760491652718e-02 -9.589688263991438810e-02 1.452133027857131081e-02 -1.020176248288354598e-01 4.404399375312544745e-02 -3.798131647233468633e-02 5.653831862227569338e-02 5.622787930811893459e-02 1.706613780552332371e-02 2.235657972359376272e-02 2.382095794966763297e-03 9.276511192622485802e-02 3.453664738514938132e-02 -3.537447808851355846e-02 -1.549870950285493244e-02 9.960535503203898217e-03 -4.183443264957813906e-02 -2.204840366861584786e-02 -9.368710279108991706e-03 -2.990610813947644844e-02 -2.593218887172614451e-02 4.037003681308190539e-02 -2.847129387973172318e-02 2.787968300065641215e-03 8.274595213451675646e-02 -1.274391461604579105e-02 3.950535119644326548e-02 -5.646876774127652932e-02 4.235770160026337133e-02 -2.219657606094861332e-02 -3.770898330703916358e-04 8.258546749545406240e-02 4.222133780908570583e-02 -2.443723127960208824e-02 5.482030289711991439e-02 2.484988593607594456e-02 -3.568956165017200810e-02 -5.671619396438459804e-02 -1.035020864419920750e-02 4.644570609465997063e-02 -1.100627509844657841e-02 2.213131984938503799e-02 -2.945040197462111403e-02 -1.188202583448947081e-01 1.841088490553111079e-02 -8.305782049525764835e-03 -3.030538654330924668e-03 -3.788359444845945927e-03 -1.880361887751564459e-02 -1.001728820472623689e-02 -1.704081285145536175e-03 8.452211639100728341e-03 -8.491796862207454111e-03 3.472871388466443332e-02 1.686751459660442223e-02 2.034021722430949877e-02 -1.268702856766063813e-01 6.526826819468591057e-02 -2.914674730146171039e-02 2.135607714450249786e-02 -2.878799809545203731e-02 3.484162030986186903e-02 -3.617744243987794481e-04 6.870635738707677430e-03 5.902215159781776938e-02 7.687992251453405453e-04 3.903076889466419470e-03 -1.149548417710270602e-02 5.779878317968566159e-02 -1.405131100106677897e-02 -7.916723280199755575e-02 1.348903259565373616e-02 -2.034626112697852235e-02 2.395045564544176150e-02 1.002521991732366058e-01 1.336683088459745573e-02 4.925630983879286662e-02 -1.861786260243578073e-02 -3.404310721842315063e-02 1.093257088791182823e-02 -5.629537197463568496e-04 -6.789345356823516496e-03 4.868693108446928847e-02 -2.710537061608246298e-02 -4.655584369132680089e-02 -2.405596057080773911e-02 1.002156341226127789e-01 -7.555077007278851453e-03 -6.631695994821416862e-02 2.152686423172370939e-02 -4.933063837360348453e-02 -7.951001103900051659e-02 -1.079764877259611379e-02 -4.132127632726217834e-05 1.864433207344199511e-02 -1.199824472747542531e-02 2.117157107048547870e-02 2.354527364901153400e-02 -1.683032664312658078e-01 -3.564137237330656637e-03 -4.716475760062743133e-02 -3.272267767777318342e-02 -8.474842221746074419e-03 -4.751540794873020113e-02 3.077509416326553934e-02 -2.332386622940884821e-02 -5.449254442174356061e-02 -1.920166829080346624e-02 6.280386049812501648e-02 3.162556378790442463e-02 3.424628114878580654e-02 3.267619322256021253e-02 3.178066295448866985e-02 1.069160029829007569e-01 3.065439014467432818e-02 3.531558757339769289e-02 -1.576004670303999752e-02 2.465231664624300406e-02 -7.354480489328832707e-03 -2.291178136111602856e-02 -1.725235661948319732e-02 -4.074669216307835046e-02 3.474169334257475733e-02 1.931806339752445423e-02 -4.304178193146085407e-02 4.103187097824265162e-02 -1.788457987700284302e-02 2.797599852223848008e-02 -1.084723640908552902e-02 -5.734221501462460902e-02 4.216801927924187371e-02 6.685492358872618945e-02 2.679646438967497185e-02 6.149030958962407867e-02 -1.664783783461481342e-02 1.709302612562297111e-02 -4.527760160271281087e-03 1.649288964096133278e-02 4.837646913975509472e-02 -6.704373092732448039e-03 -4.708290609192326837e-02 8.974607608310221970e-04 -3.470428971515337330e-02 1.285228201976374666e-03 -4.110459372299954395e-02 1.999241857783213838e-01 2.714742460385769982e-02 2.481360411429392454e-02 7.078252547341242797e-03 2.339951277428795919e-03 -3.804272538678667246e-03 -2.093812423765344100e-02 5.613506756938053954e-02 -4.321707421625797796e-02 5.701006535735547026e-02 7.999014542744634429e-03 -5.661323915812035285e-02 3.241734889875483305e-02 -2.678133478598985692e-02 -1.969368701647798356e-02 4.037701923653321673e-02 9.195471267681378999e-03 9.680045627845741685e-02 5.008477417009358362e-02 5.659977069458411308e-02 -3.240346652382460751e-02 -6.913684064061065282e-03 5.251551047194673305e-02 3.071957010520459316e-02 -1.378075036083121867e-02 4.937517663257257050e-03 1.687954708847170041e-02 -8.018790811458301193e-02 -8.550350892683550308e-03 1.543315630671248349e-02 6.170221994946429754e-04 6.956239829403622343e-02 5.221082636253440712e-02 3.577610922309611228e-03 4.081636138464368735e-02 9.163416780421958577e-03 4.655528634969389318e-02 -6.929505072607242133e-03 -1.054294772741475386e-02 5.651905807880500815e-02 -8.343464289623203980e-03 4.128254850301566609e-03 -3.659271397114351350e-03 -1.529404079547402526e-02 -6.014717844849164219e-02 -3.112023092904312935e-02 3.330938196034806398e-02 -7.516925798744546888e-03 -4.756044183068577902e-02 1.130757443509238236e-01 -5.149952033776460797e-02 9.548592484403023439e-02 -5.118075289817879125e-02 -4.926465953948164049e-03 -3.233075732307690714e-02 -2.527314786613257293e-03 -1.715169087874396370e-02 1.420634770501215914e-02 -2.043223901678633408e-02 -8.502181833410895131e-03 -4.178531683921811457e-02 1.300194208200461735e-02 5.278178410751200103e-03 2.015122937302004074e-03 2.034674148220844137e-02 4.686019782626294969e-03 -2.858269696502820784e-02 1.642803742839127681e-02 9.893499197048294391e-02 -3.641611949443499668e-02 8.594492880296782100e-03 3.293501281770406380e-02 5.566226759896871629e-02 1.099460840350536053e-02 3.667320216854555448e-02 1.578456311185317054e-02 2.525415781993103556e-02 -7.536323693847565841e-02 3.060488103833614026e-02 6.259517128055158697e-02 -9.787165533931182701e-03 1.638538873807427257e-02 2.656385854961115442e-02 -1.189503075584695015e-02 -6.898898454187074591e-02 -2.286188211622020884e-03 2.987817821365355841e-02 7.974667077954782080e-02 2.563862725721712324e-02 1.519301433592062933e-02 8.221408486869027227e-03 8.069043875533242483e-02 -3.463671032874916789e-02 2.324369977204388329e-02 -3.867369015821318923e-02 1.935929062054062705e-02 -1.925268342468771515e-02 -5.199577009422088475e-02 -8.122474440034653867e-03 -3.400481328087057858e-02 2.005570637718121288e-02 8.491620512212905841e-03 -3.933607607458003419e-02 -8.783482153296209849e-02 -3.767574538573315729e-02 -6.074553121152551430e-03 -6.302938360189432867e-04 1.339235236050514283e-02 6.659490831228538632e-02 