1.159576201493563510e-02 9.720781806429244082e-03 9.969206094829230827e-03 8.697862814449215316e-03
2.042709282312022909e-02 -8.243937820406641720e-03 1.342987239057459072e-02 -2.877981181364008389e-03
-1.188575434078974549e-02 -1.269614621591530490e-02 -1.075452732195769125e-02 -1.095815067291782199e-02
-1.158089494153396320e-02 -1.173171130767175496e-02 -1.033695602744929068e-02 -1.017815448292908563e-02
-2.032777678713297217e-02 2.946003726045035367e-02 -1.090643639388295255e-02 1.936402233639366449e-02
-2.168823838367953463e-02 -6.994293674566371029e-03 -1.735227469821154153e-02 -8.658826170524564630e-03
7.566987771423206409e-03 -1.235952705134451754e-02 3.352367583905306678e-03 -7.686763024683486260e-03
-2.449043385662088429e-02 -1.043596454599500511e-02 -2.060118583333587008e-02 -1.202257454976388661e-02
-4.703723710796446807e-03 -2.727886642935694380e-03 -3.759561259421527902e-03 -2.597147226699400742e-03
-2.045670520218614580e-03 1.266851213952397380e-02 6.128752728783320482e-04 8.681269019478583815e-03
-1.338142639866990186e-03 -1.221107056997052832e-02 -2.945606678492751918e-03 -8.847867615539708325e-03
1.974528738052988563e-02 -2.809571934484897046e-02 1.052044244010878239e-02 -1.826243205250970003e-02
-1.463259493972291457e-02 1.801898252620425314e-02 -7.655528087973604949e-03 1.089454008562718360e-02
4.561821735981527216e-03 2.187441969073222400e-02 6.861061654908483243e-03 1.662670929084112889e-02
-2.655362882954975107e-02 1.592566298476480458e-02 -1.718723317961680028e-02 7.730618822620905287e-03
-5.488080768139680550e-03 -4.306981208677097502e-04 -3.928370152243823056e-03 -1.090848484879605165e-03
-6.821894063364206465e-03 2.184741046798537294e-03 -4.438665373196719680e-03 5.556016687014133293e-04
-9.068748026313303706e-03 -2.289001230549805865e-02 -1.048513116426225827e-02 -1.829767229980452936e-02
-8.362532664701275570e-03 -7.364936640821925784e-03 -7.168510679594687282e-03 -6.455778932593635687e-03
-1.920005310312247748e-02 -1.013933590688032710e-02 -1.597943697986901196e-02 -1.050244013081481562e-02
2.751562472993647826e-02 -3.797188244534396850e-02 1.718092122582817391e-02 -2.710132680869397487e-02
3.094055274084914556e-02 -1.399807753161828351e-02 2.131562582377909826e-02 -5.538130611743873923e-03
1.563680188916216282e-02 4.779556037491504601e-03 1.208672870825684004e-02 5.805316526308776544e-03
1.856009071591927656e-02 -2.928141726329670444e-02 9.528793511581543432e-03 -1.939950172349442711e-02
1.689926985715927907e-02 -1.379656484587077521e-02 9.902193995387069750e-03 -7.458345564465347632e-03
2.159855693741511568e-02 6.302921179464088079e-03 1.713324136378412479e-02 8.117631901136552683e-03
-5.401478318292976533e-03 2.330065471248194200e-03 -3.411719008797187928e-03 8.576724843692597319e-04
-2.615994484585796448e-02 -9.684453098388378159e-03 -2.193694286451251113e-02 -1.188677387419815462e-02
-9.454036584536237853e-03 -3.288644593025564274e-03 -7.246625197814282777e-03 -3.712523461372171062e-03
2.905209259659881447e-03 1.611293825067283692e-02 4.705241940908382221e-03 1.195068531610995501e-02
-3.874907496863819190e-02 -1.122167235948093832e-02 -3.830791526871339669e-02 -1.926370859989751105e-02
8.563286361107128389e-03 -1.256305519454686999e-02 4.035342031074925541e-03 -7.692240971464166417e-03
1.488250798581658776e-02 1.891283458559041980e-02 1.434808425065703906e-02 1.636563941659284482e-02
4.555539735632352719e-03 -2.599774365713189428e-02 -6.755460998187056689e-04 -1.843351489391821529e-02
-4.930195929943598752e-03 6.433113684551503009e-03 -2.406763741606100012e-03 3.825037793757260756e-03
-1.609215447612869984e-02 -1.382883797608453966e-02 -1.424984116253390221e-02 -1.264680932763789095e-02
8.841874580061845346e-03 1.477063793594970628e-02 8.840468686819358962e-03 1.194608281553689692e-02
6.963943989315953161e-03 9.477358980098037414e-03 6.530062606806347029e-03 7.751913919195031755e-03
-2.220614461057672864e-02 6.127571436924565164e-03 -1.518899174121847787e-02 1.027760062108344251e-03
1.304525348910310842e-02 -1.730190732480546209e-02 6.591049118014661277e-03 -1.056426084973064589e-02
2.018678147591815644e-02 6.920371453817590092e-03 1.610551281261318399e-02 8.283853225801125070e-03
1.541821975601904808e-02 2.357604665936348723e-02 1.580272691688253128e-02 2.035809093158236910e-02
6.407654186295709368e-03 1.235228287592169717e-02 6.620977268929718884e-03 9.740946926268681874e-03
3.097242169517292962e-02 -4.934790323490851824e-03 2.301359790845916922e-02 1.590909080638949454e-03
-3.787922940883136497e-02 4.581607439770907231e-02 -3.287963715960239702e-02 3.997632557659090702e-02
-3.267911346769428876e-02 1.193994269987463898e-03 -2.557608408316552201e-02 -5.018099428222424357e-03
1.287078228615961238e-02 1.798377777524664406e-02 1.254431833547742584e-02 1.518784992921463038e-02
-1.717403850745342908e-02 2.976463063162003778e-02 -8.438734864124596349e-03 1.996182753727036158e-02
-1.323465935136127793e-02 8.831207791549980715e-03 -7.955518659158960018e-03 4.358838114913833953e-03
-1.125604281537496282e-02 -2.915431316007295257e-02 -1.341673349275437736e-02 -2.427401764299358389e-02
-1.469065732310713022e-03 -5.785016425165298397e-03 -1.988520098047055849e-03 -4.285434469563259227e-03
8.437118241356974732e-03 -9.239117022781814445e-03 4.450538079959686852e-03 -5.319924112345017150e-03
-1.442915719612220503e-02 2.809819213700504720e-02 -6.463828305755096176e-03 1.884986111597565864e-02
-1.298909335448444197e-02 8.863807617640174705e-03 -7.780176182857179677e-03 4.416458071847909408e-03
7.828610213748145655e-03 -7.373994183645001151e-03 4.307486178777790442e-03 -4.082288681476363944e-03
-1.262187892555563171e-02 -1.078340609424223960e-02 -1.094439458377646779e-02 -9.671029945352696555e-03
9.639073364404693658e-03 -1.992805842585042633e-02 3.775593414682921947e-03 -1.297950122945755978e-02
6.422034847287850200e-03 -4.098689718102707484e-03 3.840244507597559507e-03 -1.968230471403848748e-03
-3.367724683561915296e-03 -8.778870190915387048e-03 -3.825103081572479510e-03 -6.686149970900929704e-03
-4.597908966433121407e-03 8.792781359434152094e-03 -1.796665175475885366e-03 5.546424598646550186e-03
-3.032284049599084388e-04 -2.034713499588819321e-04 -4.506961428558864946e-01 -4.518362800361069298e-01
-1.841624408779802408e-02 2.724090775406469694e-03 -1.282440792252744280e-02 -8.300082275592837256e-04
1.101960280015924776e-02 -1.984780253343703879e-02 4.787433948025728025e-03 -1.273549711294831924e-02
-1.960524819904775271e-02 1.471442360909481703e-02 -1.181940466856250087e-02 7.777730646420816241e-03
-2.015976632286208686e-02 1.026405747390688947e-02 -1.290144352648183758e-02 4.400134370630805550e-03
-1.251523927562249797e-02 1.031708529915514698e-02 -7.210395285498297398e-03 5.529866746521310515e-03
5.276588310987779390e-03 -1.538221928152478692e-02 1.269084790887828719e-03 -1.019323236106827943e-02
-1.130077119827626285e-02 5.632619931009247294e-03 -7.069775896531417178e-03 2.350733176985452151e-03
9.845754961136307659e-03 4.477677458662999294e-03 7.735684848525281772e-03 4.622768339212031917e-03
-1.365607007535058620e-02 -6.312926058664009368e-03 -1.087628721630755704e-02 -6.571860766105622198e-03
5.979850867847569078e-03 1.750617349841285947e-02 7.197993985112512150e-03 1.350434461782752671e-02
-4.935111570038157140e-03 -1.421923100484430956e-02 -5.870250655405724084e-03 -1.087657613656077549e-02
-1.424184850059273706e-02 -2.381481039852510057e-02 -1.485966807586499260e-02 -2.025705701450926030e-02
7.394928150604160484e-03 4.089321808631906155e-03 5.906569163223604306e-03 3.966169278639948212e-03
-2.140631160894469753e-02 2.656289458236193307e-02 -1.191947511549648966e-02 1.680377786802396065e-02
-1.238883660024453666e-02 -3.207775836976396039e-02 -1.492721140460204036e-02 -2.752962331337419771e-02
2.827786745148054906e-03 2.458604804849735120e-02 5.987088680460956464e-03 1.849096253179782767e-02
-2.796280700602919809e-03 2.257904908242949760e-02 1.530563857342162300e-03 1.596717492796731475e-02
9.266520673100610284e-03 1.016206888717996731e-03 6.717089277020416895e-03 2.069642614092146067e-03
4.754862966079332308e-03 2.915024228759954122e-03 3.822517537227055479e-03 2.738090962761536174e-03
1.616127897987483519e-02 1.539677640884790609e-02 1.463780027465312432e-02 1.387946556176304115e-02
-2.880105530397300616e-04 -1.037480109964064937e-02 -1.903968163011100735e-03 -7.369200225196100712e-03
3.141066008603811324e-03 2.305329256877724012e-03 2.586214412573382016e-03 2.073050727933776517e-03
-8.703801641613858123e-03 2.678369822047362795e-03 -5.694229835316212338e-03 6.305265938578567299e-04
-1.831653387174823552e-02 1.161788415738484841e-02 -1.128945177981147650e-02 5.662083875876102596e-03
1.978910521021488150e-02 1.930011640038726758e-02 1.859175918699690344e-02 1.792293094405200335e-02
-1.577167469762894708e-02 7.653740366478034790e-04 -1.117781947790413323e-02 -1.815150064530859572e-03
3.266425264151204266e-02 -4.538292936071658401e-02 5.753952884509631882e-02 -8.670317078534779676e-02
7.866552928316179749e-03 -1.982610822709637843e-02 2.504830589309551669e-03 -1.313707685146026441e-02
7.320119345422284023e-04 4.362617112012755032e-03 1.233859107235865281e-03 3.172158344700307803e-03
-1.339449897825528875e-02 6.807211262101889641e-05 -9.533125194193034849e-03 -1.937299273543541950e-03
-1.580153347628166427e-03 -6.790229305588875875e-04 -1.216438967027922390e-03 -6.975987709499087419e-04
-9.120641811521407877e-03 6.126968548600801936e-03 -5.426025806364630569e-03 3.013941911555454399e-03
2.966576329719163366e-02 -5.950137688949489780e-03 2.157006999504499853e-02 5.027030151233316925e-04
-3.622577452460531283e-02 3.558439396123662130e-03 -2.896580060201815396e-02 -4.195137158269123326e-03
-2.336334162636196504e-02 1.226162876137516615e-02 -1.509987338784734949e-02 5.411470994115890991e-03
1.370003882434195179e-02 -1.003823355231989178e-02 8.106969316170341971e-03 -5.161382148257866870e-03
1.394485892910288238e-02 4.442057125361307396e-03 1.074560408918818002e-02 5.266360659511261019e-03
-2.090747662186575803e-02 -2.302387368957654282e-03 -1.573694088221795628e-02 -4.974689973016150311e-03
-2.471340861877959448e-03 1.720869194483171452e-02 1.000341076350384859e-03 1.193876642343434311e-02
-6.176930684778885253e-03 -8.273707518820323445e-03 -5.746181183232012407e-03 -6.757774085748050399e-03
2.684195152840879606e-03 -1.525876351818874523e-02 -5.571271425360247928e-04 -1.046968437692615342e-02
1.409996929993381255e-02 -8.746164862941352772e-03 8.607705028616555523e-03 -4.170587642957258520e-03
1.209740487865803779e-02 -2.393873808593360505e-02 5.096746912082482546e-03 -1.576348928593201276e-02
2.380482382812579289e-02 2.062590993362948405e-02 2.269843146407457199e-02 2.032808831926843918e-02
-5.081305755257705704e-04 -6.857096309474172008e-03 -1.484587227497905816e-03 -4.895888029088371618e-03
-1.432653066343176317e-02 -3.221329230853542391e-02 -1.670652151273400651e-02 -2.831696372881457868e-02
3.138289596729675057e-02 -2.716725188008029673e-02 2.035781038579441427e-02 -1.633116218466831165e-02
-4.016949309099824422e-03 -1.048523464890589382e-02 -4.578063757992638545e-03 -8.007162810041991777e-03
5.372385549409348232e-03 6.331513447969492649e-03 4.836620452975534494e-03 5.251041529616078118e-03
6.182963093416283910e-03 -1.404704435512677679e-02 2.113969461970196737e-03 -9.099173910158972825e-03
-2.709511470629635821e-02 2.816720879974478342e-02 -1.648299185566589123e-02 1.760309175714241253e-02
1.648911310136439226e-02 1.485677993097093454e-02 1.479092818078039592e-02 1.353325120576789019e-02
9.093776930591978723e-04 -1.190968645674627714e-02 -1.300118035386018831e-03 -8.294261723192452793e-03
-9.750575606145363977e-03 -1.106850188365231767e-03 -7.080105124830998568e-03 -2.208426439080298041e-03
-9.980752874661660660e-04 8.849962687619125981e-03 7.487382789435184432e-04 6.097852647608720082e-03
2.875215939409798277e-02 3.279445810190110937e-03 2.278261015379309112e-02 7.507738551518369947e-03
8.274774597070959012e-03 -7.857838183336813415e-03 4.550540243303315482e-03 -4.357593842221421827e-03
5.984716652830478212e-03 -1.599797371369815480e-02 1.685430884916984656e-03 -1.054516812213824976e-02
-9.205603997676760353e-03 -3.035254887489080913e-02 -1.190098523133109425e-02 -2.488757702822469442e-02
-1.981511116957162047e-02 1.126001653492082928e-02 -1.247805667817167632e-02 5.184833304318137333e-03
-3.418107142364295442e-02 -2.000789369795671208e-02 -3.494041337779355688e-02 -2.489481640966887885e-02
-3.519126640799814278e-03 -4.952715322759687795e-03 -3.293615208934863939e-03 -3.996419992456089719e-03
-8.283507044859745108e-03 3.370798457198491242e-03 -5.277787051481136991e-03 1.178404243646884652e-03
9.781586400747065840e-03 2.965332253838508236e-02 1.227049516515225577e-02 2.436732869646809560e-02
-3.281429759100111532e-03 2.141368703126915116e-02 1.025217747006926076e-03 1.499689901624340696e-02
1.695520474298179564e-02 6.445756818538810051e-03 1.342894467903808092e-02 7.273402644678213583e-03
3.032230918678987738e-02 7.393715286390533173e-03 2.542007015227649297e-02 1.130440786363635063e-02
-2.225839298518824186e-02 -1.695031451200244149e-02 -2.021673023706304154e-02 -1.667682796219167873e-02
-3.012368111035305593e-03 2.928374424488008193e-03 -1.629909182876162045e-03 1.623910560595360824e-03
1.423086720634211128e-02 9.095055873320980963e-03 1.184140642435552518e-02 8.716044611433484621e-03
1.213402466148910501e-02 -1.845809069278965542e-02 9.554801007782563749e-02 2.156680590652949175e-02
-1.586842239848090114e-02 2.910822112457250085e-03 -1.087068110492150214e-02 -2.820321833427936239e-04
-1.702954681510376184e-02 1.712313395490020276e-02 -9.546870348694135033e-03 9.913210500941516123e-03
2.780742842789034677e-02 1.369764363191313186e-02 2.465495336743055155e-02 1.572206996660961698e-02
1.953206732505878302e-03 -7.455596932716249819e-03 1.507898045658930984e-04 -4.971926841577108125e-03
-5.370840671071081505e-03 3.228324398683537350e-02 6.565786801149709612e-04 2.377551418149331103e-02
5.565288781149725465e-03 2.456588381717887009e-04 3.950996409541422498e-03 9.715885361412897932e-04
7.604354908438809221e-03 1.206912390650057704e-02 7.446943836218106183e-03 9.738782801863457225e-03
-1.909243869516122870e-03 -1.230129390394907839e-02 -3.365037180200830796e-03 -8.993554948325098095e-03
7.360563503913078454e-03 1.184009931262021940e-02 7.226402962939377367e-03 9.527786949767941271e-03
-6.189453097654699573e-03 -1.737445725179120881e-02 -7.325247432923650930e-03 -1.344047286925083816e-02
-1.572924469064609226e-02 -1.834216338069848476e-02 -1.491397966097759639e-02 -1.610267721540721564e-02
-2.017724499304039340e-02 -2.433635801737420862e-02 -2.024179341133262172e-02 -2.243406560851815210e-02
-1.927264500628092514e-02 -1.718036303614461913e-02 -1.763504238179444336e-02 -1.604640384985086057e-02
-2.159792154720598448e-02 -2.417549388810909597e-02 -2.154938453873575868e-02 -2.276937913125931870e-02
-2.992934262895765446e-02 4.255985750750759626e-03 -2.217837756310109612e-02 -1.887794300995259680e-03
-1.253769018728973471e-02 7.095234111731562113e-03 -7.725647093203081954e-03 3.217811806622166738e-03
-8.260842906323277723e-03 -1.174752405713098448e-02 -7.870355199217519970e-03 -9.608900174838667929e-03
-3.362331447084766778e-02 6.395693265623209230e-03 -2.534627542298061031e-02 -1.080164308935602788e-03
-2.235830465894466084e-03 5.419177372326880330e-04 -1.479644574288962533e-03 5.721684242823334160e-05
1.408857717850969804e-02 1.438481557236306711e-03 1.031398496250103200e-02 3.131099844649052558e-03
-8.254457823789704567e-05 8.519021100438598296e-03 1.341567880666886961e-03 5.993758234470081443e-03
-2.067136748905405372e-02 8.010978874087427634e-03 -1.365454498680781885e-02 2.666564819541839080e-03
-1.010388496100932468e-02 -4.017578095435626363e-03 -7.845922879632255889e-03 -4.336172244993601044e-03
2.462175009849110283e-03 1.233650089860328057e-02 3.772930187000970124e-03 9.112319925700473541e-03
-3.182206517912412880e-02 -5.729684773263314136e-03 -2.653445069500142556e-02 -1.043592217100052823e-02
1.110900155583507097e-02 1.900434767916578047e-02 1.136183641361223490e-02 1.561636249622357087e-02
7.562612250200403605e-03 -5.043536216069269620e-03 4.497029941652937526e-03 -2.462196638244122746e-03
7.190621006266554455e-03 -1.011158903690252513e-02 3.426861141886861865e-03 -6.117681803596542421e-03
-1.402438250640786546e-02 1.139088672815891622e-02 -8.137318542195431936e-03 6.096840940568914492e-03
-7.945668219436947260e-03 3.898518092493222405e-03 -4.952697799233117017e-03 1.604503226107079853e-03
-4.212932136348871391e-03 -1.541546431984456081e-02 -5.540948025198329067e-03 -1.163569833021993634e-02
3.049252777838320355e-02 1.340128977025918135e-02 2.745250946680791865e-02 1.649677683130245862e-02
-1.439896115289513584e-02 3.732987622516617358e-03 -9.641079865652751185e-03 5.309825567897519380e-04
-2.929531176747640631e-02 -9.618366583151153823e-03 -2.499244862270550219e-02 -1.280942189803975853e-02
-1.125941553081579588e-02 8.643410292994700359e-03 -6.558292708257464250e-03 4.499150894699040920e-03
-8.231869760802404748e-03 -1.125873016732845643e-02 -7.761483123398548768e-03 -9.247229131294488341e-03
8.338073142890594855e-03 -1.966524501165958436e-02 2.864758550573806399e-03 -1.295523187722863109e-02
-4.950751072423310167e-03 1.406206488267814324e-02 -1.235526833342470796e-03 9.276984945594174414e-03
-4.448829080804400128e-03 1.903874944275428180e-02 -1.509135188976670999e-04 1.301803730843367757e-02
1.581192290896103747e-02 3.109001566221610089e-03 1.191573962425591937e-02 4.631767077905093143e-03
7.990261783334167084e-04 -5.291346220981926057e-03 -3.106945621939063138e-04 -3.604672354425438388e-03
-7.704470945633852194e-03 3.783232772391975553e-03 -4.799037194247461786e-03 1.556758213838356194e-03
-1.380990104352508314e-03 -2.246949133876904522e-02 -4.585955873002526238e-03 -1.654083433915949294e-02
3.879806716889463991e-03 2.326586710825193430e-02 6.572098363387918890e-03 1.761056950134064561e-02
-1.303261095489403193e-02 -1.018422477749301829e-02 -1.114335881993426709e-02 -9.295704411521740415e-03
-7.672841776549246470e-03 8.966543128068283838e-03 -3.945764857736175531e-03 5.232979152107454686e-03
-2.400905650084653870e-02 -3.427900646285520544e-03 -1.854509484407749695e-02 -6.463605487255582975e-03
-5.303359518345039311e-03 -1.207250339107310624e-02 -5.771404751634154166e-03 -9.363649318410124586e-03
4.089566055294564708e-04 -9.318062384760799829e-03 -1.240829666816502773e-03 -6.513040465121500665e-03
-1.707978181211957519e-02 -1.787971332651741227e-02 -1.593101104178319335e-02 -1.605485547075615263e-02
5.678823484571066810e-03 2.292896199436370019e-02 7.884437629388748800e-03 1.766726744322837800e-02
-5.706617120593983350e-03 -9.477966057044371825e-03 -5.613755091998568272e-03 -7.552892875777013695e-03
-4.413072437068768852e-03 -7.224975290163857151e-04 -3.217324798232522320e-03 -1.143933669537379504e-03
1.082849221418739037e-02 -7.721338235560089996e-03 6.394434417959464836e-03 -3.903263952663162898e-03
-5.770739601652182492e-03 -1.310268220188462278e-02 -6.285362248585218449e-03 -1.019095305831531004e-02
9.491311805053991024e-03 -1.459454169886613894e-03 6.461705273727065199e-03 3.477765084479164182e-04
1.549137632546783092e-03 1.717407037950031967e-02 3.899134795420979797e-03 1.252181571231770173e-02
2.061588100279534291e-02 1.565537659241704460e-02 1.843534065760108961e-02 1.516154695889841697e-02
-5.924723111764199253e-03 8.084073978726675005e-03 -2.848644125752707295e-03 4.851477367023620570e-03
-1.701382444042250780e-02 8.484405616276552778e-03 -1.079709030344354510e-02 3.562718022982286955e-03
7.458225277811105251e-04 1.901649069446453789e-04 -4.528089264282454951e-01 4.529038914744315525e-01
8.153290214740429101e-03 2.228139534191296220e-02 9.664191279659095288e-03 1.762201605799361068e-02
1.018172456492571001e-02 -1.095741519671375279e-02 5.431831171593705203e-03 -6.307646326189188593e-03
2.288143231738195421e-02 9.921328577943625340e-03 1.903629209648304704e-02 1.119733472585411616e-02
-2.753617781831765171e-02 3.583439993367573684e-02 -1.695308440822016968e-02 2.478550491462639879e-02
-9.718402373362607441e-04 -2.427953864066928133e-02 -4.549340027332683667e-03 -1.791751636083125515e-02
6.244974117080331032e-03 -9.690317421375143486e-03 2.820203237340967919e-03 -5.950474943473901303e-03
1.019795794353997587e-02 -1.859227736855545085e-02 4.351222107463245843e-03 -1.189412102232898817e-02
2.278801421820379411e-02 7.156295599410127453e-03 1.832601883190201203e-02 9.036107856618603995e-03
5.396548016912436872e-03 -6.998096866446023960e-03 2.649736728636318574e-03 -4.155748270008511117e-03
1.980423070029320443e-02 7.639186123257182305e-03 1.594068261714869789e-02 8.738183417893464686e-03
3.981114805482237340e-03 2.571864126233281214e-02 7.025232650184603383e-03 1.962662922406600147e-02
3.390246414889496861e-03 -1.980142557808287421e-02 -7.237291928407239621e-04 -1.375141040364746825e-02
-5.310122028244626709e-03 1.536423897185458520e-02 -1.294124624906492884e-03 1.017817464786804210e-02
2.182623246610310846e-02 -2.257720104692319957e-02 1.258442059378059481e-02 -1.352762913761867448e-02
-1.573415218775209637e-02 6.125898495092463401e-04 -1.116983530298185437e-02 -1.916008573315324762e-03
8.285996766591743543e-03 -9.677796469265077112e-03 4.272005247344221220e-03 -5.653233993069562043e-03
3.410711847029224142e-02 -4.520249597489912896e-02 2.670247359255665393e-02 -3.766406142105623717e-02
6.212811801170394291e-03 3.708040656882964376e-03 4.997969317467962184e-03 3.511947287604678426e-03
3.730885509170692865e-02 1.753330210543588286e-02 3.910657688146339933e-02 2.485643848032090611e-02
-1.205387368446666531e-02 -1.692901150924365494e-02 -1.169212160549025319e-02 -1.419374822385040605e-02
-5.686688384810274430e-03 -2.422856885294791610e-02 -8.097883101943748746e-03 -1.872449256097527201e-02
-1.781811268967693502e-03 1.446955126402823524e-03 -1.008923621025887294e-03 7.564866509739677719e-04
-6.280847827123139070e-03 -1.267462294816018922e-02 -6.581435852426682255e-03 -9.957992976864395510e-03
-3.484748696880579644e-02 -2.597606389957413803e-02 -3.975497155402928084e-02 -3.276572344691424526e-02
3.265260634423813695e-03 -1.152645428343896349e-02 4.316717349602049538e-04 -7.676422058344815544e-03
-5.510679956060774917e-03 1.101344718907265943e-02 -2.093679237070732169e-03 7.003731278284765910e-03
-2.474886005881674067e-02 -2.662398136556071507e-02 -2.556300459930115065e-02 -2.643042797586837508e-02
-8.331494504957162942e-03 -4.816211068422896618e-03 -6.701106193422096124e-03 -4.627085178878904276e-03
-7.812364933681413028e-03 2.549611350421729632e-03 -5.081132093213510184e-03 6.695695344332212688e-04
9.665769603570798646e-03 1.485409357830385583e-03 7.081524553290812971e-03 2.456488453619756068e-03
4.099631514400271792e-03 -9.569016842392547711e-03 1.325483109305608748e-03 -6.162888305450404600e-03
-1.259269022382143201e-02 -1.573906463413055415e-02 -1.187885619432852910e-02 -1.338662241005364635e-02
-7.079466131034745958e-03 1.136390950371447307e-02 -3.152971433249775971e-03 7.039226927823642559e-03
5.393526111743613544e-03 1.753147763751618238e-02 6.762350506777449304e-03 1.342005474986503015e-02
9.436228803958352646e-03 9.266075815868832916e-03 8.288073805830045021e-03 8.000664128468988265e-03
-1.321224652948072009e-02 1.180321796073117817e-02 -7.487498951426829231e-03 6.513130423187732040e-03
1.279455160897831692e-02 6.942704189645342895e-03 1.034964034967194267e-02 6.885763293983765757e-03
1.291502428515423767e-02 -1.838777473842491926e-03 8.873998034753039985e-03 5.910882851964180526e-04
8.485612477698974143e-03 1.380760554076551627e-02 8.405581614099093268e-03 1.116632394952733580e-02
1.144440779649585731e-02 4.344408933824745953e-03 8.880485870332523526e-03 4.784706923460832657e-03
-2.055504931274350269e-04 -2.790858918311409781e-02 -4.457156469944247024e-03 -2.079620242289220364e-02
-1.051191811011321746e-02 2.025472881739981759e-03 -7.092078452583721292e-03 -9.579144313237477996e-05
1.087761024077016359e-02 2.153345606626751521e-02 1.165806208590888099e-02 1.757695035631519354e-02
-2.374362727341823923e-02 -1.836601360211034817e-02 -2.198705385454021929e-02 -1.833248192043166608e-02
1.077524276360499259e-02 -7.061020170427451982e-03 6.460574004830127795e-03 -3.443428769393768862e-03
-1.007158495480274876e-02 1.191497742894885234e-02 -5.207737369559854550e-03 7.016821571349953802e-03
1.525409168021215484e-02 -4.547396214745163048e-03 1.013148724631263153e-02 -9.857614033270999457e-04
-3.075796819422846958e-04 1.522982737309564296e-03 3.426039532654438893e-05 1.021778311645076811e-03
4.645951219158698619e-04 2.013994140323232054e-02 3.567602141058268811e-03 1.459542998758578403e-02
-1.191681727132992696e-02 2.512394667778368451e-02 -4.840913764996941301e-03 1.672864622823158273e-02
-3.096783999535547560e-02 -1.303039763194572750e-02 -2.785361886094975259e-02 -1.635669008324482435e-02
8.612733064111293552e-03 1.681051635376390116e-02 9.040054516975877530e-03 1.344469608047773289e-02
1.348358471959480893e-02 1.628957705985437099e-02 1.268752246131029868e-02 1.399319695089965010e-02
-1.082175258264306793e-02 -1.856930027016744436e-02 -1.105039246486964367e-02 -1.522213803030471498e-02
-2.409041917693941891e-03 -1.995442445130359010e-02 -4.957250683703258790e-03 -1.476200143026643735e-02
1.949916662720613258e-02 -1.484281851096382748e-02 1.171564132354206700e-02 -7.887195565397062125e-03
9.754451562007779644e-03 3.980306441817110970e-03 7.582096945165374760e-03 4.254452691865844710e-03
-1.877859472244385736e-02 -1.055074556007073484e-02 -1.572231235127932031e-02 -1.072724428869968084e-02
-7.513269395810436881e-04 -9.186623753519747998e-03 -2.036842757146733844e-03 -6.584477030683390762e-03
-1.972893961282095807e-02 8.109402383667429354e-03 -1.291456587123895015e-02 2.885940804120516300e-03
7.982507622111698758e-03 8.450080552814128246e-03 7.082139245701936543e-03 7.173320711945623505e-03
-6.120164298965787009e-03 -5.201187730126083202e-03 -5.182435111156172801e-03 -4.556733691693902119e-03
2.428041589399647880e-04 8.454479707251992202e-03 1.559696751310969557e-03 5.996880287512148210e-03
2.803890785739058308e-03 -5.176978110251534947e-03 1.116393182942176628e-03 -3.236340870180023400e-03
-1.351090793156092644e-02 7.386802727587279092e-03 -8.388225412077971593e-03 3.285310876122667523e-03
1.785094814215424514e-02 -1.977071949727727054e-02 9.831914216790766520e-03 -1.182316791478190375e-02
7.030027350139984388e-04 -1.386146101081775148e-02 -1.757530718421001928e-03 -9.740786956546104020e-03
1.433893719386612753e-02 -5.759332277173943339e-03 9.260114824973937966e-03 -1.992929416944214018e-03
2.671472768742809076e-02 3.108807925537849376e-03 2.084605320864545835e-02 6.848554278555013877e-03
1.222946286592364352e-02 5.257943870980755566e-03 9.621058982051653580e-03 5.568322963311760770e-03
2.702546859976269478e-02 1.420127618959953278e-02 2.401937233107735367e-02 1.588084428597199421e-02
9.042958444817759261e-03 1.163962711742983110e-02 8.426034278039892106e-03 9.666507370167770966e-03
-1.362640903671659062e-02 1.267914134282158677e-02 -7.651962662029485919e-03 7.086792598265154175e-03
4.772723010599842601e-03 2.245109903337547466e-02 7.116823088238987717e-03 1.711621024267406463e-02
3.735586903364027187e-03 8.412214054882065362e-03 4.023502399447227013e-03 6.479374267108753069e-03
-2.308844348728584031e-02 -8.370005423740264905e-03 -1.885526653416491963e-02 -1.003673479453391290e-02
-9.737129914040507095e-03 2.726033131482648655e-02 -3.029200341587438578e-03 1.874345614668443752e-02
-6.363526096282584761e-03 1.173651532657339798e-02 -2.588918294247110567e-03 7.398886940745163544e-03
-3.539235467327356884e-03 -1.227212338919810714e-03 -2.686986181311834185e-03 -1.371497784201890875e-03
1.996022186097713008e-02 6.773496071085565113e-04 1.465478632233800302e-02 3.586433494602123996e-03
1.415938975024317280e-02 -6.737262393416623002e-03 8.960136361005108241e-03 -2.725524431155887470e-03
1.222147824407926117e-02 3.796214108000463272e-02 1.554368820478940066e-02 3.650528826238690766e-02
1.108137993287935941e-02 2.299796752416553847e-02 1.209996080562695045e-02 1.881754188278584802e-02
-1.435840813791891199e-02 1.057593992308461343e-02 -8.509015101480704030e-03 5.457612905850023170e-03
-1.147384047577161602e-03 3.102899399949853292e-03 -2.935458326384942675e-04 2.013014845205336311e-03
4.315383536358513052e-03 1.469335831334299750e-02 5.495979706915034985e-03 1.111712148014696623e-02
4.305845593246968028e-02 6.362621867279091153e-03 4.895129770054109514e-02 2.047963838541807732e-02
2.692044917186545150e-02 -2.704780476916630177e-02 1.637896175867652529e-02 -1.665534831677313587e-02
1.945034690050534421e-02 -2.113624672147041902e-02 1.089786617521159087e-02 -1.267217378683884073e-02
1.192901484958309999e-02 1.219257828885903991e-02 1.068662508346587998e-02 1.058530703801605771e-02
-8.633247729582099739e-03 1.434803649633373604e-02 -3.815409992545642538e-03 8.972960593704074062e-03
-8.334402277974104975e-03 -2.600512761443728865e-02 -1.045794098800395013e-02 -2.074918737428248575e-02
3.257826922160216021e-02 9.393127016086310482e-03 2.850219710242152260e-02 1.383943161993652672e-02
1.849127756949584553e-04 -1.774921780330419516e-02 -2.729595681852498099e-03 -1.268316300164062937e-02
4.884553816497904689e-03 1.662781207354115109e-03 3.711191878658070317e-03 1.874615077746544711e-03
-1.726824773758647499e-02 8.202017216598412631e-04 -1.229214814409813547e-02 -2.019760048468133805e-03
2.854679266736156670e-02 1.417373540598084077e-02 2.558519904537713552e-02 1.640617113470690946e-02
4.097960216231545140e-03 -1.005298919093289625e-02 1.248091188196070490e-03 -6.510727909414835979e-03
1.177506369067926259e-02 -1.571025075061032242e-02 5.881046095652809474e-03 -9.551185584588039665e-03
1.490943878083769540e-02 5.070642756191753517e-03 1.159722065144442454e-02 5.892669722032208013e-03
-1.635280709551926656e-02 -3.426544272226557386e-03 -1.238319691193688447e-02 -4.949359290155282143e-03
1.635389218548951185e-03 2.754570802785031181e-03 1.602819463028470502e-03 2.166422923895460449e-03
-3.144494184251696300e-02 1.674535231070171590e-02 -2.136715534953844212e-02 7.648054816259582112e-03
9.309732059703500207e-03 -6.826603237561615876e-03 5.448803769298714468e-03 -3.485309603068755761e-03
-1.026498845097022043e-02 8.323207500724115818e-03 -5.892728886784496384e-03 4.410249392031865071e-03
6.897841543274970191e-03 -1.026373929387761758e-02 3.196931433213842481e-03 -6.265703561504170488e-03
-1.241426149036062125e-02 -1.018536010742750533e-02 -1.067626736452639315e-02 -9.189684793215377109e-03
8.617902845074567816e-03 1.008536324923259113e-02 7.838794896576430776e-03 8.460752722308931620e-03
1.009873382342846293e-02 -8.940281009909021095e-03 5.676756557978270175e-03 -4.876869674549918349e-03
1.466193007435129259e-02 3.523396552863713397e-03 1.111993752779254913e-02 4.726569776594536851e-03
1.263131601781480873e-02 -3.827532234453527582e-03 8.329643514689424183e-03 -8.668745321011328032e-04
-3.925584905707948068e-03 1.315112870124241981e-02 -6.532426108897504110e-04 8.754841833186768896e-03
1.199865405535401964e-03 1.070511613361509531e-02 2.601648640416891201e-03 7.741590329492057353e-03
1.865239350393961201e-02 3.796514323120097918e-03 1.423257065323048007e-02 5.637487726076653716e-03
-8.760182097238042309e-03 -4.458347928996632750e-03 -6.945095467801623047e-03 -4.438239344247818692e-03
-1.159777464623770087e-03 1.729544421690051978e-03 -5.255468498633670714e-04 1.050011971345531569e-03
2.949395536403141577e-03 -2.071335918509698091e-03 1.723772302790176547e-03 -1.034994557719700519e-03
3.697060542364470669e-04 -5.725211539892362603e-03 -6.765273334017484928e-04 -3.967660419010391945e-03
3.809072962983003907e-02 -2.483967102605801752e-02 2.748506894681945756e-02 -1.354144844347137180e-02
-1.565236522162026869e-02 3.446955242949553081e-03 -1.061387231523877595e-02 1.348469593831852433e-04
-3.332593947524227496e-02 2.415403476488134013e-02 -2.234957260332021828e-02 1.351911384186605357e-02
-2.593434938722466443e-02 2.437001232777907464e-03 -1.897537964921012371e-02 -2.426833362408126280e-03
1.257846017615053304e-02 9.372299128130371498e-03 1.064406343899944318e-02 8.619069304769156128e-03
1.435926600649807018e-02 -3.049999987639639282e-02 6.251099045570349122e-03 -2.092595539791815284e-02
-1.382410377814072104e-02 1.836595158035230629e-02 -7.021646016490624281e-03 1.125576425650232429e-02
-1.163144166754405753e-02 -7.738447893077341974e-03 -9.634056232745135881e-03 -7.264676761031913128e-03
1.366597134018213144e-02 -1.506330175521922903e-03 9.475805177054725387e-03 9.489753050019889566e-04
1.234217076098927416e-03 -7.314596984159372518e-03 -3.337217822694988918e-04 -4.971878930683190992e-03
-2.233242594965259911e-02 3.876680755135522571e-02 -1.280017002386778409e-02 2.836335882883479417e-02
1.866758640395084663e-03 -1.020759625524255733e-02 -3.513252121632345600e-04 -6.940032068127544897e-03
-1.058627982924374537e-02 -9.178303337825340687e-04 -7.659286030410709066e-03 -2.202800961635610535e-03
-5.869856555911096355e-03 -1.718757121375439484e-02 -7.056028630729364350e-03 -1.323776724477689244e-02
3.634729577935991336e-03 5.272635843580675274e-03 3.426578501791928758e-03 4.235846156898392424e-03
-4.258726731970502444e-03 1.204360950373679212e-02 -1.048983639343019142e-03 7.911359021054116536e-03
-5.409069635943373339e-03 2.653669687654902631e-02 1.011914493667999426e-04 1.875129442959138151e-02
5.511848432795023525e-03 -2.281195389214721661e-02 4.168507500478855305e-04 -1.575528753096958057e-02
-4.137540891837040297e-03 2.645210429229391536e-02 1.034023017367443871e-03 1.887133846453486336e-02
-6.108616901760291311e-03 -7.978350304684364916e-03 -5.647048973567225100e-03 -6.537977344375837246e-03
1.889221232387270147e-02 1.872253288727994056e-02 1.767382785959800348e-02 1.720243863163122347e-02
-5.068283683367366850e-03 3.963206923921303547e-03 -2.907880850420324279e-03 2.058977687239896097e-03
-3.996872122895831804e-03 -1.528903547458518482e-02 -5.366762883802500550e-03 -1.150912540528963891e-02
1.629554203440233481e-02 -2.351824542578252741e-02 8.265336010652808360e-03 -1.491080628770241438e-02
-1.494217736877823804e-02 -8.653181302305778741e-03 -1.230339024124210354e-02 -8.529391271980921174e-03
-1.182927498330353135e-02 8.744403327183998195e-03 -6.951040401190245431e-03 4.496761650593671111e-03
2.985779677847208782e-02 2.816385195662977816e-03 2.372287852055411303e-02 7.439891431025988031e-03
5.213222453751425317e-03 2.272453154181904370e-02 7.496465494845888124e-03 1.742051953068160172e-02
1.822276349899368958e-02 -1.613216205184006893e-02 1.057561952911683333e-02 -9.022999951979243996e-03
3.450681134434675779e-02 1.341857082707268063e-02 3.244048084329260312e-02 1.845634662441686391e-02
3.532064891057588515e-03 -5.893439159138590643e-03 1.514086553351629699e-03 -3.635530127340926530e-03
1.397100840488158489e-02 -7.512428779045403522e-03 8.704030397848162154e-03 -3.304539354616756099e-03
1.283230781459039453e-02 -3.639766011533502460e-03 8.504597035804572006e-03 -7.009781065586517639e-04
4.354901992031800888e-03 -1.809729365192386599e-02 2.188916750279878271e-04 -1.233459672864957966e-02
1.753970285431894274e-02 5.286688153529506273e-03 1.366096769598195912e-02 6.532042765140211663e-03
2.043227466133398784e-02 -2.352139965637590688e-02 1.140405204399203877e-02 -1.443649634356844978e-02
9.280227583427553065e-03 -1.844955467968169976e-02 3.709690189907145861e-03 -1.191254389063085666e-02
3.223025506105950400e-02 1.052641262289904199e-02 2.848235459586933097e-02 1.469122500626267314e-02
-9.274106020855975643e-03 -2.642685393779618808e-03 -7.005333242501976705e-03 -3.226890698503157278e-03
-5.933174489699597105e-03 1.173293802622029335e-02 -2.285719263380252796e-03 7.459749265373002113e-03
5.902743037229041256e-03 -1.725704213153365181e-03 3.867238583903404633e-03 -3.633852089072417977e-04
-2.189670774433624678e-02 5.747717735737954345e-03 -1.500636351741911102e-02 8.010094577764123591e-04
9.072530042861109284e-03 -3.437585114930680891e-02 2.075107796742946004e-03 -2.522940559145209205e-02
-1.828650574876829193e-02 2.911703981825670279e-02 -9.328153997884384985e-03 1.929036403287318416e-02
2.719995297734844383e-03 1.572554309029091865e-02 4.507893783252527736e-03 1.162672594171883407e-02
-7.501484743442947065e-03 3.000869532749283336e-02 -1.120339536364325277e-03 2.139645803546360789e-02
4.584305240499566550e-04 2.781734542455730624e-03 7.818376463633498492e-04 2.017954053172011254e-03
-4.883319954756906028e-03 -1.072995466821443505e-02 -5.237707008867000316e-03 -8.317453130627011637e-03
2.257616520961597956e-02 -1.372497318708454025e-02 1.425885202934331838e-02 -6.622623049665547074e-03
-8.927670149410725509e-03 -1.928746194354469604e-02 -9.724838164633932761e-03 -1.540674483562352003e-02
-2.772643326228559080e-02 1.029147688850242173e-02 -1.903608869675484788e-02 3.215868923833061464e-03
9.512558126924199400e-03 -5.558451429597441665e-03 5.798149843530691315e-03 -2.551279399403394085e-03
1.922265093160787156e-02 -3.349877625715436125e-02 9.939761839524371978e-03 -2.313460147721660073e-02
3.619869409821068612e-02 1.352520227323630343e-02 3.497547079165218287e-02 1.962175393381474994e-02
2.309347844036340955e-02 -6.844540304234892790e-04 1.691993901174177611e-02 3.170531441494296287e-03
6.202012707486901331e-03 2.880029886307848216e-02 9.223355032360523037e-03 2.274466482615505880e-02
5.394627822479041400e-03 -7.865181390369723586e-05 3.781400647702931953e-03 7.220061411344599932e-04
-4.221810396982989336e-03 -1.728349402103457680e-02 -5.858890238630785549e-03 -1.303281290790780922e-02
-6.318276841826479459e-03 1.160785766851661974e-02 -2.579727237484414921e-03 7.310635989308463499e-03
-1.333992546832667159e-02 1.328493069750935965e-02 -7.359777577124757345e-03 7.567662833484131713e-03
-2.520626786393657601e-02 1.231623755718194713e-02 -1.658690881101038475e-02 5.170720143978201067e-03
-1.694330956178450795e-02 4.411734500787150084e-03 -1.141412663469336224e-02 6.271536950733689556e-04
-2.323691408932998265e-03 -7.740844354000545220e-03 -2.914388403473185812e-03 -5.788957776421128736e-03
-2.135783394965037538e-02 -3.725571231975648330e-03 -1.638979262687560029e-02 -6.125033667533161773e-03
-1.830786437294798855e-02 -5.820365614008395430e-03 -1.436824048442236421e-02 -7.072301669390267630e-03
6.338311253860851729e-03 4.136602393058559299e-03 5.161663287470267571e-03 3.840437728028181508e-03
1.440040256151548827e-02 -5.502819850159226811e-04 1.018817989978820608e-02 1.750489911295680448e-03
-1.726696541046704447e-02 5.580225095948116928e-03 -1.145990352175505454e-02 1.427945502981307555e-03
-1.529656834957860388e-02 -6.543196127674471944e-03 -1.217520978429506920e-02 -7.040587246663989641e-03
-1.091175884456226791e-02 1.310923845977739546e-02 -5.633211487267668870e-03 7.766699759466425684e-03
1.908566641406338193e-02 -1.227465912230605097e-02 1.176979654718029143e-02 -6.042157957264933377e-03
1.692669519324729172e-02 1.459609360962270050e-02 1.509358273344205137e-02 1.342929440615355657e-02
-1.662053716691717573e-02 2.212482045270315265e-02 -8.641160520729055522e-03 1.378207876879006429e-02
-3.015517882188767720e-02 -6.745528764001991646e-03 -2.506202065683254404e-02 -1.071144415801562194e-02
-1.584515503709758161e-02 2.264231386739557969e-02 -8.010776708169058818e-03 1.428017693532998740e-02
2.717332986976511624e-03 6.595442153897593425e-03 3.005508082598506211e-03 5.039397414041505222e-03
1.380007881693498008e-02 -2.755694100893865683e-02 6.028293054000330789e-03 -1.847995651658761868e-02
-2.925686032854378157e-02 -7.732375516375979022e-05 -2.249007745672515490e-02 -5.115350600841597241e-03
-2.806632893169479226e-03 -2.678462470376907507e-03 -2.411659779423887002e-03 -2.285511333906227807e-03
1.745115337041051092e-03 -1.224203737369657400e-03 1.018817288459660008e-03 -6.132903401468241776e-04
-5.219054022689251400e-03 4.705454516863371087e-03 -2.890119658802489146e-03 2.567009832026601567e-03
-3.153796027790573171e-03 1.713673913347796979e-02 5.012520864025270511e-04 1.178221623633778428e-02
9.802022162669382817e-04 7.659588771956850166e-03 1.947870898860636947e-03 5.529913910915291997e-03
-1.183068951835594164e-02 2.668843006017819486e-02 -4.629498771460264714e-03 1.800446890417536916e-02
2.075493614341136772e-02 -2.795230078155161446e-02 1.132953788612768228e-02 -1.803047854268241199e-02
-2.243458102092401110e-02 2.854685843432137882e-02 -1.261789362978574768e-02 1.837596518844725191e-02
-1.391084764807601175e-02 1.442319488772192577e-02 -7.610739669794266103e-03 8.328175700662326930e-03
-1.106468235031939432e-02 2.232648668302318704e-03 -7.462102151744312399e-03 -3.047433562064813162e-05
3.078526672371404045e-03 -9.116167745726004926e-03 6.784394129419606557e-04 -5.987441079422811674e-03
1.999137373725776157e-02 -4.671520379123747339e-03 1.370606116952252304e-02 -3.231662993693941313e-04
4.574920713492903329e-03 3.452020265810173440e-03 3.788614138980458696e-03 3.091409503223382926e-03
-3.412328191034269542e-02 3.335797755437594492e-02 -2.305797191283455796e-02 2.194850488818727782e-02
2.400794073657156261e-02 -1.926480045798330265e-02 1.467755101591775892e-02 -1.066340821750944197e-02
3.789511664252810056e-03 7.937743098918611726e-03 3.985212305440708445e-03 6.149888535444766706e-03
9.955538959507029273e-03 -9.747646439251253861e-03 5.456170857780864338e-03 -5.470436449136529579e-03
1.419100077232166718e-02 -2.434396951783827576e-02 6.601808516263473620e-03 -1.582728361283620294e-02
1.560113032412286304e-03 -7.066543615820485534e-03 -6.274548106938862622e-05 -4.753446916432301286e-03
-1.094862459388295552e-02 1.395757137002607076e-02 -5.532063560636514034e-03 8.377399719575453693e-03
-1.021971623127628306e-02 1.415182168300789349e-02 -4.978970157302264193e-03 8.619351152449465300e-03
-4.406169642517892768e-03 -1.492118886052067050e-02 -5.601221337458662554e-03 -1.130900091234521808e-02
1.242935746970085485e-02 -1.701984610101815037e-02 6.174048125520612690e-03 -1.043663286245292282e-02
5.771969739726756470e-03 2.975016162452386037e-02 9.023162784376734941e-03 2.351388156706496826e-02
-7.265917830717210290e-04 -1.164075461513886314e-02 -2.420957459568739024e-03 -8.343299924454029154e-03
-6.864950291996737425e-03 -4.389758755122689753e-03 -5.572672978184318136e-03 -4.089745929532777671e-03
-2.059539384187037206e-02 -9.012852356952625460e-03 -1.688453416217870762e-02 -9.951523764749819340e-03
2.167308356694350874e-02 -8.760007756244622690e-04 1.572855030978680818e-02 2.761324653032985656e-03
-1.282679723370957169e-02 1.821033211156849324e-02 -6.304325842679180288e-03 1.127181650711174543e-02
1.114624494581512026e-02 1.009000590721683722e-02 9.705271033912100248e-03 8.894737961065077997e-03
1.399137888821736127e-02 -6.418325958610120868e-03 8.895381959567299698e-03 -2.520115738044354219e-03
-1.838638220762214490e-02 -9.459839105684817936e-03 -1.518055321932102603e-02 -9.813629497504564383e-03
-2.431980038264084168e-02 2.134858229054776430e-02 -1.469856860274800295e-02 1.226084214526404308e-02
-2.062081708500980090e-02 -1.588145768980848971e-02 -1.849564229344601018e-02 -1.534572776749720119e-02
-1.792752527307057281e-02 1.578311237022329491e-02 -1.040281980806099030e-02 8.793243343964848857e-03
-1.773055732184853706e-03 2.019455696526719496e-02 1.945869789637097707e-03 1.428693771357955437e-02
-1.159681532965852260e-02 -2.125957314256109870e-02 -1.217578297919624623e-02 -1.751563219688878278e-02
-2.837401640249873763e-02 -4.076633115637898208e-03 -2.261683410723809573e-02 -8.037007882902725414e-03
-7.377592895340493243e-03 -8.440729036236001293e-03 -6.639731610776507774e-03 -7.063143053413318932e-03
-4.625671742827706934e-03 1.882777581374723511e-03 -2.939927846740197654e-03 6.586137241082872787e-04
9.173247630469146333e-03 1.445024975138838562e-02 9.030789976794620019e-03 1.176737478446182594e-02
1.366350052318228599e-02 -2.069051813912955659e-02 6.623649694670220335e-03 -1.304206089892094578e-02
6.134033001931888350e-03 -1.203710012865573734e-02 2.379172885564784842e-03 -7.647998530902854267e-03
-3.190402809385955562e-03 2.787702347946657833e-02 1.895922623856797790e-03 2.020129897323857948e-02
-2.491393589881273768e-03 2.032940293979799626e-02 1.444871083965449093e-03 1.428137953101745079e-02
5.521163137953202620e-03 8.980638634250852348e-03 5.400634085800099307e-03 7.164256139094692284e-03
-1.911552463585746570e-02 -6.084655385253160548e-03 -1.505860617504685070e-02 -7.427910321120063941e-03
8.449414959110694220e-03 -8.437764693916981543e-03 4.582955997355992600e-03 -4.745196710872459124e-03
-7.639859961903364832e-03 -3.003695214293539487e-02 -1.056623611632161348e-02 -2.420659801254919710e-02
4.672818673476426018e-04 -5.118894438052530365e-04 2.468729499511657208e-04 -2.867018422948377642e-04
1.065312526590478370e-03 -1.048562610844679457e-02 -9.643139457738973035e-04 -7.257707015128890722e-03
7.549175726305123665e-04 -1.308521041326786384e-03 3.131882682538539146e-04 -8.089820651285410972e-04
-2.325950318971036282e-02 -8.459361696250297311e-03 -1.902594695223431415e-02 -1.015319094569955977e-02
-1.654649423968361510e-03 1.378307592805612727e-02 1.068461971676351076e-03 9.545797405652723180e-03
-1.232577947105164586e-03 1.965136494121513377e-03 -5.386245940185620121e-04 1.198609557523524095e-03
2.372019251194414438e-02 1.158610234312861670e-03 1.781192224476835922e-02 4.683857339719641778e-03
3.613820072999134742e-02 2.961176931141734723e-03 3.074195023062334386e-02 9.744190782121145422e-03
-1.263777415790469545e-02 4.442149663159694205e-04 -8.908179254283624116e-03 -1.542197852523276291e-03
2.244509661120442246e-03 -4.125046366745482342e-03 8.944396935614698854e-04 -2.572338556569572950e-03
-2.040840463308310048e-03 -2.339661458854257799e-03 -1.819016586640038969e-03 -1.939707160826836807e-03
1.742501783846830792e-03 -1.003080500391523950e-03 1.058507381899605453e-03 -4.576805187903931001e-04
-9.668915376118429952e-03 -4.696220281215884862e-03 -7.644081467043276935e-03 -4.749111278221818284e-03
8.556202737317348400e-03 -2.108122719010945695e-02 2.841627997557785723e-03 -1.399981320467680312e-02
2.491257192514562818e-02 2.108022710507488975e-02 2.394182207091780437e-02 2.113963391434850458e-02
1.547561014783014992e-02 -3.700187186309844469e-03 1.043952301673606135e-02 -3.393232985698471128e-04
-4.130717749345068530e-04 -2.592223881967968546e-03 -7.136652886908745287e-04 -1.874850603203317111e-03
1.059675932834541236e-02 1.250187641554645693e-02 9.737805976393554969e-03 1.057252806778092614e-02
1.606776622460898835e-02 -8.787758416639286987e-03 1.004616472363205337e-02 -3.919846075707605383e-03
1.334758981017505723e-02 -5.627368789017775375e-03 8.555988778686223623e-03 -2.049600552961809534e-03
1.090457898909358812e-03 -3.593865559408550986e-02 -4.156656817517400022e-03 -2.831295967934493313e-02
-1.436683276842993032e-02 -1.463780926199984532e-02 -1.304888290359186402e-02 -1.290544024805943303e-02
-3.643684348427668994e-03 -1.963713120396978588e-03 -2.885579576842760719e-03 -1.907166585100616030e-03
1.566233228312627693e-02 -2.637083544417077180e-02 7.518338264839932381e-03 -1.727776148573028497e-02
-1.592428684278446305e-02 -1.594874072558554248e-02 -1.456558466405151811e-02 -1.425642295336618758e-02
-1.420252182690606019e-02 6.355371290206935156e-03 -9.065499347473839065e-03 2.440518893176107321e-03
5.965398896598216039e-03 -1.886472641245973136e-03 3.882223653523659418e-03 -4.655262336260412707e-04
-3.120850032284592634e-03 9.661831511021975669e-03 -6.186189676969586215e-04 6.368314640624833482e-03
8.547006546878913036e-03 -1.287386327463516328e-03 5.815480465471914093e-03 3.350589084321003259e-04
1.070287434388838416e-02 7.856469455667058595e-04 7.713438505311036482e-03 2.118900755592148695e-03
7.316563478326125990e-03 -3.187083729149555594e-02 8.524747979677482854e-04 -2.308513154167461320e-02
8.911431692842898544e-03 7.803625059852997139e-04 6.423036597760408035e-03 1.844000139182995577e-03
5.314439397215427879e-03 -8.938114016494080882e-03 2.286234156991367658e-03 -5.540941393000479998e-03
6.786289839564645272e-03 -6.310343639730127754e-03 3.739153618503600601e-03 -3.476539903885349225e-03
-1.583425201920190054e-02 1.517037409903107190e-02 -8.922946108372782278e-03 8.619733723552186130e-03
-6.058141981533581803e-04 -2.548933915664695904e-02 -4.439505520813374906e-03 -1.883590861730498681e-02
3.244190962636118308e-02 -1.760111510163046844e-02 2.219542383413590503e-02 -8.179337738295456087e-03
-2.566765082073720408e-02 -7.926312609142371554e-03 -2.104682386113619630e-02 -1.035363060096776595e-02
7.656597313138830199e-03 5.698591236469108430e-03 6.366849313926861882e-03 5.148841081122232551e-03
1.714197261925351143e-02 2.493612319834522667e-02 1.760936581800788894e-02 2.203036874606677589e-02
-1.573111858350772357e-02 6.696120764891358434e-03 -1.013023637266372533e-02 2.457616626826748633e-03
2.511790890452103402e-03 -1.404266664838485154e-02 -4.913117924439567262e-04 -9.607242362886276796e-03
-1.898234069626507717e-02 2.796634853129028458e-03 -1.325067532348058602e-02 -8.714809341166641172e-04
1.960643043514051151e-02 1.865448253294384878e-02 1.827522540458297734e-02 1.733730046840080419e-02
-1.149290675346244760e-02 -5.668671150655983475e-03 -9.155964860707490466e-03 -5.739662086528493981e-03
1.213052819687659642e-02 1.251261165561319208e-02 1.089930464637350362e-02 1.086261321725613682e-02
-3.233775601499282171e-03 -1.938092657664196652e-02 -5.475607861195265665e-03 -1.445870300569655070e-02
-3.826655409826592354e-03 -8.609906012153544300e-03 -4.122159755872513258e-03 -6.632000097979054432e-03
-1.364134376666982854e-02 1.700754490438877511e-02 -7.057230690437723761e-03 1.026629750941128807e-02
-2.284418553017297793e-02 1.856791921523558847e-02 -1.382261977296606048e-02 1.027039742123407769e-02
-1.769007577849269000e-02 9.142197707423199791e-04 -1.260076290193885666e-02 -2.023119192597449146e-03
-5.809606326399278410e-03 5.285934068003502947e-03 -3.219016360099806202e-03 2.886023846967638966e-03
-1.196558153363854512e-03 1.833740279684982835e-02 2.088755338027918455e-03 1.296902085785663419e-02
2.010243934362755322e-02 2.484327876690591019e-02 2.029850132619699654e-02 2.287249566661397893e-02
-5.907263808872843976e-03 1.376254084550789826e-02 -1.958059391087599212e-03 8.927768597424544719e-03
-1.330284725691474948e-02 2.766205008206528652e-03 -9.002543514023818305e-03 7.076637693945290013e-06
9.833049271148947001e-03 -1.158431990141166670e-02 5.084425842052989891e-03 -6.812959137682315577e-03
1.174475407093195437e-02 2.860569341106879507e-02 1.372361306079267554e-02 2.388502587838491412e-02
2.273804369752438492e-02 7.435659518104977168e-03 1.834354930190119221e-02 9.238729347291063307e-03
2.604000857453925982e-02 7.693748717700432324e-03 2.132456241685892068e-02 1.026499222525863002e-02
1.829152663241433163e-02 1.999684546568659613e-02 1.745183548379385802e-02 1.809625365593603083e-02
-1.874530383687620641e-03 4.148768901249372601e-03 -6.340796429474097884e-04 2.644676530941479902e-03
-1.520494862461729694e-03 -5.387503157822365503e-03 -1.957373220410558393e-03 -4.012620462367545889e-03
-1.548238442363388846e-02 6.121643576774055129e-03 -1.003866954455027126e-02 2.084324294197506446e-03
-5.526209944091150551e-03 -1.739661736028069380e-02 -6.837789131838056464e-03 -1.334011592241597655e-02
-1.123480757393871196e-02 -1.071398893720204235e-02 -9.886710002405070877e-03 -9.369680110318138327e-03
3.894679011696606640e-03 -1.253808306249039502e-04 2.711748318931131874e-03 4.710380692916270274e-04
-1.393579168416010780e-03 -2.519182033679083846e-02 -4.992067957349143742e-03 -1.873013842866338291e-02
8.434842908444565787e-03 1.313204685922101517e-02 8.245212005283844570e-03 1.066081855942826312e-02
-1.500313074801786460e-02 -1.169837438545968597e-02 -1.295715195130525167e-02 -1.080664631987648776e-02
2.176814831104565112e-04 1.890455592654787529e-04 1.787353173025180706e-04 1.645969444822364058e-04
-3.793741175313775083e-02 -1.164008889298948947e-02 -3.696049296942697376e-02 -1.898264187414137535e-02
-4.419189722763111096e-03 -9.125916709131369486e-03 -4.632951341815375219e-03 -7.094014853266297077e-03
-2.202946994252756238e-02 -4.235990954721870379e-03 -1.704865525113366184e-02 -6.643452996279991009e-03
-1.406288981439732656e-04 6.182159883684337082e-03 9.166889984537369279e-04 4.323195657866837557e-03
-1.885635611437876981e-03 1.530010182207487864e-03 -1.073314897787286696e-03 8.023040624347696969e-04
-3.460288557957549686e-03 4.399965542448827649e-03 -1.702769349855491176e-03 2.600924150458983064e-03
5.972424128401225898e-03 2.263136162103880980e-02 8.055977000158028728e-03 1.747856499165203331e-02
3.325422986388629383e-03 -1.538498997064810872e-02 -1.163144991325077164e-04 -1.046941747495874243e-02
-1.610122591054877206e-02 2.063917012197272888e-02 -8.425514957792167026e-03 1.269503040555479238e-02
-1.036035370932771732e-02 -5.493152167667060201e-03 -8.294000337257120825e-03 -5.429020656994154939e-03
3.238843212140653932e-02 1.659669374699558955e-02 3.088134745855555807e-02 2.031368835083089894e-02
1.737635489788497134e-02 -2.377695725803865776e-02 9.045041499106454275e-03 -1.499244526435014949e-02
2.801920043791965992e-03 -4.788035704070121948e-05 1.963048488551414825e-03 3.693345929919832874e-04
3.661597623262904250e-02 -4.832679684623421984e-02 3.504355362880541558e-02 -4.744403395649295085e-02
1.062485601623778956e-03 -4.426483949859025681e-04 6.785472664166892131e-04 -1.529784326159058382e-04
7.166668651723396774e-03 -2.031707508234543297e-02 1.936397644211618587e-03 -1.360494912825763701e-02
-5.913828672663324661e-03 -1.008205604600231377e-02 -5.872289252325246789e-03 -8.022098439299194320e-03
-3.634848689588362353e-02 -4.421441200556279830e-03 -3.152473531985261479e-02 -1.113681417641174815e-02
-8.507191414815451838e-03 2.661532764610789487e-03 -5.557089654663805237e-03 6.443352636946417548e-04
-3.515332236774895724e-05 6.303975028168344250e-03 1.012189113119818561e-03 4.429673948404653713e-03
-9.512157308088582458e-04 7.982566557616121647e-03 6.361902530686436427e-04 5.485003566286092251e-03
3.556295424539714090e-02 2.059911128113150677e-02 3.760246799080255165e-02 2.670150582962789454e-02
-3.100177576407461486e-02 1.005272848416037708e-02 -2.204810815815788291e-02 2.417924545087336927e-03
2.202200477718811635e-03 5.194536873781002012e-03 2.408584775619825383e-03 3.975341831526488581e-03
1.891682727519752513e-02 3.663496788443524471e-03 1.442138043248874027e-02 5.596159023917024466e-03
3.505633210266161787e-02 6.920097582134844723e-03 3.068348864358922887e-02 1.274483502890668557e-02
3.035609858502990449e-02 -4.627403907865423188e-02 2.344145899206574041e-02 -3.991781984035490394e-02
8.651075623746198179e-03 -1.302171215175233591e-02 4.020502780366518383e-03 -8.011366578868781702e-03
-1.278233822825175330e-02 -1.209871458772391337e-03 -9.308584964314412999e-03 -2.750289700963410525e-03
-1.847269564673488865e-02 6.688636301045288932e-03 -1.219146962988047755e-02 2.039189355002672503e-03
-2.210524917190008834e-02 -2.592139424568044598e-03 -1.676796798613666706e-02 -5.422766022077666823e-03
2.410137835493799709e-03 5.910136011725451201e-03 2.671722500776577830e-03 4.507363266204451185e-03
2.601575454904223039e-02 7.888820782380576505e-03 2.136009087157015804e-02 1.041592434856835475e-02
-5.205825830329627400e-04 -3.201014272156099596e-03 -8.894736491375452572e-04 -2.322757841170140867e-03
2.359442218960576890e-03 1.074536949435337188e-02 3.433870377137514685e-03 7.943038236423007395e-03
-2.678176660857031072e-02 4.021700490098249867e-04 -2.012933002122916162e-02 -4.155707132074334779e-03
-3.261156994693403029e-03 -1.982711815932118940e-02 -5.571396945022818840e-03 -1.481143343452906956e-02
6.059297815115259091e-03 4.276343522803809083e-03 4.980877275536216113e-03 3.894698498059180093e-03
-1.915143685432209308e-02 -1.026687979290604770e-02 -1.597512992298406181e-02 -1.059042852816006672e-02
3.985916948229626701e-03 -9.373179366412465185e-03 1.276360398830266593e-03 -6.037911956097635063e-03
9.825058082496953074e-04 -4.672899256316359086e-03 -8.037816026062530859e-05 -3.145955313588302653e-03
3.570894244925073950e-03 -1.366988037149197838e-02 3.146824753919534438e-04 -9.189650240288895280e-03
-2.169334937926103296e-02 -1.698236349757838029e-03 -1.625352594457517286e-02 -4.672889528398363641e-03
2.785205900003291310e-03 1.478856340607602113e-02 4.401038282455023258e-03 1.095022469317333096e-02
-5.498117484832639595e-03 6.318554760666648257e-03 -2.830026704704272176e-03 3.662746705619509581e-03
-8.287072876631563709e-03 1.370099446754388488e-02 -3.662411947827481397e-03 8.551566279697633138e-03
-1.574432960038129464e-02 9.344909441494693436e-03 -9.714545892710965691e-03 4.374005006401003245e-03
1.257130621160315945e-02 5.087092519978240676e-03 9.844716352732180153e-03 5.501619374569361766e-03
-3.868234613785493693e-03 2.886814277047615451e-02 1.499549313017736708e-03 2.094583391222459498e-02
2.367583475815534036e-02 1.009368948165712161e-02 1.978220763716116368e-02 1.153556724983058682e-02
-7.855093424179591249e-03 -1.599211659418435863e-02 -8.320192533812562422e-03 -1.268943374529204506e-02
-1.669609700098250230e-02 -3.116845758925142901e-02 -1.868359895785613733e-02 -2.798360503801309088e-02
-1.088182253012213649e-02 1.001922601963044050e-02 -6.069918231221891995e-03 5.545321716128095817e-03
1.220375987419736880e-02 -1.008413013244602134e-02 7.012755371355391606e-03 -5.403651230229725676e-03
-2.767724680631369547e-02 -2.449683328153357334e-02 -2.813829643944415135e-02 -2.564502025247343900e-02
1.808460217291531572e-02 -3.099739467383783031e-02 9.101199646631809650e-03 -2.094893142565624686e-02
-1.187541962659812616e-03 3.148035626835208461e-02 3.788365371811400380e-03 2.373249660900494593e-02
-1.888571284247782950e-02 2.771124224177755682e-02 -9.875992965763205622e-03 1.802986384191966607e-02
5.433941574027603520e-03 -9.788982899572681862e-03 2.232611293017707117e-03 -6.131376433476874201e-03
1.207630505578642134e-02 1.302538369239090478e-02 1.095752625577313399e-02 1.123577696773710860e-02
-6.044259613344639577e-03 1.086426841439691246e-02 -2.504913677760538335e-03 6.813478096173890448e-03
-1.029015919942479450e-02 1.341117583099258118e-02 -5.137769412544959495e-03 8.073436157787607440e-03
5.658753834046474120e-03 -6.539960619023322229e-03 2.907339404398609321e-03 -3.791966637711635148e-03
1.521020164191238340e-04 1.776651517576119735e-03 4.001040157153394877e-04 1.271716929947039939e-03
1.542916063446123608e-02 -5.712458552942389044e-03 1.006723592743656581e-02 -1.800501744606601345e-03
-1.048908861083421235e-03 -9.165885953278159887e-03 -2.243790161290083567e-03 -6.614794095046544649e-03
4.976915927904005527e-03 -2.230360757843240574e-02 9.562617609609522077e-05 -1.543485373958269902e-02
-4.993824145809417497e-03 7.789549482822122339e-03 -2.240203837870257189e-03 4.771573357636713954e-03
-1.037853718268316738e-02 1.991935776652431489e-02 -4.308263285422943636e-03 1.287910410973181798e-02
-9.183999380262247020e-04 -6.494361663249222398e-04 -5.509331728690025631e-01 5.529725310721551601e-01
-1.007088571149497222e-02 1.236854297496361998e-02 -5.134284173656954511e-03 7.346019356211568561e-03
1.130339466531533714e-02 3.094164411791578903e-02 1.377992551893395499e-02 2.602516696817779723e-02
-1.734777573699619255e-02 -1.159909947410882672e-02 -1.479092961019059897e-02 -1.121643429183757402e-02
1.234756572997107102e-02 -2.326540939453235202e-02 5.355893067893482962e-03 -1.519696331616807172e-02
-1.155843735983544916e-02 2.569737910716848178e-02 -4.525560980193979455e-03 1.722808717660537225e-02
1.368182294223257642e-02 7.753430154851206034e-03 1.116926249193852562e-02 7.633351755945921337e-03
6.615539059718100398e-03 -8.493530524613872312e-03 3.269734405505347885e-03 -5.049771202931151691e-03
1.683607274263467651e-02 1.134093747007441574e-02 1.432953323733612491e-02 1.091079137770732503e-02
-2.585633486169361395e-02 -1.160655726819532878e-02 -2.215770528904640810e-02 -1.335029728412821283e-02
-2.364764073023109536e-02 -7.727168396817027558e-03 -1.919982104608201554e-02 -9.678932050979848281e-03
-6.411493401454038295e-03 -1.005972451175194543e-02 -6.228291053359412757e-03 -8.075331098624618717e-03
-1.525019588903625892e-02 -1.656039333359530727e-02 -1.414453194601854487e-02 -1.458404669626356918e-02
-6.383253601137878382e-03 2.466184995120239073e-02 -8.247143737711528548e-04 1.709532607961949599e-02
7.778300316029809237e-03 6.673633340966562922e-04 5.592816338405098668e-03 1.597569643010094895e-03
-2.681726673388423743e-02 3.109397924604980629e-02 -1.615913257556089722e-02 2.023218072926953603e-02
-1.644117984913642024e-03 -3.639269829941325918e-02 -6.363359090808543700e-03 -2.948977637365998369e-02
-8.580085361049051215e-03 -9.774280914700311795e-03 -7.751411109392848664e-03 -8.227758732614996393e-03
-1.796911675833916819e-03 -2.100627389151914215e-02 -4.674794902352031982e-03 -1.547540738054585530e-02
-1.622310780469536293e-02 1.376802014950167900e-02 -9.404935784721984993e-03 7.532537965337368809e-03
-1.034598650720662365e-02 8.460548084555411311e-03 -5.931923870809423238e-03 4.496712855450730149e-03
-3.817686984293135882e-02 4.123681331007536532e-02 -2.966835913097691860e-02 3.153127844737494551e-02
1.077104665194507892e-02 1.970325501252452247e-02 1.122627264542839717e-02 1.609725980015666927e-02
1.372131865981845479e-02 2.627830384374777242e-02 1.493516703088185356e-02 2.227460808539651060e-02
-2.788778279046533887e-02 -7.542097427244345148e-03 -2.303064102992192705e-02 -1.066687326932777222e-02
-3.821249083639537830e-02 1.011488978384692330e-03 -3.227842935680183545e-02 -7.183386039527986724e-03
-7.190716150733048213e-03 -1.633604129126061191e-02 -7.894926990435924274e-03 -1.283166085157546460e-02
3.296886549105308706e-02 1.911262606750615406e-02 3.272790336664300331e-02 2.313615370691766635e-02
2.979395031660098808e-02 -1.444317320912409837e-02 2.019738708982586270e-02 -6.085752830763384996e-03
-1.646284866298783605e-03 4.468290667100445826e-03 -4.168643618940711055e-04 2.904919736069006258e-03
3.668107200017696728e-03 1.496542028628595686e-02 5.070302030300077173e-03 1.121351186574369267e-02
-5.670421720181510056e-03 2.082292413534166456e-02 -7.854287098367452799e-04 1.420548198627774247e-02
-1.514891854213819798e-02 1.796574697605200169e-03 -1.053207720776381043e-02 -9.738750672497949483e-04
1.619400756546669502e-03 -3.292312501677719478e-04 1.085374715218806983e-03 7.846674597766935657e-06
1.798883057492409523e-02 9.016444254465108901e-03 1.477090908119687261e-02 9.397694593604930674e-03
4.171014841854426246e-03 6.684396282788768531e-03 4.049441553626214295e-03 5.316547174638734490e-03
-2.570290948446974505e-02 1.942427130292800549e-02 -1.603080594445408999e-02 1.057411751903928471e-02
1.013657885008092778e-02 1.134025838953298983e-02 9.186338692834214101e-03 9.637982191702478343e-03
-9.836376118339365190e-03 -2.717536257687864013e-02 -1.187702655630750240e-02 -2.210777417781132834e-02
-3.847931980627671694e-02 6.132441825569494688e-04 -3.275989601430274317e-02 -7.652201262167765763e-03
1.283342078221739839e-02 1.630049865449852793e-03 9.412701635438990369e-03 3.057062853197691030e-03
1.135323511353495893e-02 8.393537537421580721e-03 9.545846913652419538e-03 7.686568994002369523e-03
-7.052184996292477741e-03 -3.158383472099564587e-03 -5.499275619524999527e-03 -3.252192376627036519e-03
1.013008381385511504e-02 -2.183977773153776211e-02 3.894716781477292923e-03 -1.437182272378204409e-02
1.189939953638990966e-02 -2.012773009534490204e-02 5.388847220956704751e-03 -1.284385226065954191e-02
5.166659790729869264e-03 -1.119699073913080038e-02 1.822963323114385218e-03 -7.178911824459247894e-03
2.626541951098762193e-02 1.173110573787046950e-03 2.001043353271071343e-02 5.245374914107945284e-03
-1.375353393217152581e-02 2.226166625143545519e-02 -6.507768216698903326e-03 1.423502382967681799e-02
8.985324004512964050e-03 9.409921691117404535e-03 7.986757758014655095e-03 8.029250630404684980e-03
2.845577147337140234e-02 4.704824961012261768e-03 2.284262342380606950e-02 8.553950808920497695e-03
1.203350587919281046e-02 1.611815958597756851e-02 1.151712550038105388e-02 1.356273620535361664e-02
3.300263623576699720e-03 -4.235192890215532836e-03 1.621531268534480734e-03 -2.502525964044426121e-03
-5.244586066674781881e-03 -2.751351826306522308e-02 -8.268482293690702575e-03 -2.140036112573776711e-02
4.280779029057954466e-04 -6.335389428906905082e-03 -7.394007815902755481e-04 -4.391060672950228110e-03
1.531176261901948284e-02 3.568374482022489830e-02 1.832048376019949909e-02 3.323045383439776623e-02
5.752126219341174330e-03 -2.787546035535296181e-03 3.581381438172984242e-03 -1.137164424267607561e-03
-1.160874001595646292e-02 -3.650444703700434640e-02 -8.482605346065795471e-02 1.726685353408665968e-01
-1.875270298816524017e-02 1.043594970489144548e-02 -1.179585719622734327e-02 4.731096089247511897e-03
-4.455124421923867240e-04 1.891982539167404035e-04 7.096884094348793193e-01 7.083116192841726333e-01
-1.804484311160500440e-02 -9.564311804873581666e-03 -1.492089371686127972e-02 -9.820329198248574712e-03
-1.874368680171036722e-02 -1.037989183606773461e-03 -1.377118644400955605e-02 -3.630770537148001170e-03
-1.297550181290336828e-02 9.590669552048314631e-03 -7.650350279332691732e-03 4.941099574219998819e-03
-9.781341296868665755e-03 9.194205754658187069e-03 -5.412013564898852762e-03 5.099331836966426203e-03
3.827581902881490444e-02 -2.945641049796022051e-03 3.174082288803999757e-02 5.495933196106225598e-03
-3.432281807424282082e-03 -2.802912566771698089e-02 -6.939238822125067159e-03 -2.149123155198668852e-02
-1.813810338730069416e-02 9.558491403761894267e-03 -1.147015725556565884e-02 4.185544456374005670e-03
2.188299687167606557e-03 1.668621622923339293e-02 4.279967638492286792e-03 1.225640127804068086e-02
1.176239862635879846e-02 -4.164593891054059818e-04 8.277630909894851535e-03 1.424732422943728602e-03
-2.496323904319927220e-02 1.869516356250438757e-02 -1.552258584665148350e-02 1.009778706330792357e-02
-9.956283373396915617e-03 -1.237883995334691963e-02 -9.243998356854001008e-03 -1.037140049030739301e-02
1.160854621815561767e-02 -1.512725516772630468e-03 7.977201287640935112e-03 6.264819472534720801e-04
-1.473051044834286331e-02 5.159233403118225481e-03 -9.648600494806747890e-03 1.503429238212911122e-03
-6.789719669210911995e-03 -7.646660550092197924e-03 -6.077262260050903496e-03 -6.403600213629831450e-03
-2.143863051464759556e-02 -3.679142230015184571e-04 -1.577843095171152857e-02 -3.637385580093853953e-03
3.544922862753529906e-03 -5.230174100167930135e-03 1.635616186800739266e-03 -3.165373565165271325e-03
-5.423886758834666269e-03 -1.597561828761464436e-02 -6.525571764603710183e-03 -1.225986703817582776e-02
3.447650863743422726e-03 2.680103608929871803e-02 6.780768230891571872e-03 2.044395109155006107e-02
-9.520769134510449760e-03 -1.170931557041197425e-02 -8.790825928652420962e-03 -9.799031389182763854e-03
3.878544705497192612e-03 -4.558595619696280757e-03 1.973077224173697998e-03 -2.650598269792155300e-03
-2.332750690406885583e-02 -1.063713067437763345e-02 -1.959627347231803970e-02 -1.187343223917535981e-02
5.700312427483366327e-03 -2.319288273993044130e-02 5.092530046556674374e-04 -1.602227083287431283e-02
-2.034786493560889961e-02 2.802689533569297994e-02 -1.099313438270534300e-02 1.813955623784694118e-02
-1.650376307582771679e-02 7.334934409982073449e-04 -1.172654781538305657e-02 -1.955929549920201304e-03
7.989081051457555538e-03 -3.052043276829250872e-03 5.120495707006251368e-03 -9.989619001598989100e-04
-1.759331616275331550e-02 -2.199118760671842088e-02 -1.731167019609428440e-02 -1.958377888944144718e-02
-1.226302732983659653e-02 -1.152917175663781962e-02 -1.081126557360279593e-02 -1.015248918100261286e-02
-2.942961064161930991e-03 -2.038968230819619698e-02 -5.423502659074913752e-03 -1.519024846305523473e-02
6.945970352303004573e-03 2.368725329205174576e-02 8.979475276518440741e-03 1.852385192021102633e-02
1.739049155744731498e-02 -1.782318033562287768e-02 9.733482309506729171e-03 -1.039440922072750254e-02
-1.149228656018126508e-02 -3.196295854250420440e-03 -8.713251611627342505e-03 -3.968753071136947239e-03
2.520542439519102978e-02 -3.073712845675545188e-02 1.482276349469657112e-02 -2.003953567823999263e-02
-2.776344717756126790e-02 -2.289910396646819418e-02 -2.764140358677914452e-02 -2.407535548901850939e-02
2.588716652655273509e-02 9.903003844310993148e-03 2.173855641726005553e-02 1.198268300624531942e-02
1.191326734835472132e-03 -8.644679202848606567e-03 -5.824634590732130071e-04 -5.922160405071499011e-03
-6.285257074214305531e-03 -2.173229311648053677e-02 -8.136625775102665839e-03 -1.682126507387411360e-02
-3.465234800982426415e-03 3.267431695745183148e-03 -1.889635865541751955e-03 1.802647890942604735e-03
-1.501405664459148220e-03 2.998797303157761662e-02 3.401423427713620370e-03 2.231801897690890296e-02
3.882023363837893478e-03 -7.599890057013225508e-03 1.487926785240055796e-03 -4.790113602600581770e-03
-2.805357168192284742e-02 -5.190110735862514535e-03 -2.257805445398704605e-02 -8.825691402732295521e-03
3.022048941138107125e-02 7.992631881608815506e-04 -3.148200594703338684e-01 3.046581703979754363e-01
1.572378587340581002e-02 1.152719377814642385e-02 1.348343256714877418e-02 1.082486446603562330e-02
-1.295792782433777203e-04 8.829570714814945209e-03 1.355157600751525195e-03 6.209999772781332750e-03
2.694870952981790260e-02 -4.465522812169448429e-03 1.943277215532889651e-02 1.084244305444895555e-03
-1.226132492277873069e-02 9.734274369880719160e-03 -7.108732583231107925e-03 5.147963760379767155e-03
1.267226684204726499e-03 4.662426479301894945e-03 1.654964404548343263e-03 3.460465456633964824e-03
1.460712036936478997e-02 7.234337335267989125e-03 1.177249877698858908e-02 7.417585000143314157e-03
8.292517140499785751e-04 -2.859370879547603553e-03 1.127077588847523243e-04 -1.890952496778785857e-03
2.977416106355336344e-05 3.284177087392373823e-02 4.854120476883830131e-03 2.526404634548368514e-02
-3.434843842803677032e-03 4.069724299765738185e-02 1.861497285458247903e-03 3.474469303095931161e-02
8.793966929144280895e-03 -1.939186048672691606e-02 3.229496827199671277e-03 -1.268644679138475687e-02
-2.505857198090065407e-03 -1.905793280636712203e-02 -4.890460355721167052e-03 -1.409322114733981175e-02
8.573354569587023424e-03 2.245738869460744969e-02 1.002657382932621057e-02 1.785069726546430202e-02
-1.584690370095177131e-02 -2.857222002539663505e-02 -1.729386049555798471e-02 -2.502593241273953772e-02
5.319451992536416117e-04 -1.493726656085413163e-02 -2.043706380775475989e-03 -1.054787534112940940e-02
9.080474869400282506e-03 -1.437327297424384649e-02 4.129413319683090944e-03 -8.931419789267827647e-03
6.388966635925722934e-03 -1.016016384322944097e-02 2.855715093334423079e-03 -6.269545967832945363e-03
-8.632541490664112725e-04 -6.051578702346470211e-03 -1.601841225286748140e-03 -4.384854047690484903e-03
-2.863775703433521762e-03 5.204578612928799364e-03 -1.153428043014630665e-03 3.245559821848387379e-03
-1.483934479867617812e-02 3.192799927218051542e-03 -1.005499332314123417e-02 7.716038206517364720e-05
3.807465157318244003e-02 1.370129167780440721e-02 3.831852419514357455e-02 2.128213488252011371e-02
5.281704596628602338e-03 7.613413911662231248e-04 3.834001478090574150e-03 1.294911499437663470e-03
-2.903142963285295329e-03 -2.578861035752290365e-02 -6.216780985370086617e-03 -1.948974621523550874e-02
-9.434752157900566996e-03 -5.609737497177620311e-03 -7.638339399599798629e-03 -5.368916647763414575e-03
-3.272495030916018274e-03 -1.408260253038999717e-02 -4.636760140070195213e-03 -1.050902296412364358e-02
-7.876393024068053736e-03 -2.234975498283111976e-03 -5.930555341935398080e-03 -2.717981038040902849e-03
-3.216887018258761995e-03 1.250744514026412048e-02 -2.437794038708390189e-04 8.392799864490225331e-03
7.555859045517057844e-03 -1.484371356662542336e-02 2.972311978738800559e-03 -9.486360065997134078e-03
3.899135601582208281e-03 -5.656369638916934617e-03 1.805849095121087218e-03 -3.422334863082136542e-03
1.321928016755437828e-02 1.001045223178981432e-02 1.125424962385008880e-02 9.208714076928950845e-03
1.548297437957798367e-02 -2.933671356901287192e-02 7.170426607712805135e-03 -1.978840472892269206e-02
-8.822505737840078549e-03 -7.815167580656515959e-04 -6.362084254447136593e-03 -1.835252049410606356e-03
-8.132420748889802181e-03 -4.298402819828207704e-03 -6.468886497346892049e-03 -4.222293288176400504e-03
8.430865002955645338e-03 1.642894004485980376e-03 6.231464424759518284e-03 2.382447838493464108e-03
1.130118896898144737e-02 -1.498737663495679044e-02 5.638767731493608999e-03 -9.085893084815981763e-03
-2.364453110703431966e-03 8.578385821351943927e-03 -2.578217912706133597e-04 5.704456447658621220e-03
1.845737406193601743e-02 -3.860008386791213483e-03 1.266200569946120992e-02 1.329753697918604967e-05
-8.197696420358054764e-03 -4.437760771147681096e-03 -6.534186969386864170e-03 -4.328318553657418792e-03
-8.297268775215750972e-03 1.886704165696674249e-02 -2.951859892097368019e-03 1.235739335699916237e-02
1.635873057492175792e-02 2.720727426297425700e-02 1.744041680330775390e-02 2.387558361151435882e-02
-1.286678739198731866e-02 -2.132861826854441905e-03 -9.534958779579197699e-03 -3.427756501610024903e-03
9.219715585991607523e-03 8.341228969505964236e-03 7.969165754178938327e-03 7.295752439605601020e-03
-1.379579472172312929e-02 -8.414463151118026576e-03 -1.138505386608089191e-02 -8.140304651768471775e-03
-5.867145902900634293e-03 2.157306765782183999e-02 -8.313094049531152222e-04 1.474574510675650922e-02
1.668054621842487636e-02 1.851730702788835850e-02 1.574004384983511418e-02 1.646917407975996908e-02
1.342455121913578228e-02 1.216380988334596520e-02 1.182549312455110843e-02 1.084564998483429632e-02
2.965284029032819765e-04 8.326865577414495692e-03 1.575003511206820098e-03 5.913047487330578937e-03
-1.275586740393379152e-02 4.075747408884439552e-03 -8.378637481387611607e-03 1.028820040726168700e-03
-9.109496279703543226e-03 -8.037284483277153113e-03 -7.827841912627532886e-03 -7.054958635002826425e-03
4.747622182900836790e-03 4.298554802719365374e-03 4.053102807306062545e-03 3.713875157861915542e-03
-2.741456769939792926e-02 1.724230359338247949e-03 -2.041162709337633607e-02 -3.281914990959137156e-03
1.604055050833209234e-02 -3.046246389723067383e-02 7.538740066952572330e-03 -2.070052723667567540e-02
1.889976652512396008e-02 -4.186332368924856016e-03 1.294100339719295341e-02 -1.482284931235661283e-04
1.429466310347189163e-02 1.033792290512368546e-02 1.213727847944322605e-02 9.648843153505613432e-03
-8.656135931701001637e-04 1.536326678732790815e-02 1.872865829810587031e-03 1.080924175599013055e-02
6.516660166637256585e-03 3.258847729115479236e-02 1.001694227897048824e-02 2.644717805905751756e-02
-6.438850898196730836e-03 8.359930236334254042e-03 -3.170117314522297169e-03 4.974088348102486713e-03
-1.799995138943533092e-03 4.681945301360818969e-03 -4.943937175768632532e-04 3.034292440545235774e-03
1.314230764015773302e-02 -3.013825989307899675e-02 5.348762833699432367e-03 -2.075728138192527855e-02
1.574712905452043538e-02 3.152909239679343306e-02 1.786597818284311329e-02 2.803932165279155592e-02
-3.361849229943979309e-03 2.884762529051691782e-02 1.876360568827618132e-03 2.100621196853226860e-02
1.492519210877086243e-02 5.480733125899226376e-04 1.077824480139761426e-02 2.623752605587215386e-03
-2.689422121661817419e-02 -1.828052288807699433e-02 -2.511709767875599381e-02 -1.937839858424545564e-02
6.013294712232703128e-03 2.854662715864865474e-02 9.038689289078666311e-03 2.247849198983434965e-02
-3.569920772387474156e-02 -1.595728524102512161e-02 -3.535938498824587467e-02 -2.174941667650993199e-02
-3.193852958338742193e-03 -2.807957082721671341e-02 -6.759803073497216118e-03 -2.148539927862343907e-02
3.111304532594854136e-02 -1.073863712697048327e-02 2.201976024581870500e-02 -2.936231338652955155e-03
-4.863887388116126809e-03 -1.658709411576726658e-03 -3.694943786512679216e-03 -1.871339017757227404e-03
2.495378964530428970e-02 -3.229612190792979093e-02 1.458747538906958463e-02 -2.149174003490242346e-02
1.539723272707283451e-02 6.865639692045386912e-03 1.230402856771767653e-02 7.294117300379972767e-03
1.171622919488079541e-02 1.242783837738350126e-02 1.056564132453700032e-02 1.071685414513086528e-02
-3.678834976409715851e-02 2.603576703488430164e-02 -2.587535895254324328e-02 1.479329440362135879e-02
1.164159082650188630e-02 8.783675627118701923e-03 9.830151657383351393e-03 8.026069581318568194e-03
1.106890517590666204e-03 -2.226835787561340504e-04 7.437978375529516158e-04 1.645421226978281840e-06
-3.323421769977099888e-03 -4.763405359139634768e-03 -3.122248202330028810e-03 -3.833090465300761831e-03
1.537030587417983346e-02 2.266639867786324550e-03 1.142521774956858915e-02 3.943233480564948927e-03
1.334561664950385113e-02 2.599432523068589962e-02 1.455636740879437917e-02 2.192576386116985507e-02
9.037605459673258429e-03 9.776695899367063639e-03 8.088486329227416796e-03 8.300326396254970041e-03
1.699543134494123711e-02 -1.895865166692810647e-02 9.291002817756801105e-03 -1.130361928561404543e-02
-1.535196802169129168e-02 -8.732153113699460747e-03 -1.263372549174574672e-02 -8.657544213853307982e-03
-1.069220919164644290e-02 8.527830199616219520e-03 -6.167567327038394297e-03 4.503976068193784633e-03
-1.664248421528930627e-02 -9.105361727516213255e-03 -1.371519558192996723e-02 -9.188534738724244907e-03
-4.022877298611249666e-03 -1.401048021930155658e-02 -5.169001871248433098e-03 -1.057106575581849041e-02
1.765644939166130089e-03 -2.076700129107321782e-02 -2.032676947781258611e-03 -1.472866408181234578e-02
1.526820236106317917e-02 9.784561071145211897e-03 1.278032459830108318e-02 9.429489192207238940e-03
-8.387055644777430263e-03 7.789636917632827319e-03 -4.643376541601604117e-03 4.295538094185958299e-03
-2.236365420786195699e-02 -1.338055196569773626e-02 -1.941134651185191448e-02 -1.379627042620403150e-02
-3.797270421420675252e-02 -3.361527566848349080e-03 -3.341678773851165796e-02 -1.099504219482482989e-02
-1.283948034132526179e-02 -2.375812315547451078e-02 -1.367438065535836987e-02 -1.986517966476165561e-02
1.675920411577019875e-02 -1.430466993835454066e-02 9.723817784887180474e-03 -7.856104884767888333e-03
5.000071711148805671e-03 1.767053830635533646e-02 6.492509366301464462e-03 1.345508275833811641e-02
-1.733982205145432991e-03 -2.363232633494249078e-03 -1.603769322645835944e-03 -1.904981437726616707e-03
-2.309363271613589993e-02 -4.228578451256746577e-03 -1.793501799784458922e-02 -6.865042705108709287e-03
-3.362899345677113159e-03 1.963023708653164473e-02 7.193650822857173242e-04 1.362692702716190515e-02
4.028052044879697029e-03 2.275499231669973754e-02 6.601827471753728312e-03 1.722771080123429444e-02
7.611802637157645199e-03 -1.336659790215171013e-02 3.233737401698547672e-03 -8.401066844314662024e-03
-1.389219627477428437e-03 -7.920943470292583256e-04 -1.102958660053317578e-03 -7.549035987910747945e-04
-1.306328657191454948e-03 2.425927767947183913e-02 2.858284995892259716e-03 1.753094015908031322e-02
-1.468844006881279106e-02 2.336221626537144519e-02 -7.081221307480808566e-03 1.498098279201369280e-02
-1.920917640319285899e-02 -1.865928658670261983e-03 -1.429706027786242090e-02 -4.324655869872468493e-03
-2.173169631322264747e-02 1.481943147229598974e-02 -1.345257259014832028e-02 7.561482503486143848e-03
6.870633680516057690e-03 1.247185853868682491e-02 6.976224890288190879e-03 9.905617190533131181e-03
-6.688824884644641727e-03 2.026714446718835133e-02 -1.601025276335110671e-03 1.363160738104280886e-02
5.610517283733968373e-03 1.160667169523036182e-02 5.909455856056604166e-03 9.067042037375292948e-03
5.949587573083258037e-03 2.295279283057264849e-02 8.093579847654479645e-03 1.774132253326163311e-02
-5.611177301694082221e-03 -1.724489454441245975e-02 -6.878674307938630744e-03 -1.323959864071747559e-02
1.124474150738919570e-02 -5.068084133992255269e-03 7.120139487980495577e-03 -1.952984156695166014e-03
5.230461707858889177e-03 -5.360543176548591450e-03 2.794941811332384528e-03 -3.022173612097618211e-03
4.785698708443378302e-03 -1.725109843690749052e-03 3.077904921886262437e-03 -5.281980598256855435e-04
4.411106757417126989e-03 3.157648700897422445e-02 8.183900758575295489e-03 2.494195802811562460e-02
-7.896265245696547277e-04 1.851997403836933009e-02 2.406445700771073660e-03 1.316850495151775102e-02
-3.180974204211733242e-02 -1.398639321833919195e-02 -2.917042560063096840e-02 -1.758798750934435773e-02
1.224171118178024251e-02 -1.588008915368375323e-02 6.197122648733563617e-03 -9.615268479429258178e-03
-8.797357780669930183e-03 1.222316650880001486e-02 -4.246595961157915121e-03 7.414516676033383255e-03
3.504061057640975915e-03 1.360671128606355355e-02 4.726757064404658523e-03 1.019007633230440552e-02
-8.424157516783008573e-03 -5.216025030887464463e-03 -6.837851818494230551e-03 -4.923477811462521198e-03
-2.795624763151840792e-03 1.775256065806796527e-02 8.508758854559900654e-04 1.229797059754205238e-02
-1.334442027246677490e-03 -8.821831079650661531e-03 -2.389079814146898451e-03 -6.415875304524702900e-03
1.465649333180922553e-02 -1.523906482193959980e-02 8.051399687600655983e-03 -8.820144578637410804e-03
-1.451877529702658327e-02 2.744452111177021411e-02 -6.569536202595906149e-03 1.829818072530683959e-02
-9.433729348261943662e-03 2.607232895020155858e-02 -2.916055114952400325e-03 1.781111226628383920e-02
2.688276215668723018e-02 5.782517175638812019e-05 2.030455538010772498e-02 4.524288314038691326e-03
1.335346943214771537e-03 1.552937810184574705e-02 3.478753085015161371e-03 1.127205293312667431e-02
5.317378457024831383e-03 2.423701122094845326e-02 7.819414800290363718e-03 1.866519682334073088e-02
-1.677234038100208768e-02 -1.077345861524095505e-02 -1.415605505874329220e-02 -1.046875149599876299e-02
2.255899295369443239e-02 1.022692410913140712e-02 1.883778772637083668e-02 1.135592622546127521e-02
2.445304265915615189e-03 1.695551388730920372e-02 4.515169113981057532e-03 1.250573269700808871e-02
2.626374843316728411e-03 3.050507457804364450e-04 1.889824621711826353e-03 5.895716127903914520e-04
1.661648197710899333e-02 -7.161905935126560915e-03 1.071326538363020359e-02 -2.664158335953625400e-03
-2.274151241590801134e-02 5.947693829516500184e-03 -1.565157758243789637e-02 8.049752381633436303e-04
-5.022235114407171130e-03 8.013417723542418797e-03 -2.224224542517594556e-03 4.931222906772436514e-03
1.512926725130201919e-02 1.361215838086444509e-02 1.344159308830313905e-02 1.227884627812873310e-02
-2.288910209374248397e-02 7.044397603315263184e-03 -1.556627965724554155e-02 1.596103876097420280e-03
-2.442522130035540417e-02 -1.600382193480050230e-02 -2.198454626637663667e-02 -1.654400625223499677e-02
5.282037423383680388e-03 1.355538903370896850e-03 3.936073128626419414e-03 1.712398202406086641e-03
4.078690401340518920e-04 3.238539858512869823e-02 5.111649076723200937e-03 2.490081441494866252e-02
-2.337431144976063677e-02 9.246110258699704113e-03 -1.558204046691753775e-02 3.156721324512615917e-03
1.608988306783326952e-02 1.034009342333058745e-02 1.352814114677680993e-02 1.000208739273026649e-02
-1.787906742915563660e-02 -8.435471354390546581e-04 -1.306419262852867059e-02 -3.337195166499390062e-03
-8.769858257010133828e-03 1.023524101113575113e-02 -4.529150977726781498e-03 5.990691914499426084e-03
1.165617835833356389e-02 -5.619299502927324261e-03 7.323439968339793930e-03 -2.295344761034664484e-03
-1.634647356810905615e-03 -1.443724482312089448e-02 -3.515583860711916746e-03 -1.050654674944342254e-02
8.205755879729669661e-03 -1.235252399957249315e-02 3.803494705960628643e-03 -7.587539016210164203e-03
5.618220259219796828e-03 -1.060192678388941628e-02 2.238340971868511570e-03 -6.688610484075668654e-03
-7.352244377134420882e-03 6.713073037759664276e-03 -4.075057233946738702e-03 3.676300370534677561e-03
-1.021071661353868155e-02 1.540032081730913563e-02 -4.793312721281335967e-03 9.536972395818616929e-03
-1.704938812532669559e-02 -3.363163031690357546e-03 -1.290723198154074269e-02 -5.029761620932474489e-03
-1.563610576252942932e-02 1.468835780081100776e-03 -1.094481764896751939e-02 -1.282589255452020642e-03
1.798667568297044944e-03 -2.663201860667963050e-02 -2.790333045001903555e-03 -1.938356236377665812e-02
1.402671036530640444e-02 -8.433627554229253601e-03 8.596117007044391453e-03 -3.964173224277374105e-03
-9.514400945069013613e-03 5.771071965154636781e-03 -5.766773334406914697e-03 2.698955282021747813e-03
-6.523615489680660573e-03 2.937996889176168469e-03 -4.103444028193788812e-03 1.132793498908210529e-03
8.240628760394615171e-03 2.558488784891007478e-02 1.031447670419921060e-02 2.036751773525771053e-02
-1.331998366795791042e-03 -9.693850442803454009e-03 -2.530526020451809906e-03 -7.036502482550348672e-03
-7.453462185023130605e-03 3.309414680547267951e-03 -4.695007637952487017e-03 1.260909787512394867e-03
-2.094333705241361102e-02 8.152771567531195279e-03 -1.384544460092091041e-02 2.727445498317720637e-03
-3.082341116031104764e-02 -3.206017083375546292e-03 -2.478915146431600117e-02 -8.036962809732029617e-03
-3.068827551439212969e-03 -2.807049118913423208e-03 -2.616568479782642540e-03 -2.411767754827128310e-03
9.858421816069532287e-03 1.151529803241123449e-04 6.992170710238419969e-03 1.520953123933573925e-03
-4.861389564930141544e-03 -1.016917889362244781e-02 -5.127059382241953150e-03 -7.915609058764488601e-03
-7.027125829154872751e-03 -6.348726419375816041e-03 -6.027677617686249753e-03 -5.511875347716165170e-03
2.113842784789561613e-02 -3.460541145643641165e-04 1.539669198670452072e-02 3.047076207812385480e-03
-7.849201256592682960e-03 2.419655593311450387e-02 -1.954113888210195441e-03 1.651954029107441727e-02
-1.318098021113404180e-03 -1.001216880922288673e-02 -2.571270963472333665e-03 -7.264603173755727374e-03
-2.571641781805245486e-03 -1.484531508679659551e-02 -4.263902823179051803e-03 -1.095914134277749426e-02
7.037245556432678711e-03 9.504217649329453621e-03 6.578637718276567591e-03 7.773154524170697299e-03
8.875151944002700188e-03 -3.317416727372066339e-03 5.708257847528936356e-03 -1.056905930996731658e-03
3.408568002102263517e-02 1.602807162281759401e-02 3.294763990603473414e-02 2.073377022001159434e-02
1.138383842762871051e-02 -2.582108011517481039e-02 4.375137217090908047e-03 -1.735541551523997125e-02
-2.009088754261500673e-02 1.204923220403060144e-02 -1.257009902679610304e-02 5.734734835324648873e-03
1.225070966595835902e-03 -1.346379805552618686e-02 -1.325313475382978480e-03 -9.380153203379412719e-03
-1.616108462896614917e-02 3.451591636385151120e-03 -1.099475110439041003e-02 6.091011552566329975e-05
-1.204274167600860243e-02 1.275021185994626438e-02 -6.499508692216277549e-03 7.352306824375540346e-03
1.416574304102475625e-02 2.510291327815436166e-02 1.506855821703139038e-02 2.135296503002661120e-02
2.435657347861666308e-02 7.784468932377856462e-03 1.983574907759950295e-02 9.899551696818421898e-03
-2.296236145550249481e-03 -1.547017067614725981e-02 -4.161607111400734450e-03 -1.137164374074276126e-02
-1.688819799731424223e-02 2.099042151438366283e-02 -8.973675111335016261e-03 1.287051803381247805e-02
-3.770260702230022066e-03 -1.727677723286381167e-02 -5.531420770485745951e-03 -1.295463217129355291e-02
2.783643711659720445e-03 3.254396836847866376e-02 6.998840407409546299e-03 2.554531544041507493e-02
2.519243703204556914e-02 2.383538796026155038e-02 2.510946278048469330e-02 2.383704775114244001e-02
1.318257295856227647e-02 -2.940967023411183209e-03 8.879354902020767867e-03 -1.531746675364016239e-04
-5.595188333530495828e-03 -1.943266268817278684e-03 -4.257344603752470473e-03 -2.178743184196817000e-03
-5.857797855963113413e-03 7.135669427210304325e-03 -2.947485473443936087e-03 4.192455525384870471e-03
1.965515937987648634e-02 2.670170549224563754e-03 1.480399548052881500e-02 4.998691251081297665e-03
2.267346521376125204e-02 1.761508048320032608e-04 1.674114689624740457e-02 3.728980337143671716e-03
1.343556619481362999e-02 9.637730326499503383e-03 1.134661497361634866e-02 8.970459465320112374e-03
-1.713982182789404018e-03 1.659081213662377471e-02 1.452220298563420241e-03 1.159273134742921235e-02
3.892340556278035997e-03 -7.661473551701441717e-03 1.484646536865505450e-03 -4.834603123238128720e-03
1.812863382687221123e-02 1.139686269858451034e-02 1.537974258375958414e-02 1.122757918324680283e-02
1.139493141999563947e-02 -3.229977401209951308e-03 7.529903478192040769e-03 -6.277825766975274205e-04
1.334434740320401824e-02 -6.146660656155420767e-03 8.462069039247092569e-03 -2.416983232404649930e-03
-6.342493666571319237e-03 -8.495018324748698432e-03 -5.906275608320629873e-03 -6.946894954617652621e-03
3.780415816224283010e-04 -2.790428345749672127e-03 -1.928939882315360162e-04 -1.898886873427869547e-03
-2.470487400777705150e-02 2.889806294451385468e-02 -1.443612221965140212e-02 1.845551843703246986e-02
-8.098231953334604841e-03 -1.837400848873995893e-02 -8.933544129498734512e-03 -1.454415366765813948e-02
3.457250936017930518e-04 -6.774335417560863742e-03 -8.726361463890604719e-04 -4.716851042093874596e-03
-1.835307017602095386e-02 -5.457537868584463187e-03 -1.433157054315775322e-02 -6.816703803503426466e-03
1.597433035380092098e-02 -2.249040340247686690e-02 8.122677028591124282e-03 -1.414613272986284948e-02
-4.115751724109259491e-03 -2.868208963294215097e-02 -7.561313429716299064e-03 -2.220495359464852436e-02
-2.359406044535628313e-02 -1.635622519790144030e-02 -2.130322544153536238e-02 -1.658167901253160617e-02
5.645901577739397166e-03 -3.556287283019590826e-03 3.384041318476881111e-03 -1.696119140316833945e-03
-3.781354194347730300e-04 -6.255940108415083099e-03 -1.290951971370427921e-03 -4.452071089189728673e-03
1.153904574577822471e-03 5.221395972534946008e-03 1.670813508190102789e-03 3.837036594022877160e-03
2.617030818065338785e-02 -2.348739977784270599e-02 1.600831855786205224e-02 -1.377407187354990487e-02
-1.230126638551832033e-02 -2.519197733264446487e-02 -1.351946926018816192e-02 -2.095965953014297667e-02
1.144021370585680819e-02 1.121928709800836151e-02 1.013515090873166533e-02 9.777271596835645714e-03
-1.188822321205395931e-02 -1.663715008515045946e-02 -1.151084800500842484e-02 -1.393684128541461398e-02
2.048590088955943786e-02 1.251880152408788548e-02 1.758593278544274760e-02 1.263794439484436198e-02
-2.160598309625962575e-03 -2.095435925401038443e-02 -4.933717323239479244e-03 -1.548849892396421749e-02
1.818823096842268547e-02 7.398256764696235777e-03 1.458884288640596022e-02 8.220480101157763217e-03
-1.235080143100619082e-04 2.462371223006130146e-03 3.196328632953541267e-04 1.704541155483066048e-03
1.715495657157088227e-04 -3.198755015438685227e-03 -4.046369431654770268e-04 -2.218475150615989867e-03
-1.762737605864225093e-02 1.996021829849562237e-02 -9.641469883988241715e-03 1.199240867661027082e-02
-2.446075615681578448e-03 5.308699976993501782e-03 -8.462074114260660380e-04 3.379107355617110529e-03
-1.268668995761489983e-02 8.603448361673203190e-03 -7.592666506626184232e-03 4.274199187749137645e-03
-3.070843729390802107e-02 4.893092053808552333e-02 -3.141069094577385312e-02 5.430068226204332743e-02
1.371396330493663933e-02 -3.517384737824073154e-02 5.648231594128163419e-03 -2.538846052068344239e-02
1.430272582849410543e-02 4.986321806976599415e-03 1.111840808656656618e-02 5.729860211189887441e-03
4.928446176439383458e-03 5.619915482734192530e-03 4.404635023222934487e-03 4.671100941322736851e-03
1.046366254568661253e-02 -1.059693875606383152e-02 5.683543279543350375e-03 -6.012377318780524720e-03
3.437831492391978344e-04 1.392080739711025819e-02 2.513367019946113629e-03 9.939810497532498151e-03
5.367599971974545796e-03 6.012034196230362122e-03 4.781251029927907625e-03 5.021061960291071762e-03
-2.245069659920491748e-02 4.193583768892447834e-03 -1.572724005589449733e-02 -4.418554161787363339e-04
-1.644777188971223089e-02 -8.853434693315991727e-03 -1.351422467870849568e-02 -8.963405535799742058e-03
3.614411481015140926e-02 -1.051189945992761152e-02 2.723163820909848404e-02 -1.629446587743953656e-03
-2.631965830842775481e-02 -1.494290868428449319e-02 -2.352994402810200045e-02 -1.627156560937177004e-02
-3.717028889985634710e-04 4.098023634126930076e-02 3.785471303420598430e-03 3.823525294016136278e-02
-1.904949530374145175e-03 -1.901798777589486233e-02 -4.444357268102265557e-03 -1.396261614788033185e-02
-8.791032615934276945e-05 2.994748671163085813e-03 4.275158726913216617e-04 2.087300706343407641e-03
1.869277654637389527e-02 1.479641427467934657e-04 1.357255364530018243e-02 2.976992482801046457e-03
-2.132966440409914469e-02 -1.997011732113264902e-03 -1.601239343780387278e-02 -4.826401754462787512e-03
-9.347252196389986209e-03 1.008540518219777681e-03 -6.429833452250314704e-03 -6.429101932424032082e-04
-2.117961518329544018e-02 -1.307926545716773907e-02 -1.831716803996735754e-02 -1.325615548900071876e-02
1.996261140905029627e-06 2.269696998227338502e-02 3.596591736317509679e-03 1.649757019237128169e-02
-3.256112007747074405e-02 1.241864827820034559e-02 -2.310797019499083796e-02 3.989240506739977037e-03
1.480356891352324622e-02 -9.846806954956442964e-04 1.041553925760785836e-02 1.501453099804117911e-03
3.092451854626890816e-04 3.592397419607886735e-04 1.568101065071776601e+00 1.564213582671603930e+00
9.629489980233139207e-03 -1.711751372753238937e-02 4.136720889306476530e-03 -1.087244391610549428e-02
4.962608776884504073e-03 -2.824953553482921226e-03 3.017586010644488382e-03 -1.275453998415232611e-03
9.639659382320465292e-03 1.883993146793737014e-02 1.019237532639122659e-02 1.519567889796644318e-02
2.347523331956181958e-02 -1.636890897608341000e-02 1.460254271043399596e-02 -8.503554654024874163e-03
6.474176395419728967e-03 -8.194139428448233078e-03 3.220872552920508048e-03 -4.854211160977011871e-03
-3.610569235766149330e-03 -7.675462161629843273e-03 -3.814019306748933202e-03 -5.936049020210638384e-03
-3.191661610846861959e-03 1.384901402592783951e-02 -1.630387350975817434e-05 9.366141657863362446e-03
-5.239424888254751340e-03 -2.669042787279931814e-02 -8.145512067621993660e-03 -2.069119383179462979e-02
-5.464285243723652520e-03 1.095622474620595692e-02 -2.077345000769345931e-03 6.962522141735379144e-03
3.647041634953520056e-03 -2.016043176338694343e-02 -5.829467915054306268e-04 -1.397964561473321286e-02
-2.655981256616509259e-04 -1.234462582921944454e-02 -2.207372601348150942e-03 -8.784557604741489653e-03
-7.477176966456420626e-04 -1.979814402495115935e-02 -3.721570615445823644e-03 -1.437468860085313639e-02
-1.123684648945084442e-02 8.717299106884457416e-03 -6.525034488021608237e-03 4.564646662013464341e-03
-7.583682691576425910e-03 2.292113613856113993e-02 -1.909991648379154175e-03 1.555236795863770664e-02
-7.144518131256189820e-03 7.583920739310398562e-03 -3.792918812853066264e-03 4.325685703365915978e-03
-1.100649486249762055e-02 1.956743526393084701e-02 -4.819356421598312151e-03 1.252369520451438768e-02
-1.308383645197070885e-02 1.006001985557388595e-02 -7.660080110643011780e-03 5.262749532387538294e-03
7.705781638377493317e-03 -2.485418130184781707e-02 1.774008144557464835e-03 -1.706258432907132097e-02
-1.321693608451440446e-02 -1.878202255910141425e-03 -9.745584604571812595e-03 -3.304488248480202950e-03
-2.005829778925049059e-02 -6.611072841848707887e-03 -1.592709843262838515e-02 -8.015294207671049692e-03
-1.169482856257607860e-02 2.459568945202394736e-03 -7.878705732014133073e-03 3.470342916632014688e-05
2.521463698027509581e-02 -1.121381462996136292e-03 1.861388433306065959e-02 3.272427358624206348e-03
-1.976058402832958291e-02 -1.333297379568701337e-03 -1.462637878695232860e-02 -4.036818852569236740e-03
1.095388606081414314e-02 1.498832884267657130e-02 1.047429328942720006e-02 1.249611627064973855e-02
1.357957385820246846e-02 7.307484495375046046e-03 1.100654241929792561e-02 7.283278834218126670e-03
2.295674247317438035e-02 -2.363102401787406034e-02 1.337347338698600605e-02 -1.423998432443698836e-02
-2.378937919848613664e-02 1.289112806250181618e-02 -1.535972864947890426e-02 5.817374880614299519e-03
-4.195341889763976040e-02 -5.116945294092288196e-03 -4.216238644288751447e-02 -1.600963765993597063e-02
-1.429681359181559632e-03 5.107056054336032644e-03 -1.570689646899155775e-04 3.384391518863887668e-03
-4.752975322564479028e-03 1.019021811184922695e-02 -1.688866422622833452e-03 6.520338200326755707e-03
-1.431303783841428659e-02 1.249027462691405278e-02 -8.192181876345062258e-03 6.854243736592743712e-03
2.581374246140901232e-02 7.374465075344664722e-03 2.104234313159127068e-02 9.953241553864122793e-03
3.394753888644971331e-03 -1.390445623837515375e-02 1.508177340651834517e-04 -9.383960210675027988e-03
-1.327216285069433843e-02 -1.916591154377511944e-02 -1.309461967027372546e-02 -1.620130561746110920e-02
-1.594554020898723834e-02 -2.677740021643156693e-02 -1.697786146912117974e-02 -2.335600586784852828e-02
4.947630174656427078e-03 4.581164423434084219e-03 4.244686045254527675e-03 3.938352648406462202e-03
5.711105264375774919e-03 -2.934599776269651225e-02 -1.662275761082765283e-04 -2.107414346395498558e-02
2.121322118787207205e-03 8.015244144956346767e-03 2.814980442987244889e-03 5.959994165379720911e-03
-1.036257353846760376e-02 1.328849587912951831e-02 -5.211394884236260003e-03 7.968056219623530570e-03
-3.082086403633528884e-02 2.166068438591590983e-02 -2.023423473105341250e-02 1.172211649599863049e-02
-3.458582090476357285e-02 -2.251919854920743716e-02 -3.699700927142691997e-02 -2.807482460311256853e-02
5.316344392920605314e-04 1.003570700131920131e-02 2.016080096188217936e-03 7.157503078439416376e-03
8.785556308314387830e-03 1.375705088127249925e-02 8.618101280448389745e-03 1.118070679852689250e-02
-1.658961653304974124e-02 -7.122231141437288665e-04 -1.206254967181305884e-02 -3.020289552759905342e-03
-2.923501130040952189e-02 4.854505101233224512e-02 -3.036621337381097824e-02 5.529011027410749013e-02
-4.591156833867007445e-03 5.299723884694091530e-03 -2.356133395950055567e-03 3.071411506624643298e-03
1.698136802469666848e-02 -3.418130081194670905e-03 1.161738718348134108e-02 1.001531838602576680e-04
1.330992538983263168e-02 -1.307723326572397642e-02 7.371376777821000113e-03 -7.416838033730951442e-03
1.032001842244654501e-02 -1.541391814162583820e-02 4.875467340095232874e-03 -9.525374165721488262e-03
-2.943779005354110159e-04 -4.234291953469034898e-03 -9.064176833900967553e-04 -3.012283630889009151e-03
-1.628903825270216349e-02 -1.490113340686343053e-02 -1.464228174212595969e-02 -1.352508669839540961e-02
-2.822591633777118275e-02 2.097563638444828807e-02 -1.798133888573734754e-02 1.149039917878801227e-02
8.254129126350050888e-03 1.097910358536468081e-02 7.726818112818974529e-03 9.046156988515352548e-03
1.966827583863206899e-03 1.034453036889626532e-02 3.087574512975055710e-03 7.594311867927665792e-03
1.381623041495034891e-02 -2.475702576029173776e-03 9.421754199937666316e-03 2.803838233136830599e-04
1.627629873846485635e-03 4.631528005730608903e-03 1.901091943487364343e-03 3.487730898543390818e-03
1.031335857282937585e-02 4.816318518153501864e-03 8.136600047738395611e-03 4.936519541266890139e-03
3.129331272874886355e-02 -6.091259359717741614e-03 2.307690459255242257e-02 7.548896944748947077e-04
2.302810600416508799e-02 -1.762014691672827288e-02 1.409008916354930786e-02 -9.523439859693599158e-03
2.061115731080311389e-02 4.142430490217497568e-03 1.586585633152734834e-02 6.281341258031856480e-03
-4.292121729093369316e-03 -8.785725137020989478e-03 -4.485632536670826516e-03 -6.835388249992660654e-03
-1.148733593603350547e-02 2.087961207272842276e-02 -4.999672203843372881e-03 1.345942573980632613e-02
-6.500380932206700768e-03 2.170678083639910813e-02 -1.275958179739228489e-03 1.476002590625816180e-02
-1.896744196612563807e-03 -3.705253767960280369e-03 -1.946008669894553613e-03 -2.874819352877843945e-03
-1.455601343520676778e-02 1.612998197440133549e-02 -7.852731736702154089e-03 9.495351420392827285e-03
7.802611159378766790e-04 2.201082698682479966e-02 4.072182747239255426e-03 1.608676681729867206e-02
