-1.037118805455416667e-02 -5.822209683631472676e-02 -4.083991895920710546e-02 -1.613245846134561332e-02
1.546677383302434879e-02 -3.512352558553855780e-02 1.111701969531850819e-02 7.532491123930755081e-03
-1.941148016422807043e-02 -1.790597444807543251e-02 -7.019322459658357966e-03 -7.418791055534867604e-03
3.397418090796664163e-03 -2.872343420249265367e-03 1.370923174766680921e-02 3.896314127213006302e-03
-2.553131721547131916e-02 3.534584761949492032e-02 -4.514517141945938172e-02 -6.963946462605882792e-03
-3.363942904764579550e-02 5.998800244693174022e-02 -5.065821923017195527e-03 -7.835904143970409685e-03
-4.608167454864325885e-02 -2.021336465183871597e-02 1.926268736774593843e-02 -1.982112382738757464e-02
-2.988238726206474127e-02 2.083524522492669062e-02 -3.085275271773091008e-02 -4.279500972690029534e-03
-3.350770428337436491e-02 -1.391850612012460013e-02 -2.943458131072354197e-02 -1.548458212972951206e-02
2.869869137651651081e-02 -5.393050250133698403e-02 3.890741579783342508e-02 5.108432373251873410e-03
-1.941491804869446489e-02 -3.054132724518897769e-03 -4.788152968436112239e-02 -4.629404183590042632e-03
-4.155340824036041214e-03 -1.754486657886389356e-02 -5.584163908474073373e-02 -5.851700930666233792e-03
1.018529444727789106e-02 -7.203083670498297564e-02 -5.449717843979614423e-02 -1.068480741777841359e-02
2.603556142402749241e-02 2.577877348712632240e-03 -9.188590986910250306e-04 1.019129766651073569e-02
-3.245607113974274122e-02 -2.904255997330702777e-02 1.373694838775385563e-02 -1.689602323133372955e-02
-8.758569626006389858e-03 2.936841434108157858e-02 -2.038465544633195903e-02 1.813250125411624203e-03
-2.544922845244473528e-02 7.240315288453499573e-03 -3.001384284843795075e-02 -8.726674489863773046e-03
-2.325985460215622067e-02 4.628880097211898748e-02 -5.128341694746314794e-02 -2.532397072042190823e-03
-6.167990251101499594e-02 2.327656459367002939e-02 -8.572742341974802158e-03 -2.086738692147769095e-02
6.284863266175017699e-03 -3.316097829588767615e-02 1.435770305500675206e-02 -1.665476792729500685e-03
1.863825627961035111e-02 -3.549940313898108241e-02 -3.318347851995363113e-02 -2.529668088009922808e-03
3.294814772147368342e-02 -3.624547235056643779e-02 1.547923048593736507e-02 8.630036089999994220e-03
-2.185547971764579059e-02 9.224210171750983275e-03 -2.744327434959619935e-02 -8.534732295863071624e-03
1.219587298983827728e-02 3.705422287973838408e-02 4.668369760926630030e-02 1.410061959165227231e-02
3.239938750082642371e-02 -6.409476958542137046e-03 6.507315826160567362e-02 1.134705927001810992e-02
4.189552839457880845e-03 1.314791615136650521e-02 6.084780881718974965e-02 3.736557239644605101e-03
9.880181132164909258e-03 -1.301606697521198730e-02 3.918599974977295813e-02 -6.785516218661932428e-03
-2.967815931152681039e-02 2.029170114930804389e-02 -1.069236970908164427e-02 -5.637216881775110842e-03
-1.666495033280049679e-02 4.148636405932202426e-02 -2.430361479549089307e-02 1.814476540410821974e-03
4.161178613695466766e-02 -7.508499553625334888e-02 5.338647012177542145e-02 1.658750622076873849e-02
-4.533590428825629709e-02 5.849558834198481660e-02 4.332560375522972324e-02 -7.540515096783147707e-03
-6.353785115171257762e-03 -4.650715111053801976e-02 4.160433762518234851e-02 -9.181251919991010105e-03
4.860007101852859002e-03 6.295172827359334089e-02 6.679472875469767701e-02 1.626350157805003110e-02
1.911906739961162158e-02 -5.713619021017644732e-03 1.990616513308934507e-02 -1.353407029265225490e-03
-2.622968656176084216e-03 -3.595817923277417043e-03 4.952454524035038858e-02 1.272298576600056595e-02
-2.788303097193216284e-02 -2.823067101640006418e-02 -5.245550015817395523e-02 -1.854977427674993351e-02
7.597099025539983709e-03 6.293090143506634843e-03 2.512214655525537785e-02 3.951481412642255178e-03
-1.575540163807223702e-03 6.673676715299068155e-03 -3.235933976900666476e-02 -1.734124942807322312e-03
-4.862166228865803796e-02 3.133764211534736249e-02 6.552310755479131936e-03 -6.918527621991719251e-03
-1.143210494825473971e-03 -1.814414136172826097e-02 -3.824310039189415117e-02 5.035431161367776715e-03
2.881199932756504586e-02 4.680211239938275938e-03 1.990447048183626930e-02 7.799792382147373478e-03
3.316121140408178486e-02 -5.671306594540487939e-02 2.282930483289765874e-02 3.006957115436911972e-03
-4.199017511709769723e-02 9.614736768361916222e-03 -7.073889060735930046e-03 -1.166691394895541696e-02
3.942017932164262883e-02 -2.103304262759496043e-02 -2.496420938496700034e-02 8.767577742632185270e-03
-1.715852604308889737e-02 3.310243841626862860e-02 2.916609940960284905e-02 -1.089646670915233109e-02
2.506548428769654960e-02 -3.332852422377634294e-02 7.267625309085020378e-03 8.759236349811779041e-04
3.118493427760163361e-02 8.204516104349458133e-03 -1.600909793832936551e-02 1.855829355513168369e-02
-8.511543543798712544e-03 -2.111038005378459634e-02 -2.514531106774819946e-02 -1.142747389699875007e-02
4.257125838679512940e-04 -2.141728261658896321e-02 -5.251335918423850890e-02 -2.374893961659392625e-03
-4.875879981564835292e-02 4.157585290332345418e-02 -6.661665183745694649e-03 -9.997323151906996330e-03
-3.650075701773969339e-02 9.339388583619372131e-03 -2.531928974852341169e-02 -1.935469281188742854e-02
2.797460825795278910e-02 1.254523146770753633e-02 1.207482843803073767e-02 1.302702698277517085e-02
-5.413403859321543402e-03 -9.329690824391046605e-03 -2.197094648242377268e-02 -4.801824345197172605e-03
-5.542023184937515910e-03 4.524750390463694490e-03 4.710728474285406225e-02 -6.342730003894687940e-03
1.717224591320839697e-02 -5.684739714363973989e-02 -4.438696971625209764e-02 -4.610841333488413171e-03
7.076608426262628350e-03 -4.788624356632724399e-02 -3.795694902270669701e-03 -1.394470722627785125e-02
-3.742242057537013573e-03 4.472926831451280033e-02 2.573871997015239263e-02 7.750027286560255170e-03
1.611102640444576559e-02 -3.658223814868036272e-02 2.509336934724930301e-03 -1.743150924634714535e-02
-1.770341492068972520e-03 1.883864551237348153e-02 1.124107775983421501e-02 1.862199664972954234e-03
3.224867605120465552e-02 -1.106240229808551877e-02 5.302866831667532414e-03 9.587831614374752245e-03
-1.875725314104723790e-02 2.750109030045503125e-02 -2.158555674301161978e-02 -2.986344152123700073e-04
-3.171670444843073533e-02 4.846539683665867376e-02 3.681942463264546023e-02 -1.079870301866099527e-03
-1.804965943704746334e-02 3.882034563946763772e-02 2.541166834553862733e-02 -7.321354856453953950e-04
1.597359738166861942e-02 -6.969535033531698044e-03 9.325902387298291157e-03 8.747953517532427656e-03
-1.279935431704905258e-02 2.341054115241391828e-02 3.298070989872244063e-02 -8.257101713522282038e-04
1.035999050531477561e-02 -1.744758925748789505e-02 -3.225025548519327295e-02 1.557611023304402223e-03
3.965343763888488568e-03 -1.434615987152067229e-02 3.105970130657529499e-02 2.521343208092663543e-04
2.637643613779314111e-03 -6.004443641191003003e-03 -5.541338334575139982e-04 -8.211630201611152613e-04
2.501166798398338220e-02 -2.837333954439767020e-02 -4.567158202357508856e-02 1.001987946127092140e-02
2.001482802280599854e-02 -1.875334435567225025e-02 9.028791777398556540e-03 4.421900325562494374e-04
1.761713519173787462e-02 -4.710494446979662450e-04 6.128030931038848383e-02 4.102525218592664898e-03
2.816703637595987554e-03 -3.461447724025255163e-02 -2.255060719027689523e-02 -3.715555505684614134e-03
-4.488661025955540534e-02 2.157001485859671996e-02 1.842720253976507308e-02 -1.100453902263034967e-02
4.404314247638958096e-02 -1.697725205078877767e-02 -1.033091183168118217e-02 1.284548379901404545e-02
2.143813874158581947e-02 1.825797272757040401e-02 3.378585849449396161e-02 1.312207559871804430e-02
-7.390967391341519976e-03 -1.385409989201442232e-02 2.916119406218436322e-02 -9.010835298871422427e-03
4.527109638611233333e-02 8.033228662104036424e-03 5.690693055260177824e-02 1.800495347826109455e-02
-6.440445427742358397e-03 1.701855655227828279e-02 1.213513378235557376e-02 -3.476571781259514706e-05
3.123036278418465581e-02 -6.374156002050990200e-03 -1.306583875646332230e-02 9.025072647404061219e-03
3.619680169973643613e-02 2.979001792198382806e-02 3.847568780587055925e-02 1.944179188562235316e-02
-3.886187433408568731e-03 2.928954115861489432e-02 -2.399763229865003317e-02 1.120916248030112954e-03
1.631960602303537955e-02 -4.082180982307226369e-02 -1.578462826709768618e-02 3.909967127803426132e-03
3.304470613070761148e-02 -4.244640055621352187e-02 3.765494716382527390e-02 7.491831993893654021e-03
-2.523801973537712767e-02 3.697956168586463005e-02 3.368556113853385381e-02 -4.561540184804814026e-03
-3.813264905167180335e-02 3.031434732184814379e-02 -5.256149596049979056e-02 -1.044012263192564509e-02
3.802125406778615602e-02 -2.448367836394613889e-02 5.097124211058445126e-02 1.007383058916771525e-02
-1.373491744681854324e-02 -1.742858148881113248e-02 -4.862518736773243505e-02 -9.998682848439180079e-03
2.056828748209171484e-02 -3.448775099360319729e-02 1.497362099474642758e-02 2.049877000029775437e-02
1.095324347582302300e-02 2.972292726202369582e-03 1.657515143912696026e-02 2.221225880250802219e-03
4.230282667249564421e-02 -4.138572778135563707e-02 2.503444555745590328e-02 8.761419880910588723e-03
4.045310185107737176e-03 -3.300426609982606840e-02 -2.438824271705512456e-02 -1.336503850774491478e-02
4.603381885220732272e-02 -2.070748728143888967e-02 -3.684730926039123111e-02 2.405422123321418124e-02
-3.850642296574119470e-03 -3.060162712748258976e-02 -3.731946256588013905e-02 -7.707265722723453602e-03
1.217784584367554747e-02 -1.485467290979223566e-02 -2.854759940443959976e-02 -3.260476647316524167e-03
4.480513329228005305e-03 1.040718048028309480e-02 3.908318866411892439e-02 7.448112840328598161e-03
-1.591604007493213624e-02 -1.964936669761105717e-02 -6.520040627190325233e-02 -8.339640661825084914e-03
-1.914588543847895591e-02 6.985163148742784545e-02 2.644494943999049080e-02 9.446569086306701515e-03
8.477342452879475798e-03 -5.130888956852633701e-03 -5.070230229736928662e-02 1.608260770408539075e-03
2.890905353055967311e-02 -6.535813356645979455e-02 3.643671347607406463e-02 -4.245964646252335141e-03
2.271288992350738861e-02 -5.418345861764757576e-02 5.691825299096028509e-03 -3.890334272478385082e-04
-9.322019643173747733e-03 -5.032143765639690569e-02 1.694889492842246992e-02 -1.131976011263078480e-02
1.603629097303503268e-02 1.013268809493237006e-02 3.091913067836114110e-02 9.644563665778933814e-03
4.857488500721453967e-02 -6.380653852517834991e-03 7.011878645688936207e-02 9.524301208535219249e-03
-3.430912673430432797e-02 4.148080074779334631e-02 2.642117954171563712e-02 -4.289216300649122994e-03
4.942686116600629453e-02 -9.818851394741904062e-03 -2.729496481501424154e-02 1.420922350083669849e-02
1.178714942749543686e-02 1.848663266840755437e-02 6.794277441787775242e-03 7.496036516180425852e-03
-3.266592759261193867e-03 -1.566163034166219784e-02 -1.264931070650113102e-03 -1.753736594027274776e-02
3.234290227742608534e-03 4.002841953938780784e-02 -1.559032498831546855e-02 1.135112948661132735e-02
3.812676695652000847e-02 -2.980958298955210545e-03 1.632867524808102877e-03 1.233435096745415065e-02
6.013259256778590717e-02 -1.448009561922450512e-02 4.976890299726336592e-02 2.124009563065809222e-02
-2.327033193989268061e-04 4.694202889232173756e-03 -3.569137999771227615e-02 -1.490719180268211888e-02
-3.937236763264295031e-02 3.404056131093132626e-02 -3.656766560749891148e-02 -1.347575985670380200e-02
2.616988212353429585e-02 2.306670532004867144e-02 -2.183780473876935357e-02 1.294603360366387151e-02
8.072129053122031883e-03 2.876521932392826428e-02 3.313918857905003013e-02 8.270886551785164298e-03
-5.631314411893940247e-02 4.932378634206163043e-02 1.348804271747014449e-02 -1.447628769398204458e-02
3.246137529941576366e-02 -4.675446431613280995e-02 -3.425154249790163252e-02 1.689490424688891998e-03
6.735454003187618666e-04 -2.654575137286098105e-02 -1.041415646473457107e-02 -7.955700222033861360e-03
6.375082492571423898e-02 -4.593126376679960293e-02 4.975666881706045791e-02 9.843821533313609415e-03
1.146828290780073194e-02 4.138006804042336506e-02 -7.138472540479175177e-03 1.209420764963105993e-02
-6.519331639950774748e-02 1.944077299219734017e-02 -4.106502228286353084e-02 -2.474147819712452581e-02
-2.783384184810144477e-02 2.929226080369369545e-02 -3.970144009287134533e-03 -1.102391054781660766e-02
-5.519638593573714114e-02 3.716940975961007670e-02 -2.833341786876650975e-02 -1.552806169616747882e-02
-6.639472213813042299e-05 -4.150223566000576375e-02 -1.468157058231023097e-02 -6.585128339565974286e-03
-1.361665238912505849e-02 -1.603188129614870408e-02 -2.665829611005220839e-02 -7.095115682465901429e-03
-1.062665306486192465e-02 2.652107350320245804e-02 -4.555324359450575733e-02 6.487797696211649971e-03
3.511639790078193574e-02 -2.749486957263912873e-02 -1.489798467427641375e-03 1.019920997826785289e-02
-1.422285052252505143e-02 8.123559407372221708e-03 -3.463516081675539759e-02 -4.595756651768448560e-03
6.705438870216779042e-04 3.671285623051478292e-02 -1.360844416264809544e-02 5.678719716424886037e-03
-2.219744595867277279e-02 -6.381337263363106443e-03 -1.008541741794605207e-02 -1.186781534406950757e-02
-3.479841072446237388e-02 2.075443652724376711e-02 2.306524362135339498e-02 -7.084731910805412355e-03
-1.049497206069327677e-02 -1.013753939206760851e-02 -4.095078887841211573e-02 -8.947556559685829539e-03
2.095909973421132208e-02 4.460616901150164793e-02 7.189227553882138189e-02 1.500632201713986667e-02
8.960639176127459249e-03 -1.379671021255734868e-02 -6.219297632866503493e-03 -3.793526287161339602e-03
-2.616738140301988133e-02 2.525676660051047809e-02 1.492031585329847872e-02 -4.304987587002353545e-03
4.515415587378276974e-02 -1.907514903255141947e-02 6.015467269430169878e-02 1.462795307552364546e-02
-3.823446989314026323e-02 7.513645023160536209e-03 3.823944950594435760e-02 -1.405156445095936957e-02
6.707519022376330631e-02 -2.656963130231532536e-02 5.938236861088268953e-02 2.225644288395622200e-02
3.201365397871018970e-04 5.241869591348324864e-02 1.713920181266081338e-02 9.845789861946140087e-03
6.115653580564699154e-02 -5.536642824839943522e-02 -1.375946042254332265e-02 1.189964619033415626e-02
3.732453131852803141e-02 -2.326122024577292197e-02 2.611341502332174217e-03 1.026817451496235371e-02
-1.142398916654113403e-02 -4.636772280116651518e-02 -3.074412871464187250e-02 -1.473242232104581342e-02
-2.064461160262446096e-02 -8.240244304096778008e-03 4.824404289819107967e-03 -7.325300957645972805e-03
3.595812593912143303e-03 -2.477989343157973798e-02 2.431035890797963832e-03 -1.292630550592233259e-02
-1.484710688963400589e-02 1.203718616574385100e-02 -5.248725872675098769e-02 -9.678292202196490251e-03
-3.595894864102401611e-02 3.294062515012997905e-02 -4.168733958072996099e-02 -1.188153555579815959e-02
-9.271706833411918688e-03 -8.164374650547810350e-03 -3.024051514313743846e-02 -8.291768841561146866e-03
-9.661373339244057334e-03 2.702128582975069429e-02 -4.483965614862664428e-02 7.679558101679217520e-04
7.880042204205076756e-03 2.277111263952910636e-02 1.818687383251718637e-02 1.493864499068194712e-02
2.843581958944227384e-02 -5.534688058307329211e-02 2.915306130906220386e-02 1.792485895300605699e-03
-3.244171813370539531e-02 6.197314210448873380e-03 2.804936357501253835e-02 -1.077806383417075770e-02
-5.900931188450064466e-03 1.303896009345736125e-03 9.420006161186789476e-03 -1.063633719680009970e-02
4.034440156162429764e-02 -1.704680084251388936e-02 -1.236179675203139330e-02 1.064633584761654796e-02
3.344551890904287617e-02 -1.121059661292364660e-04 4.344550610069985996e-02 1.358924316358566149e-02
-1.593455179940752101e-02 -1.872753943849719480e-02 -1.911012372545808913e-02 -1.317660169890721468e-02
-3.241713806519266883e-02 -4.251829935836083652e-02 -5.970368873705316631e-02 -2.100295575097332196e-02
2.759530272775148271e-02 -1.579394367371773564e-02 -4.647458812505724304e-03 3.996730606882594079e-03
-3.286813022231310777e-02 5.527115464904737950e-03 -5.475220037400526513e-02 -1.115897927912016044e-02
1.032767535894008222e-02 3.320856952206193563e-02 1.420230448871430406e-02 1.122924948225459581e-02
-1.413553816425939386e-02 -1.996926148771155547e-03 2.809470629115717530e-02 1.425753270942677585e-02
2.373191462931835069e-02 5.975875288187357942e-02 5.025706340947665857e-02 2.233962967381321330e-02
-2.017834889428497466e-02 3.656319840163264195e-02 -3.335899191360592979e-03 -6.682026289841877693e-04
-1.396433446103701251e-02 -2.732878047458369569e-02 -6.554802691071291709e-02 -1.214401263859441957e-02
-6.267877672908057224e-03 -2.227722299600086182e-03 -3.516244379522130703e-02 -3.011349788110192528e-03
-4.245374372605694238e-03 6.894391324875657340e-03 -4.593075929489485315e-02 2.533030939397704832e-04
-3.794177626363766376e-02 6.436949535419317359e-03 -5.562407715432495653e-02 -1.342566669793443697e-02
-4.754639816039504807e-02 1.252772968666833811e-02 -5.379313486919269638e-02 -8.924175094778623654e-03
-4.447215262665808050e-02 3.481006998828368310e-02 -4.168098893974447189e-02 -7.595184010315010614e-03
1.051688280579468789e-02 3.574455073559220167e-03 -4.104690386025250382e-02 -1.773009428410874029e-04
3.552055199490136358e-03 -1.148511437118086148e-02 2.543504528468072332e-02 9.758161032007683618e-04
-2.659010121305723558e-03 -2.091169205504148088e-02 2.280653065702905810e-02 -4.397319744205937554e-03
-2.396402450214563107e-02 -1.056367934904742754e-02 -1.544240286818323454e-02 -1.060994106008759409e-02
3.268165328482822846e-02 -2.667734381444602024e-02 -2.574835440448943608e-02 5.156663354688326151e-03
-1.615963472921246730e-02 -1.203913390004730105e-02 -3.641344100843960790e-02 -1.057361362576564497e-02
-2.740113641228226343e-02 7.736939492531012472e-03 -5.269839851608749959e-02 -1.093049428745533624e-02
2.059389926350716979e-02 1.360882845799130103e-02 5.435260133468181043e-02 1.114307370141991854e-02
3.375408707580672407e-02 4.479380685139845025e-02 6.367061037212184971e-02 2.286062509112620281e-02
2.327267403281583352e-02 -3.633464394728973344e-03 6.128875609027739646e-02 7.686001214761138157e-03
8.814336170578196406e-03 -5.185114312418898780e-02 -6.072821796634087638e-02 -6.383472797125128335e-03
-2.764530476487086705e-02 1.710903973595842564e-02 -3.859458775859248448e-03 -8.478409032033989295e-03
1.576576481746356714e-02 -4.018717254941923250e-02 -4.768479607877381191e-03 -5.677681077516663621e-03
9.641254412421963044e-03 2.463196990979712314e-02 1.028140983173413375e-04 9.355145571893470555e-03
-2.560336855335214670e-02 -2.850252200660193056e-03 -3.244523575936759940e-02 -8.139342389474526346e-03
3.668132165042015114e-02 -2.275381351504346394e-02 2.138201149291905911e-02 5.544233529212221762e-03
6.964947602742106204e-03 1.701994245114661283e-02 -2.073952997027174797e-02 -1.155923598932722882e-02
2.908967720343278926e-02 -5.453325010329516942e-02 2.692468991968882674e-02 -1.172202815291727368e-03
6.708513108725856593e-03 3.169545674873311403e-02 3.747709302784838631e-02 1.656218938460355880e-02
-1.692826010968842077e-03 -1.282166131557926914e-02 -1.588903807134444193e-02 -1.642722322478076119e-02
3.145597995296638139e-02 2.945439956935991168e-03 5.195577582708678886e-03 1.366204425689175952e-02
-1.862272809624429537e-02 5.794988791724854649e-02 2.366892235540085307e-02 4.865665256695614338e-03
3.543641961143461500e-02 -3.368474577299717526e-02 -3.581635206787751186e-02 6.245345326535661594e-03
1.545017580106483428e-02 -1.788423767562487884e-03 4.460247800194572232e-02 7.365957693345020520e-03
-3.121352662709885387e-02 -4.006123127370642134e-02 -2.326955494569501320e-02 -2.212445060145209336e-02
4.855636683353820732e-02 -3.576985739085139504e-02 4.982797006947266917e-05 1.191381706131591604e-02
-2.872017881006455869e-03 3.170681100864661088e-03 -1.562591261472490514e-02 -3.291803003650400124e-03
2.341653141209982039e-02 2.749251530273461724e-03 -4.385480489972915299e-03 1.652864170552572481e-02
2.746554038892163457e-02 7.299242928734566739e-03 4.439500477374809517e-02 1.702148969631489886e-02
-2.151705921569238306e-03 -3.079071523241750166e-02 7.421527969417268493e-03 -1.402787551324128669e-02
-2.829648171264113540e-02 -1.425636011082793454e-02 -1.005555105240764184e-02 -1.396684593570134136e-02
4.192849654051470504e-02 -4.665668584756452186e-02 4.077827089263475618e-02 7.376545859454367027e-03
3.374550131215218324e-02 4.097312667688426252e-02 6.400939724334456238e-02 2.449408793874059340e-02
2.657367446462411548e-02 4.082851533468346422e-02 4.844635141320801502e-02 2.156803090834344752e-02
-1.536014048688439824e-03 -1.023860475868857691e-03 -1.500486810138388846e-02 3.263146481624246316e-03
6.204298911612741302e-02 -4.403593665322924622e-02 -1.812173315829722440e-03 1.422568836333893902e-02
-1.453944902048477346e-03 1.222901661300162222e-02 4.531124261442934231e-02 1.104650495749418156e-02
-3.285883787462144656e-02 6.109407902842929616e-03 -3.041175489760131884e-02 -1.389499557044760435e-02
-8.194138354504927266e-03 4.071360446746533079e-02 -3.641239658502611748e-02 1.984396346543588780e-03
-5.987383086386631123e-03 -5.539219145644719115e-03 -4.990299973270406232e-03 -4.431875540328089613e-03
3.273049747003665966e-02 2.941343652631657132e-02 6.586042190326601986e-02 2.057593281408807984e-02
2.919985164239760969e-02 1.279365029466080980e-02 4.533835989241851577e-02 1.127555506270117372e-02
2.485842977426760969e-02 -4.684831297491125895e-03 4.865643202455228328e-02 1.957182202493664910e-02
-1.229539400853499678e-02 -2.150624675120996719e-03 1.486064698711560446e-02 -3.776088178125449214e-03
-1.226613514950421896e-02 3.119307509042431800e-02 1.057337106265706685e-02 1.678468002850798391e-02
-5.597943218994282794e-02 4.345903756893233078e-02 3.850656887679497660e-03 -1.220530456355239587e-02
-3.112887019663319529e-02 -2.694700866780642967e-02 -5.029307217828487414e-02 -1.818767514317263384e-02
-5.667038362008855468e-02 5.755753967372053553e-02 1.437959023199433285e-02 -1.250397334528887544e-02
-4.688663260680660250e-03 4.908243221980240767e-02 2.769465967614392898e-02 7.763237928190359731e-03
3.342957582941371523e-03 6.791226584221133310e-03 -4.038365746938823303e-02 -1.374145456543642875e-02
5.215167726335695475e-02 4.554450937305866420e-02 2.558674940837333059e-02 3.174585245490319646e-02
4.217588499331809127e-02 2.688300170373925796e-02 -1.306019600312170216e-02 2.025658100087587496e-02
-6.328399769357197224e-02 1.774901572749882153e-02 -6.998094022868008024e-02 -2.301729035823778940e-02
-3.571785687825401734e-02 -2.368914409879794777e-02 4.124095211548609399e-04 -1.554321193497129605e-02
-1.086151024853071223e-04 -1.318529597745779144e-02 1.433524156157237788e-03 -2.033522087629682003e-03
-1.189442410631202235e-02 -4.987715982506796264e-02 1.215266716400876731e-02 -1.176457561017110048e-02
1.095537604357113559e-02 2.194914323814303996e-03 3.701733694289237320e-02 1.430287645935647556e-02
-1.764526188948096347e-02 1.571498997621360860e-02 2.740354463131428747e-02 -1.850139764792993035e-03
3.014884751100154955e-02 -1.746260504075256015e-02 -1.649893052892995038e-03 1.328701273229215829e-02
-1.888010406575910821e-02 4.740945240416457457e-02 -2.620557465353765686e-02 1.778358663092029159e-04
5.352329492561049007e-02 -1.825239653127056980e-02 5.370965950559824370e-02 2.126682308457731110e-02
-3.325019417083415352e-03 1.003404669811865796e-02 -4.161721917539807497e-02 -1.607011072795498782e-03
3.478045495353646738e-02 2.365555827049095616e-02 3.978482926659369923e-02 1.777041963441108527e-02
-2.033718880869920392e-02 -2.904926939269693309e-02 1.911732173494930936e-02 -1.190166172537615238e-02
2.913636667399132837e-02 -2.626819294575099065e-02 -1.009485120323688062e-02 8.288528124240066887e-04
-1.513681481560289616e-02 1.934187253818624511e-02 1.842252391208647894e-02 9.042943719301825903e-03
1.772307367980016646e-02 -4.027689560646022932e-02 2.113163100971681210e-02 -1.435926520885622308e-03
-2.979974420094523221e-02 3.206230365068467314e-02 -8.210563121695005351e-03 -3.328925341578397451e-03
-2.418531544574212613e-02 4.415678036994690608e-02 -3.676810443309308507e-02 -1.740120256495385643e-03
-1.385553402426414546e-02 -2.784758029463251308e-02 -6.247998500734744387e-02 -1.040796513515862380e-02
5.861612361815256127e-03 2.644948323448449712e-03 3.730188758312862063e-02 3.781244518356147513e-03
1.692969056872986469e-03 1.762112103177299396e-02 -2.572656609648621417e-02 -2.699447912178408546e-03
-2.773105070913647018e-03 -3.126885928975222956e-03 -5.831026021385779003e-03 -5.279431583909358593e-03
-3.997037859791354591e-02 1.649453664733996090e-03 -6.500083407586700057e-02 -1.600981768651542347e-02
1.309382158708585243e-02 1.150083430152899072e-02 -3.836471353237275866e-02 6.249717527477224345e-04
-9.670222440431511593e-03 1.806172764878810622e-02 -1.363045745544097347e-02 -2.339354984614331018e-04
7.343995113567043653e-03 -6.408468175822651380e-02 -5.745813380209687654e-02 -9.681157624829862460e-03
5.646020872306242028e-02 -2.057417802815402971e-02 3.788351022207899627e-02 1.897650287884761894e-02
-9.646692893308594311e-04 1.414269795816811698e-02 -1.336301155324573975e-03 7.482011576445037754e-03
-1.009183154601503776e-02 8.257178338182439084e-03 4.527760613656386240e-02 -1.021948047646498332e-02
1.753514138537120919e-04 -2.202067143739641977e-02 -4.492972847940569087e-02 -4.372787083375710357e-03
-1.847542984979135992e-03 4.305064155784733837e-02 6.596894622803975428e-02 8.143569062006151757e-03
3.079857409258217674e-02 -2.049938944320884096e-02 2.537508121436101924e-02 6.188464209902685802e-03
-4.924483803661345444e-02 2.328936992774168283e-02 -1.103400146434716650e-02 -1.511567821699072965e-02
3.634793493207541526e-02 -4.772094417838666780e-02 -5.197237052309025551e-03 1.341134740570617580e-02
-5.308819507022635026e-03 -7.977941357092054823e-05 9.153223363295642095e-03 -1.985829410318696274e-03
2.687700129501820190e-02 1.761321623657738714e-02 1.766767814475115467e-02 1.542565053710841586e-02
-1.154661934576542079e-02 3.745471294741851975e-02 3.867467597192237455e-02 4.973674624329195958e-03
5.920529365601185506e-02 -3.554429162149014276e-02 -1.229951888363155742e-02 1.309111139301528601e-02
1.946770555687647730e-02 -6.974656347244791166e-04 3.956692929285316601e-02 3.879414819133088048e-03
7.354086938941248666e-03 3.706493433456938685e-02 4.715811744516438392e-02 9.775327869415742846e-03
-3.961550395854946359e-03 -2.754569180843181257e-03 2.890534891383886307e-02 5.228347179919777370e-04
-8.847667283100194360e-03 -4.118334110607755477e-02 -5.177634743664334682e-02 -1.333235757778021904e-02
-9.206387507879314896e-03 -3.890344088784987182e-03 -4.063115517358652229e-02 -1.036251868540315896e-02
-1.898975397127973530e-03 1.320770823440975232e-02 -3.183515679805114240e-02 1.210089930034413154e-02
1.088235530963988298e-02 1.025236656021444141e-02 -2.046785376399706119e-02 1.074805757842073328e-02
9.982620582336534237e-03 -1.157475286972447538e-02 -1.275146924635339567e-02 3.274050576089413724e-03
4.107843806511319012e-04 2.013842670619904116e-02 -8.869992532164944210e-03 9.758488187491423486e-04
-1.764140275901409825e-04 -3.817046030027835407e-02 -3.232742091236821824e-02 -6.229092252223939960e-03
8.364767355150935085e-03 4.884412841377477194e-02 5.196006107011202912e-02 1.393695724889289049e-02
-6.027864637346399580e-03 -4.154997582749241775e-02 2.783389914964035246e-04 -9.143182355104749123e-03
-1.774973864301474316e-02 -1.140877373316491299e-02 3.594676936195605188e-02 -7.987427787863200096e-03
1.739349069274019610e-02 1.061513810174115509e-02 -3.924385027433785478e-02 7.786151308939006158e-03
-1.265720218089398143e-02 -1.524233199312120248e-03 -2.583614179926481749e-02 -3.941140831806518724e-03
-8.335539091711649876e-03 2.162107619147072505e-03 1.298272671038597746e-02 1.920835424496610683e-03
-2.310929591339735273e-02 1.829601077906137935e-02 -1.100255618260133350e-02 -5.714440001659028268e-03
1.551937700604073475e-02 -5.542872016774966909e-02 4.530431840418409906e-02 -1.824072209896038417e-03
1.005106229893802661e-02 -9.400760718325226750e-03 -2.269833831835525034e-02 1.847526636605041628e-02
8.878564421669846857e-03 -2.461352938200730631e-02 -3.951713781893111815e-02 -5.254896345327622620e-03
-2.086902454449826930e-02 -1.643347914353733563e-02 2.147177402652207176e-02 -1.225178355021175162e-02
-3.841583611286125688e-02 3.343462874308032046e-02 -3.178732728429856103e-02 -6.882252522899682048e-03
-3.678387624540111617e-02 -1.954090359533919644e-02 -1.626771719494936666e-02 -1.932465027885243297e-02
4.288475183249863994e-03 -4.902910706006515310e-03 -4.571959116480682310e-03 -1.980324357572782034e-03
3.403086758811071921e-02 -2.771637720186707551e-02 -2.551334795431014699e-02 5.241874731785441804e-03
1.960098764256205592e-02 1.509273444493939090e-02 1.947419596402075181e-02 1.045086538652741613e-02
2.972644474993573621e-02 -3.047513916150470722e-02 4.052142019529247213e-02 7.671457928363947798e-03
-4.507105212832949320e-02 -8.501682558708281018e-03 -3.061220027906354571e-02 -2.042167816759943647e-02
-6.113773765309640611e-03 -3.964481450780139166e-02 -3.347159759084848002e-02 -1.018892411971533685e-02
2.589041240548880553e-03 1.352128006811627835e-02 -2.933677502655844191e-02 6.445761689842790469e-04
-4.115067012757730666e-03 4.546097414370575858e-03 2.897126936570141448e-02 -2.758779829833839063e-03
-4.973999044875443420e-03 8.474244394882243792e-03 -3.942762884890028963e-02 -7.132978549381558580e-04
-2.314865389152254843e-03 1.977063178877199595e-02 4.841407156856455257e-02 4.370960544122037481e-03
2.982079714145868463e-02 -4.120400342320403031e-02 -1.780927517538927261e-04 4.218812151758671337e-03
1.082688790621437469e-02 -1.660221246447851629e-02 -9.765005156900527505e-03 4.344782505746017272e-03
3.396060586749186094e-02 7.336782916216221841e-03 2.549497463496127117e-02 1.531652810028850606e-02
-1.032283442741399777e-02 2.878438052096877683e-03 8.770908447353360088e-03 -2.010256308773232872e-03
4.095941550291921918e-02 -6.493012341853811320e-02 -1.738438087806820978e-02 3.326734718175295737e-03
-2.193072705126962105e-02 -5.464528257465578985e-03 -1.940060053286292788e-02 -8.886069979810616234e-03
-5.996953830412309408e-03 1.041591666977327059e-02 -1.646182010227287967e-02 1.198487676260121719e-03
-4.130588501714529438e-03 -1.413841313364073114e-02 -2.711358411224590054e-03 -4.947276661828424113e-03
-3.368026111232902409e-02 6.480159938106090298e-03 -6.140252198970814340e-02 -1.345904537788101228e-02
-1.398923040269861931e-02 -1.952416122116176073e-02 -5.626947082731819511e-02 8.676052903683012171e-03
-1.148444598100912227e-02 -4.264458895832518893e-03 -1.791858508534876007e-02 -1.548543802604305207e-02
4.281107101256586417e-02 -3.975246423397149620e-02 4.766622726038241553e-02 9.281648234869301073e-03
1.918875534655006473e-02 -4.192036980236239774e-02 -4.247591635535610116e-02 -1.921878566602942644e-03
1.892662318289740561e-02 -4.638279336240281464e-02 -4.952356997964507679e-02 -3.890431296692148898e-03
3.173598737494869731e-02 -1.732002162219676428e-02 1.770703459692127280e-02 8.034206977726844265e-03
-1.113448269548107834e-02 -6.677113388979222242e-02 1.919777260446755424e-02 -1.444619751308527482e-02
-1.982352916345824900e-03 -6.196765210028367526e-02 -5.120617898606016904e-02 -1.329343185735104398e-02
-8.685884884982685711e-03 -1.341011559766603148e-02 -5.780466372517637647e-02 -6.553911778589576430e-03
-2.452474290864075507e-02 1.830668172183463546e-02 -2.193636471279168665e-02 -3.474086356071787868e-03
6.510808816154475473e-03 -1.648862748780292181e-02 -2.731309941187645696e-02 -2.745783936393904161e-03
1.068403325249796818e-03 -1.045940674158903159e-03 2.037515028929488478e-02 2.104446216188762472e-03
9.548651461898217604e-03 1.784835576073459315e-02 8.760245119201579000e-03 1.167971168305018820e-02
4.763965938376097525e-03 -1.172918669393509250e-02 1.095177941176043480e-02 -3.035638139264089201e-03
-8.908662794377335964e-03 6.191724156250883772e-03 2.277506394519371053e-03 -4.669203328536567985e-03
-3.252442890603422093e-02 1.660920025142266845e-02 3.948236032956460584e-02 -4.805719435089728098e-03
-4.566442337054942013e-02 5.194267622651765892e-02 -3.764592149946900668e-02 -1.013995166221669762e-02
1.524344461986333783e-02 -2.022536239066122926e-02 9.034279020442199243e-03 4.565472037070922827e-03
1.779392723614019525e-02 -3.738273377535732134e-02 3.188339025974829682e-02 4.258077940802925017e-03
-5.197941025847509222e-03 -1.409135984343942542e-02 -1.305879700444773257e-02 -4.119115241687954822e-03
9.160071227338077715e-03 -4.539393195495922823e-02 2.166176970265167034e-02 -3.698217531865665396e-03
6.998831040295676147e-03 4.206799493943100612e-03 3.308473308181579531e-02 1.074242202667032887e-02
1.600910094993756791e-02 -2.459819443201561630e-03 3.508994571117451944e-02 4.540969924313671344e-03
5.154478332421173065e-02 -2.215870947120983717e-02 4.908859592976905911e-02 1.884666708204690150e-02
7.189297269034331146e-03 -6.187585871847670060e-02 -3.963764826080908021e-02 -1.311342091469989111e-02
-2.881676216765552065e-02 1.099804634496731257e-02 2.008824927949650826e-02 -1.000120773067972833e-02
-5.686645519860805166e-03 3.553621708095238557e-02 5.901059459673548696e-02 4.082960820350968641e-03
-2.981626520478930856e-02 5.330791301821327655e-02 1.000453250908180450e-02 -1.868365819897392470e-03
8.678812685503115368e-03 -4.704041580705310699e-02 -3.569834156649327045e-02 -4.420400123707608070e-03
5.329080927305956776e-03 2.090386311710011255e-02 2.075347010202359052e-02 4.736944142441833379e-03
1.489893817467188852e-02 2.313305349815246784e-02 5.069575775617653213e-02 1.193152028769788736e-02
1.522081971719558549e-03 1.909468984356237423e-02 3.806931164932519235e-02 1.676752677903618413e-02
-5.521239973807100937e-02 6.032689892295497319e-02 -4.516578538216257932e-02 -1.484168191140289479e-02
1.494075176876399728e-02 -1.107846630083635618e-02 -6.579299423076803016e-03 2.291828337269681028e-03
-1.493311897251064016e-02 2.596646610079554260e-02 7.455674418361261241e-03 -8.413663580913178716e-03
-9.873302644903716562e-05 -6.712199887311074298e-04 -3.911965203837878408e-02 -3.654363255294200159e-03
1.627059091301457858e-02 6.484124429993606657e-03 3.762752045449435623e-04 5.952803517192551373e-03
-4.872354798452553648e-02 5.667692093438759376e-02 9.500266853963492200e-03 -9.445584692561523679e-03
-7.756067804527931424e-03 -9.333304762127061713e-03 -2.083612737435843951e-02 -1.011489865453311932e-02
2.220759610074315299e-02 2.214505107491633248e-02 6.476057213675720514e-02 1.302632255280372110e-02
2.000739756965143334e-02 5.041094916796798504e-03 5.579160187742984028e-02 1.192854594385624883e-02
1.698173432286986459e-02 -3.162830849303931852e-02 4.926923455591334516e-02 3.534657130732625756e-03
-3.119999916945762064e-02 -1.976341266389195980e-02 -5.382912363876423897e-03 6.992057376713375211e-03
5.251966113747390946e-02 -2.263439549556114580e-02 4.567605560355760680e-02 1.538908044445503644e-02
2.383878374101926559e-02 -6.025651718853629324e-02 -2.673635842795719572e-02 -2.327277533166662721e-03
2.567183745791009122e-02 1.335878923438404454e-02 5.386807118248656406e-02 1.242032749322716408e-02
1.375098678775450202e-02 -1.969679101104829938e-02 3.974665358250808328e-02 -1.112518395648889533e-02
3.912739334664091378e-02 -2.276964825304150786e-02 1.504181217817873034e-02 1.122736446566545941e-02
1.295307714575100015e-02 1.143380715542006813e-02 3.133096663699983572e-03 6.811348917227490196e-03
-1.814127806056828503e-03 -1.717259886382073095e-02 -2.023624110749943153e-02 7.370037189590976021e-03
8.245611468070302916e-03 -2.891130199469226641e-02 4.222872035631951293e-02 3.682852389803536151e-03
-3.422377440970698209e-02 -6.160222081685567993e-08 -5.513613736899318496e-02 -1.023045387101410679e-02
-2.649869558029388766e-03 1.220043734575884664e-02 1.038093698055690163e-02 1.181718935675548764e-03
3.482665500443909296e-02 -3.494814212593439634e-02 -2.972530940047096032e-02 3.426101212778994050e-03
-4.006848860257801112e-03 2.849041850233256443e-02 -1.440537800336406243e-02 -1.748665985933711567e-03
-6.323557396520804175e-02 5.386093835628213283e-02 5.154600299064544030e-04 -1.392204737730324930e-02
8.581529158584979416e-03 -4.332508844246598517e-03 -4.463444595032894056e-03 3.762423752329282188e-04
1.561039418928899560e-03 1.455238013627984696e-02 -3.566833418734223493e-02 -2.383229380711639461e-03
4.042446468985017721e-02 6.697609250973724643e-03 -1.496797393749392351e-02 1.434494058546900881e-02
-2.690384899093168497e-02 -3.376628002395718614e-02 -6.844299173832418814e-02 -1.838338018257723583e-02
3.020822866764348580e-02 -2.088546833349077744e-02 4.708069546796284088e-02 7.849379886138378032e-03
4.209943431504116484e-02 -1.050706659325218589e-02 -3.344144596076683434e-02 1.168175920989366311e-02
-1.233880512820292701e-02 -2.140272312788260925e-02 -4.781198848830530562e-02 -1.397175517192957364e-02
3.905625082563906475e-02 -1.765842827236914145e-02 7.605793043680471321e-02 -4.824335407444648241e-03
1.179670131463746163e-02 -2.112652379082915338e-02 -3.524007118377341791e-02 -4.647465262472136836e-03
-1.599969985503922262e-02 -2.921832742389935886e-02 -3.759611443738788278e-02 -1.339465158095682999e-02
6.439123016942489841e-02 -3.986265349212680942e-02 -1.626219160163019928e-03 1.682534450202020221e-02
1.833922914748358640e-02 5.800287661331569693e-03 7.666379802481977646e-03 7.271991092113355357e-03
3.787139623088994073e-02 2.337926533299266793e-02 -1.862634064976052134e-02 1.571798114274878047e-02
3.421953127616503276e-02 -3.623369746659660384e-02 1.058126991594518333e-02 5.498108964051792204e-03
8.956888752249463764e-03 -2.437562464959873096e-02 -4.797581540130659017e-02 1.546648445219917000e-03
-1.538510089775611475e-02 -2.000451991159428716e-03 1.049145330795166198e-02 -4.779245068205542450e-03
7.564652518037199777e-03 -7.179902232960616235e-03 7.492467436498857075e-03 6.132402297950504885e-03
-2.726549314739245763e-02 -1.169770030555859590e-02 -7.149893260842674764e-03 -1.550141939827035138e-02
-4.610882732425027053e-02 8.570292026733898269e-03 1.261734248574146976e-02 -1.330335033020443869e-02
-1.478787658561306166e-02 3.528429123366517289e-02 -3.739454564478705834e-02 -1.551151620105791547e-03
-4.232130828187462973e-02 5.318570796785889766e-03 -4.554154669843119702e-02 -2.296739942764694856e-02
2.292240648326482680e-02 2.337545607610053914e-04 -1.998072523255082361e-02 9.391070990065364388e-03
-7.078431329873093730e-03 9.540042290030295233e-03 -5.394092581728417157e-02 2.870153847066282096e-04
-5.482819943248520844e-03 -7.445112577704248412e-03 -2.416597940289511720e-02 7.723991893990788012e-03
3.850083786869622909e-02 -2.831010518159715605e-02 -2.014698492966586138e-02 7.662556281902621960e-03
-2.610023449739303902e-03 2.008370226684731003e-02 4.661141315989593414e-02 -6.689723903392783065e-05
-3.112977143936774454e-04 -2.405893460772880882e-02 -5.630793967751381024e-02 -6.499407519191559117e-03
-1.807698156530743866e-02 5.727030063625839634e-02 5.550129412245922295e-02 5.425078304961128244e-03
2.567735169276149504e-02 3.038377646895434447e-03 1.945186651346253112e-02 7.716745617172720596e-03
2.826190840772781210e-02 -9.165966860315186929e-04 3.584029028705768005e-02 -1.277574669728853869e-02
4.394572184311866352e-03 -1.738778008037659278e-02 -5.452043923518070517e-02 -1.979621667954090461e-03
-1.075213614143277763e-02 7.657894071446923190e-03 -2.284954908444639110e-02 -1.567141409855840953e-02
6.603378581073649292e-03 -2.875691137806552725e-03 -2.363789246938830316e-02 2.394863109490342253e-03
-1.089738952896497290e-02 -4.768976481967711345e-02 1.784053671065552113e-02 -1.230872801218193570e-02
-4.133570658659554975e-02 -2.800172801857448920e-02 -6.099730126591045021e-02 -2.521434297066159694e-02
1.003419651718595942e-02 3.913187715108569498e-02 9.763576724216625410e-03 1.201227822067523453e-02
2.943289040473096203e-04 -3.375107242888859826e-02 3.415154010506668233e-04 -6.435737788575324365e-03
1.455748815735323325e-02 2.838552796973403680e-02 5.236423623196235361e-02 1.050510227206976135e-02
1.493020445151548503e-03 -1.553868072587306394e-02 -5.109076668619520582e-03 -7.594498336508082557e-03
-5.601765656550001388e-02 1.173472160427811717e-02 -7.648708160497588726e-02 -1.960267141897151927e-02
2.024286115558036198e-02 -1.262308246411688456e-02 4.792535229787596440e-02 4.800821768438983707e-03
8.638482646815911006e-03 1.151264898926485786e-02 5.570884946367062312e-04 1.561145543446687024e-02
2.731463771517450914e-02 2.051814438118085629e-02 3.745597604233510958e-02 1.553774783247649678e-02
2.192605518892376884e-02 3.947134938106171970e-02 6.237798439244465060e-02 1.684688690438837164e-02
2.395578929416333422e-02 1.150343743135625284e-02 -2.193788540925198718e-02 1.345552420694302344e-02
1.217876412355932414e-02 4.516860954803240263e-02 -5.299454734088317577e-04 1.179635398071681406e-02
2.991551942205507297e-02 5.165477955811211344e-03 4.356570106169838086e-02 1.022151095164251962e-02
9.910534701780151709e-03 -1.956185412812446942e-02 -4.771325067543546322e-02 -1.230826867956544713e-03
-3.231367976258390368e-02 1.876951965538989353e-02 2.666038860196762866e-02 -3.497133098661571026e-03
6.561709981147028845e-03 5.903285940930629722e-03 1.592033763541578564e-02 1.761251917343950937e-03
-1.353878686388793279e-04 3.860938128284194942e-02 2.468469782519268699e-02 8.131624948900214103e-03
5.485797864758643061e-02 5.584088683203455687e-03 1.052197379653136387e-02 2.202844802740800204e-02
-2.520924838559767886e-02 3.071793071202616812e-02 -4.053831017769932848e-02 -3.742911577032565201e-03
-1.833773606059851957e-02 -6.222649989245187391e-02 -4.521903934504399591e-02 -1.940905658656991856e-02
-4.244509860019717723e-02 -2.122588987613406933e-02 2.347046905649688778e-02 -1.776013616361846181e-02
-1.563119938216513127e-02 1.738083508417680514e-02 5.919834283537007795e-03 -5.488038403166511231e-03
-1.744633159850874152e-02 -4.783090469141098450e-02 1.208371955167506645e-02 -1.227256169656883340e-02
2.873273354002968839e-03 -1.295935607353409548e-02 2.147580850134202593e-02 -1.648582647395219897e-03
3.004496000482476809e-02 3.670875247132844577e-02 5.230802545012325742e-03 1.725475091803256242e-02
3.323222308010440745e-02 2.528311144293740598e-02 3.957994362679825850e-02 1.881252623528184911e-02
4.887683143640594516e-03 -7.312531953703763250e-03 -8.511166336537227470e-03 5.190843849704219201e-04
3.157843073012929491e-03 1.232938033670428514e-02 -6.656756254219912267e-03 5.882997535101065073e-03
4.510862683796094952e-02 -4.611908784410592016e-02 -2.330147169920040659e-02 9.618490944206080015e-03
3.399897330322751432e-02 -7.495108778886147745e-03 2.895679944977115269e-02 1.216877745032275519e-02
-9.818504975660714146e-03 3.706853972050474372e-02 5.477436011508794375e-03 1.277120408206608351e-03
-2.929255951086897139e-02 3.030905241505631523e-02 -2.820165031278253770e-02 5.149520899279849684e-03
-4.272286565982628959e-02 3.127246683648986919e-02 1.814640315696324294e-02 -1.168289504428670147e-02
-4.131274823658920292e-02 2.922196033491519795e-02 -6.731251410132284632e-03 -8.196675503570892071e-03
-4.330778502125545715e-02 -3.187372947931927519e-02 -7.068601477254209120e-02 -2.794317511130535100e-02
-3.170035704108150471e-02 -3.012164147485512505e-02 -6.016782123776089064e-02 -1.987590083269768701e-02
-7.975547959781781326e-03 -3.380215280600797154e-03 1.093895852279197500e-02 -1.967669513639257444e-03
7.707867247963135458e-03 -3.409250704615109789e-02 3.061729181657218968e-02 -5.775286032799757836e-04
-2.463581594304957781e-02 1.887121970997891751e-02 2.664883828427710294e-02 -3.083874379236852762e-03
-1.518300040041501743e-02 4.485848674569949818e-02 -4.768271491492024478e-02 2.063743314727565451e-03
1.237000456858095227e-03 -3.282589532315454556e-02 2.547108853604696660e-02 -5.458024589144124666e-03
3.768064261452782823e-03 3.870468949333578934e-02 -3.096073709944911420e-02 1.073317645465023812e-02
-2.052549570120824202e-02 2.956849515284598259e-02 7.680845984353775954e-03 -4.508605994042425361e-03
4.860085027193091628e-03 3.928547113677223479e-02 4.863216185692589844e-02 1.124273869028402997e-02
2.523057060300125040e-02 -4.390493265944361845e-02 -5.168887964330967123e-03 -1.994587195502752527e-04
2.864875247551371129e-02 -1.947419832555144503e-02 2.126338098454593276e-02 7.830687772332717983e-03
2.241852081664429813e-02 1.650246830355180452e-02 4.576027188492609588e-02 1.715173971138670914e-02
-1.312076658836688198e-02 -5.551704284147442742e-03 -5.052688671851129909e-02 -8.117554054302084446e-03
3.288239490953417249e-02 -1.427502359844657828e-02 4.869784187259293406e-02 9.168623100420793953e-03
-5.663802242013406957e-02 -3.193679617263826126e-02 -3.506522069462794655e-02 -2.922507389409447973e-02
1.356140915420930328e-02 2.649631791872253395e-02 5.598477866959802873e-02 9.253679483058128985e-03
-1.019342488197248417e-02 2.481427484456434629e-02 3.170432960318832899e-02 2.501333832162026035e-03
5.030738435491899363e-03 3.193253621245705637e-02 2.126086497718121873e-02 7.042083618384504390e-03
1.580258592325736039e-02 -4.982648040629981262e-02 7.777086312068916610e-03 -2.323103420923330886e-03
2.654416274733917974e-02 2.361086566355311694e-02 2.314406886695762749e-02 1.721775721150278077e-02
-8.907134453032962418e-03 -4.136577196198777673e-02 -3.392634212437591751e-02 -1.059450205415772041e-02
-4.559238355578315582e-02 1.544047790972169921e-03 -7.376230094189159536e-02 1.252656832534807321e-02
3.233903948919068794e-02 -2.423565654545331571e-02 -1.859000965330097344e-02 1.060093291269536414e-02
2.275604054542655977e-02 -1.647495410056974002e-02 8.242173099291637620e-03 1.009235257292496850e-02
-2.592125814274201870e-02 -2.204283236450709990e-02 -5.122437593957809843e-02 1.712940476875561904e-02
-3.426780690403361668e-02 1.895067092652138671e-02 -3.016585387336989318e-02 -1.143595646326099266e-02
-6.175983847192328263e-02 6.514072043477507623e-02 -3.800631473493224638e-02 -1.470651378346824259e-02
-2.769703509897581892e-02 1.304496066099901895e-02 -4.760058640828161713e-02 -1.013216277581175523e-02
-2.258608824085218958e-02 3.845331349306367608e-02 4.670037207388134243e-02 -1.036081065802447587e-03
1.268833741354239396e-02 -3.254241272627909909e-02 -3.847681557503003502e-02 -4.601854285352947709e-03
3.189195083244271423e-02 -2.098783378459263133e-02 4.065269532022786070e-02 8.315110349747474594e-03
2.480949465624859851e-02 2.064352554318269958e-02 -3.589923591160682631e-02 8.851997053126009138e-03
-1.295749261210241707e-03 2.787050902619587350e-02 1.721592787045248679e-02 1.144663133401754157e-02
3.176095818749406774e-02 1.784733268654031466e-02 -1.436057424956699996e-02 1.317829124733641173e-02
-2.062658558976096512e-02 -2.558156300819905762e-02 1.177775677298729951e-02 -1.169825108794770099e-02
-2.625634879940652935e-02 6.305282152635809101e-03 -5.573680792865601946e-02 -8.770273975437526195e-03
-3.985134044700999745e-02 4.971300102908959850e-02 -2.239567323486348766e-02 -1.239446961210672465e-02
-2.594882170353776663e-02 5.501277860021969862e-02 -6.195553882636626892e-04 -2.312955548692148793e-03
4.252926676662414224e-02 -6.812705515228734306e-03 4.859187185550117166e-02 1.528203144877502383e-02
-3.149172338237214014e-02 2.616332566003798030e-02 -6.309118596915499512e-03 4.661411124270624460e-04
-2.495014821260980661e-02 -1.463873082576125882e-02 1.413476714005512842e-02 -1.391805931820200293e-02
3.309449620353911801e-03 6.251186122513173460e-02 4.851569424035009903e-02 1.348117913882257088e-02
-2.291363697114837464e-02 -3.108694556277549759e-02 -4.162026507386684671e-02 -1.855715079460002609e-02
-3.626534444109552613e-02 6.607630949683057642e-04 -3.936115937717420826e-02 1.831426253597948431e-02
-5.813096048533031301e-02 1.477391569407688829e-02 -4.473099600834092721e-02 -2.207414231877507377e-02
-1.029061842470420547e-02 1.999624322783474795e-02 -3.683273402871635460e-02 -2.582231323598996060e-03
-3.203486434695542590e-02 -4.560303551620878415e-02 -2.518186371853043531e-02 -2.342887392600300628e-02
5.458243041318642727e-03 1.531384160435945128e-02 -2.226783257671694286e-02 1.946177839257107710e-03
7.051524970265695032e-03 -7.364081943273844202e-03 -2.733660047610412744e-03 -2.578188700258349057e-03
-7.444691033784118540e-03 -1.291482028061738743e-02 -1.454666790905529382e-02 -7.394910275313368656e-03
-1.174475358919089413e-02 -3.718259751755448317e-02 -2.279363185252861537e-02 -1.192187979518207104e-02
3.480289869022126781e-02 1.418248771287807918e-03 7.244328764475942151e-02 1.402680352014641987e-02
-1.490203760947231629e-02 -6.371149631363161314e-02 -5.704533071448134041e-02 -2.002322074416496706e-02
1.058653464096263180e-02 3.977094456373606035e-02 6.586142210921655700e-03 1.427724123725327907e-02
2.616760047239399117e-02 3.049684970013767302e-02 5.135784853339876721e-02 1.502975320153713233e-02
1.191557238513598765e-01 5.469543069695197157e-02 1.362303062337294757e-01 -3.092598477545699387e-02
-1.475268158912201172e-02 8.470435393319243611e-03 -1.068763311937168288e-02 -3.772553302877529584e-03
-2.348279616629978667e-02 4.943145961950369538e-02 -5.081681113440206232e-02 -3.109608077344594521e-03
-9.896403218251942357e-02 -3.756425176103054403e-02 -5.185661426218268755e-01 1.414888054445554655e+00
1.998784391623577988e-02 3.434163029673885370e-02 -2.607514059072941343e-02 1.498470532730997520e-02
4.021091313710048465e-02 -2.617583100833318493e-02 1.054180749083702406e-02 1.019124171867382203e-02
2.567652488703747043e-02 -2.714019689218449480e-03 4.465294636856236704e-02 1.235987028793368060e-02
-8.451693129542808477e-03 6.240878608890488427e-03 -4.902968780292436130e-02 -1.191225047535748741e-03
-1.549622290174073290e-02 -2.450418159260548887e-02 -6.199896328253218930e-02 -7.811740965989356390e-03
-2.601769660988448654e-02 4.522731888152773869e-03 -4.641446706221009910e-02 -4.251606463026815462e-03
-1.056489766875828504e-02 5.687208607327978033e-02 3.451915036571578943e-02 6.562987734901271075e-03
-3.302951298446825390e-02 3.204015810602248854e-02 3.410912752538292764e-02 -3.747595850229907145e-03
-5.681384104165815123e-03 -2.361780292932800802e-03 -4.469884229635404105e-02 -4.891922496040575739e-03
-7.920861365725537229e-02 -2.469536188173098584e-02 -9.817070443265035751e-02 1.706169468537940132e-02
-2.118490791493400985e-02 1.438287495096342815e-02 -6.436776188135874543e-02 -4.227339010489782750e-03
-4.056634976593215952e-02 6.884706188974788754e-02 3.845498236252977721e-04 -4.214305695713151806e-03
1.110391092318583489e-02 -8.967644390730472592e-03 7.643529624739778608e-03 3.218761810881766786e-03
1.112380680150069912e-02 -1.029323373312959061e-03 -2.351461692672286025e-02 1.368078991790944686e-02
3.881849210778919035e-02 4.425955360337562039e-02 5.638887188703350928e-02 2.622796478364639722e-02
2.292577647893448423e-02 -8.650295349764164365e-03 -1.715977743943457312e-02 6.375878094810864642e-03
9.856137526681522237e-03 -2.068354281616964496e-02 4.108589945092878948e-02 1.034494981658252988e-02
1.526804872647460898e-02 -2.390272560175243921e-02 4.883165686678675455e-02 1.434270282028206854e-03
-6.375627995291006933e-02 1.733233344518594204e-02 -5.946081254242534947e-02 -2.546928539226428825e-02
-1.675762932206669928e-02 2.415854395079033295e-02 -3.795280840770103720e-02 -4.560623944613357780e-03
-8.136261410192533253e-03 4.238212971818786784e-02 3.447208264237870690e-02 4.818714719657399628e-03
-2.399437370376284462e-01 -9.752710524299242068e-02 3.740863666407235888e-01 -4.814658528547445471e+00
-3.796594091852796560e-02 4.908455489026868068e-02 -2.239834442729572370e-02 -5.972640523128779425e-03
-1.141053871101279857e-02 -9.804043636216315874e-03 -4.958538837610295541e-02 -9.354346250887660835e-03
2.411456422332312194e-02 1.314417181807471177e-02 1.059880085015272450e-02 1.188724706770688706e-02
1.215571481358745107e-03 -5.732250630413195103e-03 1.280533191971329997e-02 9.135746870799876362e-04
-1.005085416583164845e-02 4.531050493107738331e-02 2.150912177264878433e-02 3.732330127590915547e-03
-5.524715299136024466e-03 -2.042428258201410898e-02 -5.124356496202817600e-03 -5.044165559872044319e-03
-2.458317616585026927e-02 5.360993689011575580e-02 -5.016922716553499917e-02 -1.781212367126285868e-03
1.586583954648602274e-02 -5.062250968434246767e-02 -3.314245647813261753e-02 -3.953570505147362309e-03
1.943628427368128408e-02 -5.826727604236637409e-02 1.746679716286700032e-02 -9.321843474546268396e-03
-2.293228888531369594e-02 -1.473579259874608412e-03 3.477837782340648110e-02 -8.874136817139301886e-03
4.622072450777318930e-02 -4.281470524194334187e-02 -3.853892757692912790e-04 7.252212891704390950e-03
-2.576614579466349544e-02 2.802305335178277221e-02 -1.941135803885208483e-02 -4.386527149892883136e-03
-4.220796359322241675e-02 5.977383132470053678e-02 -1.720625512828914336e-02 -5.865400940116730771e-03
-1.080276977301559797e-02 -2.945213730451662348e-02 1.630200254447877056e-02 -1.084757071727043137e-02
4.220675060484222613e-02 -1.213278699186552331e-02 5.328261216636811376e-02 1.762260587112142451e-02
5.138835670937386135e-02 -5.533933339666440021e-02 -1.993421734364274681e-02 8.712745028954414425e-03
1.205841680064368565e-02 -2.944491290457677476e-02 3.457878467751188123e-02 1.406791112255610524e-03
5.124314161358270447e-02 -4.966636789466008506e-02 5.661706567920821165e-02 1.097854495316556538e-02
4.709239060056848170e-02 -2.461298474871373085e-02 5.313047920999886681e-02 1.598482924939564551e-02
3.975142502812847173e-02 6.471583682890979378e-03 9.225698328105692847e-03 1.260121938955324587e-02
-2.818831152627196846e-03 -1.270691493699473672e-02 -4.864215722721187268e-02 -6.329834002802205845e-03
-2.810294228283769652e-02 6.667553319973990554e-03 1.707858697021307978e-02 -6.164034969068789283e-03
-4.030919827651884696e-02 -1.021458360495194423e-04 1.926293213356721108e-03 -1.318742165847299787e-02
-3.935143209510284096e-02 -3.671028638726345217e-02 6.202489166824934341e-03 -2.064460914211043580e-02
-1.438522455508804872e-02 -3.823171239122674647e-02 -6.876961344761754746e-02 -1.353534955875519523e-02
-3.067824059774473464e-02 5.829062629699582714e-03 1.434380833388107339e-02 -9.501738690506812343e-03
4.306413227310790931e-02 -1.441119679101370531e-02 4.778248331256654963e-02 1.437651489429520382e-02
-1.923187206332041196e-02 2.833196205774392989e-02 2.311116197971427658e-02 7.274967663110638687e-04
2.122316082525266961e-02 1.774380897107632332e-02 2.474971591137335031e-02 1.305701691160022528e-02
2.399903865039642453e-02 4.837563520758154240e-02 3.784050784064370981e-02 1.888646483533358914e-02
-2.104412872839766038e-02 4.879860890352779451e-02 1.268202538850080920e-02 9.435606820581058209e-04
-2.500487005353217024e-02 4.150350771558828505e-02 -4.275245416261386211e-02 -5.496288811099767427e-03
1.034578373315316350e-03 -3.113547653022037329e-02 -1.349604923356037198e-02 -6.372872705425009117e-03
-3.029062527147381029e-02 7.127160985049711683e-02 1.353371435362114850e-02 1.735462795292239515e-03
-5.428326095539691420e-02 3.921703110144512255e-02 3.295961513171710711e-02 -1.194366662732724779e-02
1.896218546921641865e-02 1.442259155225449931e-02 2.847415257158019547e-02 1.082554847738963905e-02
-3.790375066039166491e-02 2.715315454394356953e-02 -4.426643012301376134e-02 -1.211078801408006431e-02
1.108367307757468674e-02 -2.970584432725085350e-02 8.975594838987162663e-03 3.133314071266996969e-03
-2.767222631762251625e-02 1.210951067711321487e-02 -2.342684483815352797e-02 -1.057106097281925242e-02
-2.434176940374778789e-02 -2.254564619078550450e-02 -5.565839363030415654e-02 -1.852712259806392481e-02
-5.325327144498175937e-03 -2.411604204178053462e-02 -1.521647348603774076e-02 -7.850511360340201375e-03
6.287987290290173933e-03 -6.593607663454971457e-02 7.602671143567437534e-03 -9.725088284820179382e-03
3.631792752914341643e-02 -2.689157354223123235e-03 -1.621362550718597265e-02 1.573729578520086797e-02
-1.713142344743145626e-02 -6.802510652338205482e-03 -2.136064867608107945e-02 -6.762149415390870423e-03
-7.145668988052145121e-02 -5.068986435353068504e-02 -1.077607313787804499e-01 1.587917319538631120e-02
1.324468069631221665e-03 -4.593421577116441057e-02 -5.539034815856302973e-02 -8.806177284990656176e-03
-8.974900854327617775e-05 -2.978173607174827014e-02 -1.797573730253739649e-02 -4.232538571772251172e-03
2.652277412990546382e-02 -4.447633971493389349e-02 -2.151056047111213343e-02 1.329828930043552284e-03
7.297672615350398080e-04 -1.058238650283510780e-02 -1.462512789732408475e-02 7.724420756419540790e-03
1.019440836163731587e-02 3.845505466465842879e-03 -3.172233707389458812e-02 5.461213253604190951e-03
2.521796247192875304e-02 -4.503045385264970585e-02 4.071963824769798262e-02 -2.415279028268556543e-03
-3.316248687044738748e-03 1.556172239598322890e-02 3.613315146208018885e-02 1.272049759282853744e-03
1.512077024890050433e-03 -1.433646540894253571e-02 -1.065572214111903775e-02 -1.929777160235346834e-03
2.206378723498426953e-02 3.467063867795537515e-03 6.567278479179554374e-02 9.367735130044595182e-03
2.857640154476795077e-02 -1.362521530552244023e-02 2.939924683434056579e-02 7.662125087072205881e-03
-1.537710551338780998e-02 1.156760610914762304e-03 1.527191217574851850e-02 -3.085509240837427860e-03
-3.479566127152938781e-02 -3.667927452124266491e-02 -7.442819347119272733e-02 -1.965256557817197589e-02
3.375403139056493834e-02 -8.809284754670167195e-03 5.536655849242345245e-02 1.304221016367593938e-02
2.654630926344465555e-02 -2.127714552164140099e-02 1.459591097137773012e-02 5.564064112512311609e-03
-1.372064968351569686e-02 -1.021062251713841275e-02 2.428767653244862448e-02 -6.190902732197263621e-03
-1.579204310948884374e-02 3.003694297560268248e-02 1.954101956959615818e-02 -1.782762066682458835e-04
-8.587990175311775720e-03 1.734625528614371082e-02 -1.421479023674410754e-03 4.166503773114232576e-03
3.460695756888921421e-02 -3.499972645814546091e-02 4.839351900160704378e-02 5.863872514566988853e-03
4.368882430688354745e-02 1.916736654269299289e-02 1.156448843791491911e-02 1.959243745530265743e-02
-9.228567620643609443e-03 2.407637253453835322e-02 -2.897893782335337481e-03 1.474127903923601107e-03
6.272555707545056369e-02 4.036558528016144509e-02 8.475096304931269142e-02 -1.925671093975570361e-02
3.741181020900052195e-02 -3.871268950469636261e-02 -5.958036759877920890e-03 6.592144316957626246e-03
-2.245401553386893248e-02 3.544647121038627807e-02 -1.983874650694350192e-02 1.365354620118489591e-02
5.064198840364373365e-03 -3.769397725591652065e-02 -4.624050308668178899e-02 -6.796711019882871810e-03
3.512703038364877947e-03 7.332294424201171203e-03 3.377564139569298046e-02 5.276168519614606034e-03
-5.281172101657375002e-03 1.685625565936474390e-02 -1.576020091413083898e-02 1.280280568332824121e-03
1.902603092660316852e-02 1.325679672617594528e-02 5.360307126959758944e-02 1.130493211398667618e-02
1.773485031228362553e-03 -1.998811375550148262e-02 5.961864389941331707e-03 -3.261036860475160885e-03
1.693124607276627613e-02 4.179665406042910175e-02 9.619130048099168787e-03 1.400370186375832736e-02
1.389922285027401887e-02 -8.116609949735313287e-03 4.634112491028762743e-02 3.378837727850215415e-03
-1.370795013184340598e-02 -3.087434010585367664e-02 -3.263881088603844821e-02 -1.312366966168095582e-02
2.739318827944666607e-02 1.483145152914955127e-02 4.806656269373183604e-02 1.527682721532527474e-02
-2.057787705153229715e-02 -5.043157925884290613e-03 3.333336631858979660e-02 -5.805497760061434538e-03
-1.648263011801233185e-04 2.421072602168544349e-02 2.819066616253161281e-02 7.173622396038335965e-03
-2.743722617806821154e-02 4.691823900655541640e-02 4.519026363382024764e-02 1.011335406718033309e-03
3.149677468956082332e-02 6.431880805640212591e-03 4.286739885406698480e-02 1.429707023836915107e-02
-2.724267547127595668e-02 -8.246266583441247064e-03 6.687037073323733212e-03 -1.293778525890868988e-02
2.032485684875005860e-02 3.172960877596638085e-02 -3.423032687446801031e-02 1.177026606201968251e-02
1.325473638745239269e-02 -2.268261563572797693e-02 -1.107163854361254904e-02 1.348245889652847137e-03
4.623742283424671015e-03 1.367701301102423016e-02 -4.709154256183410714e-02 5.333257526858673110e-03
1.939068917692288521e-02 4.551031946292272146e-02 -2.423323240240765619e-02 1.412883119738358659e-02
-2.529166684690093217e-02 2.172660551489404360e-02 2.909661593249667638e-02 -2.156183854554812648e-03
3.925611309420387607e-02 -2.419886188077075007e-02 -2.240725519138360086e-02 9.511948668665575271e-03
2.055896264280988872e-02 -3.409595287230648974e-02 4.593550261207690610e-02 1.956240676330097978e-03
-3.158396987849160231e-02 1.368610229599227963e-02 -6.750805712471713571e-02 -1.053515069610707483e-02
-1.479893972634611053e-02 7.218419642013072270e-03 2.653805263067601089e-02 -2.700236770705683690e-03
-1.981816636662844106e-02 -2.393854519358862981e-02 -6.937585990068378949e-02 -1.193658350937798832e-02
3.000740985118800080e-02 -2.235563662116084316e-02 4.706947007257226284e-02 -9.120366095761233555e-03
-4.742828321919598765e-03 -4.796753345918813860e-02 -2.883690346239881422e-02 -1.148914670025331063e-02
-1.850864195950676153e-02 -9.787279355259803637e-03 1.701840850464789515e-02 -7.305184584508412314e-03
-3.077135782655932624e-03 -6.123911734579524924e-03 -1.447438311524465795e-02 9.000515920170297111e-04
-1.143789508370303062e-02 1.145696998228660710e-02 -2.024766389360084864e-02 -2.588269863523142019e-04
3.621844649953789158e-02 -4.311259711338624040e-02 1.671305439117172498e-02 5.813641640788484374e-03
-1.993316640599331752e-02 2.678355441430375558e-02 -3.704954596770727859e-02 -5.376788573389669479e-03
2.222945805567423661e-02 -4.157747915620626372e-02 4.304706321075127797e-04 1.068617065042071343e-03
-2.992790594884334882e-02 -3.979258777991021706e-02 3.802209897363044520e-03 -1.783792536636847822e-02
3.688658214041204420e-02 -3.229388842359176472e-03 2.118523338658676730e-02 1.392872043369322056e-02
-1.035757648156761593e-02 3.646444375774200719e-02 9.261671235602087285e-03 1.621286766162102506e-03
2.511957834688732100e-02 7.415529678440551699e-03 2.960797456247465410e-03 1.242328093605710865e-02
-1.228252848094665318e-02 -1.130092587119971813e-02 -2.078120046189652764e-02 -1.676157170350277628e-02
1.995919703470882406e-02 8.945900385840268275e-04 1.808646660084731574e-03 6.315808086486333732e-03
1.428796111085134032e-02 2.866710074265627073e-02 -1.238922428071863313e-02 1.164381154462001793e-02
4.354951759462106359e-02 -3.334148869729534892e-02 -1.438799034053327326e-02 9.124184976132350758e-03
2.695086073860557610e-03 -9.628017223293046378e-03 -4.067142262623872455e-03 -2.271919583971776600e-03
-2.057130705599379342e-02 -1.181425321506853442e-02 -5.265677637461184390e-02 -1.319819409633752987e-02
-6.313323468192454449e-03 2.683962947540318930e-02 3.876378212483019142e-02 2.407310563144555472e-03
1.174504340427627233e-02 4.200230339845743843e-02 5.739187625030892775e-02 1.027941341605771719e-02
-4.007207900453096938e-02 1.559431721208173055e-02 2.320492094230756225e-02 -9.256980322449702078e-03
-2.103014073049200988e-02 -4.113955771941138484e-03 3.382567659065936760e-02 -4.964667295768409629e-03
-1.113127081595278664e-02 -1.831898979237943370e-02 -2.349619867183089586e-02 -5.776042449410322653e-03
1.789184201153465673e-02 -3.503199000819760822e-02 5.328001274516745017e-02 8.260588149051186022e-04
-6.822529219842467067e-03 2.468336409192689075e-03 4.180304687395327429e-02 1.768267818100989963e-03
4.246010647188715181e-02 -2.093194950777673910e-02 8.700891941068237753e-03 1.292033355809026757e-02
-1.504384219518118890e-02 -1.025694587244925168e-02 3.302928441988503203e-03 -7.341304052047894525e-03
5.076152039479258846e-03 1.584973214989680163e-02 1.186045867871362777e-02 6.375239016151863260e-03
-1.671586604520726091e-03 -2.803776606373093675e-03 -2.916386508912750461e-02 -2.026076808873332382e-03
6.749177632092923443e-03 -1.703077852215361190e-02 2.463573254433506013e-02 1.534223750261052644e-03
-1.790103699706628278e-03 -2.865302118703799347e-02 3.442460853729843728e-02 -6.117151094428155758e-03
3.781600774250018504e-02 -3.852784878396361967e-02 1.914984704867611631e-02 9.734172342444141757e-03
-3.259444894037412475e-03 -2.738411531339287729e-03 -2.043718054349511620e-02 -4.388040115099604496e-03
-3.943101164173059767e-03 2.211051292328648429e-02 8.514962502599036226e-03 7.905331335171421683e-03
-1.764322977865442899e-02 3.579018459168321203e-02 -2.108493722443040286e-02 -4.014119438302382446e-05
2.475891480156222971e-02 -1.706979375522773082e-02 3.805045760534339454e-03 3.942543335823429571e-03
-5.241612980196108662e-02 -2.404514169945608584e-02 -6.056831273975610969e-02 1.795270373502462838e-02
9.011241128032393410e-03 -3.687205184930837654e-02 7.724477726476812293e-03 -3.790386168722040001e-03
4.568586638046844006e-02 -1.109059009701294542e-02 1.137239557716339432e-03 1.250854466320141557e-02
-2.024167791689013285e-02 -3.769780588379236311e-03 -2.400549187191529377e-02 -6.021131425869729985e-03
3.332177970857089222e-02 -3.378119040064971740e-02 6.248773456236662166e-02 1.700362423673809544e-03
-2.964258891156176801e-02 3.382572909154420854e-02 -5.299926118751061878e-03 1.786813936397756587e-03
1.523977594681290250e-03 -1.656855902008221026e-02 -2.669355826087338804e-02 -8.609597196303038144e-03
1.583073550403088156e-02 -4.384377644248434874e-02 -5.506512301013962753e-03 -6.823659544853401260e-03
-1.821203688561584891e-02 -1.371251172956460679e-02 2.261497964979972825e-02 -8.740873776263707526e-03
-2.565432959361994489e-02 6.924239786313614309e-02 2.623156242272927600e-03 4.929458509986355506e-03
-2.703625666738000699e-02 3.633162673007292454e-02 -3.265465674703194737e-02 -9.202816334578207969e-03
2.104248809916832094e-02 3.279308474732005318e-02 5.230557254950760765e-02 1.897445762305913913e-02
1.787769774562089284e-02 -4.675805108964909904e-03 -6.803665540734617646e-04 7.694053807225020511e-03
-9.597855904403844104e-03 -3.163011985405206512e-03 1.470307053926954086e-02 -1.209991931913845676e-03
-1.865150228540730579e-02 -1.076287547580519893e-02 -3.529399844968154204e-02 -9.482676945058316972e-03
-3.164568912099013226e-02 2.001980585572643925e-02 -2.513358304879848189e-03 -5.946244685520458810e-03
1.782609932526199592e-02 -6.971313961411129689e-02 -3.031402648303363825e-02 -6.300757147226960370e-03
7.267582117818114501e-03 2.615361738928313057e-02 5.557382391523497944e-02 6.050876685177740237e-03
-3.013108644368953093e-02 2.134344367931430980e-02 2.179833203972321790e-02 -5.628977204331551097e-03
-3.482367119327599292e-02 2.148258971320896396e-02 6.642901076531775376e-03 -8.204643329928313147e-03
2.110725025984680134e-02 -3.994611709108036174e-02 3.083475918111843080e-03 -5.265685039120861482e-05
-9.085177469813096249e-03 7.485719843237551019e-03 7.082867468356243180e-03 -5.623680054756266186e-03
6.679188973700611598e-02 -7.487077315448650849e-02 -1.390276492160956619e-02 1.555013978412776027e-02
-3.090809558237728530e-02 1.741398584711469771e-02 4.124328631300633319e-02 -1.017858288958745257e-02
-1.802978807645899624e-05 -1.683109496010177022e-02 -6.777046648866148423e-03 1.718661741975801779e-03
-3.250896133202280797e-02 -2.403670835058254254e-02 -5.160673398521635480e-02 -1.985856128684191507e-02
8.759772105307095380e-03 -2.943584449604811151e-02 1.544655034570589953e-02 5.248404761418957315e-03
-1.982525430321628243e-02 3.124874190962927470e-02 4.831058312009332834e-02 -2.151776321473559787e-03
2.225841614246668390e-02 1.108468843640603337e-02 2.622293782902183901e-02 8.209476854835409329e-03
-1.669498492608241860e-02 6.420765210002241097e-02 1.363529403809733524e-03 6.450016266339989382e-03
-1.767602718690713254e-02 -3.955509434654010115e-02 3.262035960591086535e-04 -1.360373463668062763e-02
1.487579586656351087e-02 2.615797026429089039e-02 1.027762476710086456e-02 1.195802806442514826e-02
4.060792899350284049e-03 6.415742362396596558e-03 5.026564994660200764e-02 5.387912537860877274e-03
3.061970971996027732e-02 -3.161745031259498295e-02 7.950590789885022408e-03 6.887251214023498193e-03
3.304954833476598380e-02 -4.213510947669185658e-02 4.420123234535468931e-02 1.690617369797448358e-04
8.716148181117903612e-03 -1.777294965200794732e-02 4.428579469592935219e-02 -3.187881764038446707e-03
1.587693505557317281e-02 -4.576959266024959588e-02 -4.834657070549683994e-02 1.645771652507616598e-03
-2.865548224571117658e-03 -4.864144136322926665e-02 -3.073519249304589723e-02 -1.562281297178566217e-02
-1.935482064256325782e-02 -1.585410133014086278e-03 -6.876016117452335430e-02 7.606241724561433985e-03
3.569856359574027915e-02 -7.218830934254703846e-02 -1.130038818655722949e-02 1.785712059292163419e-04
-3.670311378212044728e-02 1.905320690631996661e-02 -9.083094068298686041e-03 -6.154078197675718134e-03
2.365244089295614680e-02 4.257787730140073258e-03 2.684361104483171806e-02 1.139158771857642222e-02
4.112155373316871143e-02 -3.347906261527686805e-02 -2.907551822265285954e-02 8.947589206252033397e-03
4.749420813877034547e-02 -1.927532023124946259e-02 -4.466808452079711403e-03 1.217595593094559191e-02
-8.489339704001009712e-05 -3.367292001992595873e-02 2.143186274294732116e-02 -5.305126785770155826e-03
1.123337653319349261e-01 6.180559563167762477e-02 1.034715802696299508e-01 -3.521860194639985647e-02
4.257011188685397296e-02 2.267505926851650852e-02 8.723358107995236518e-03 2.085895975707456260e-02
2.316874673702762691e-02 3.303398776656987345e-03 5.089817274813264111e-04 1.151086753419899161e-02
2.085149240912042082e-02 -2.503476486253123495e-02 -1.141091086356603099e-02 -3.280713218703739786e-03
-3.076057337204309711e-02 4.880546234736337502e-02 -3.800964074507950929e-02 -2.605367132559284656e-03
2.003123924024955566e-02 -4.093158893328009695e-02 2.356584831723190212e-04 -3.739448964788768658e-03
-1.112884069110400961e-03 -3.878342246074111942e-03 -3.312049005891600645e-02 -3.443309639753268023e-03
-3.667947788884496491e-02 8.265249128183034186e-03 -5.616954322121115589e-02 -1.429877105400147695e-02
4.749350281264226592e-02 -6.009445981354442912e-02 4.853282231215218234e-02 1.319236773189629182e-02
9.583028576261413967e-03 -3.122859339132601567e-02 -4.383521569746674703e-05 -3.063255824966650952e-03
-7.429945481275655912e-03 -3.131428084440500414e-02 -3.044103494826357775e-04 -7.960725318047102636e-03
1.847109936981210579e-02 -5.888180234976172871e-03 4.053646396798459006e-02 7.067347623507203198e-03
4.185173395641800936e-02 2.355810631970938623e-02 3.687217731789105973e-02 2.094476501784389363e-02
-1.435273227091334383e-03 -4.276671863949594449e-02 8.095333713190504613e-03 -1.258451262016999778e-02
2.332415105835257407e-02 4.277902129649258089e-02 1.467192305168573720e-02 1.848432749944582329e-02
1.649610693987546908e-02 1.343580893050046361e-02 9.054366134385632287e-03 9.743507607931758963e-03
1.472315499824968822e-03 -6.991588597268155042e-03 3.322287836835276145e-03 2.484791870239740161e-03
1.711497202751020505e-02 3.492347556212544585e-02 -4.141516029817778055e-02 -1.036217702705318974e-02
-1.375379254590802141e-03 1.362181697974806753e-02 -5.704465322867539705e-03 -2.893144020642838838e-03
3.070392640435786608e-02 -2.072206058111934063e-02 4.981652592433599008e-02 1.977838184684742318e-03
3.879187514746854776e-02 -7.248313932868216680e-02 1.521533406279336649e-02 6.057077945252257664e-03
5.739075355704243570e-03 2.504898388564603257e-02 4.721358730946099980e-02 7.657021201130037938e-03
1.789798347833370176e-02 -4.515295640205613248e-02 -1.388772223338273493e-02 -1.757798652621669682e-03
-5.608816039605628995e-02 5.401170875276110894e-02 -1.221485527007225118e-02 -1.317390887633358362e-02
1.164721283060242245e-02 -4.675989795625475065e-02 -3.635338119615314639e-02 -3.266229114646375560e-03
7.236073702576568088e-03 3.919252467646604926e-02 4.279142776866302206e-02 1.054539910788492713e-02
2.185735037737219014e-02 -1.302491177141049117e-02 6.011463885516946104e-02 4.137948088307171271e-03
-3.264174311571462622e-02 -5.022413561177922585e-03 1.569291649298292304e-02 -1.302290132805086244e-02
-4.924416616938917740e-04 -4.071983020304849321e-03 -5.195672040942340281e-02 -2.485232420023901923e-03
3.423016235229924594e-03 1.264313090690726872e-02 -2.795377369067290549e-02 1.576720212767321978e-03
-6.979907183313194957e-03 -3.478379822081746945e-04 2.200623491034756768e-02 -2.293682770517549516e-03
-2.144859376520485278e-02 1.928461231935194595e-03 -2.010288116677753228e-02 -8.040335278846491920e-03
1.771903035488903849e-02 -1.031302308369343688e-02 1.878441667313050442e-02 3.823440042381687567e-03
-1.903736341631949089e-02 -2.621179862683187950e-02 -5.542252895616962653e-03 -1.489770212942104557e-02
-3.569163942471725859e-02 1.817727889990159232e-02 -4.369537889666930824e-02 -9.747349076786218647e-03
-1.482915991117773804e-03 4.617574531847583319e-02 4.945175653409373401e-02 1.018870891073618209e-02
-6.443936222541912784e-03 2.769262945484734714e-02 1.284975136015638689e-02 3.596050078456299558e-03
-2.231726117695728880e-03 4.484596633303918056e-02 2.055994405921065735e-02 1.325036847751231116e-02
3.733863982617965926e-02 -4.523193886063256453e-02 4.654165862068851411e-02 7.649945458279248760e-03
1.198929099806038401e-02 4.894647717586051577e-03 4.092855952219640742e-02 1.105408574631937951e-02
2.073157452604379100e-02 7.862866547912074691e-03 4.868209718709352180e-02 9.548990956956975723e-03
-1.361573387915105716e-02 6.287725287645119787e-02 -4.115328062074147253e-02 4.851061449229257354e-03
-5.076318533101174119e-02 2.555166433322545588e-02 -4.977437982132667388e-02 -1.406279046033874838e-02
2.640655952538116177e-02 5.351674921040859741e-03 1.607872431515808753e-03 1.081278351936007867e-02
1.188769197711589398e-03 1.012824791628992235e-02 1.877466451786165627e-02 6.742045460187712919e-04
1.243815737972302042e-02 -2.821386427389063756e-02 4.323328521706293337e-02 6.707680614233137162e-03
3.547595120963931148e-02 8.699633878694731579e-03 -3.340315816028461421e-02 1.388321242534961905e-02
2.125760538698112656e-02 -5.566387389537406222e-02 -1.755722816813507989e-02 -2.515161243146041628e-03
-1.033576561942038674e-02 -4.812619019758216515e-02 -1.619903323173637125e-02 -1.319867929794051736e-02
1.779400573559673793e-02 -4.803015597679513408e-03 2.183934832582410876e-02 1.079887023848464037e-02
-3.627684796641911236e-02 5.118654318818390003e-02 3.316810809951017264e-02 -4.378285389924661992e-03
1.339581401694019298e-02 -1.655708561719499133e-03 2.801370218368919376e-02 6.746819533318226640e-03
-3.007543651659882328e-02 -2.299335179888244846e-02 -4.153792044843430259e-02 1.953869153299704273e-02
-1.382124138883642633e-02 1.484109240071886451e-02 1.370140301946322879e-02 -3.699474375277382859e-03
5.351650164536447297e-03 -2.871385002279644438e-02 -2.424147305399370483e-02 -1.809424142733392178e-03
6.359811668244134963e-02 -2.214442997368429658e-02 6.448833192315836516e-02 2.212953699056368490e-02
-3.496470344704347209e-04 -2.580693244042036108e-02 -4.240301985601692414e-02 -8.853045974169627269e-03
4.345299081812130371e-02 -6.064337157399631029e-02 -3.382759274005583960e-02 3.756677199763738036e-03
-8.288775748494641230e-03 -3.760958756566364775e-02 -4.773898925907557600e-02 -1.175976046908636281e-02
5.675687146195677185e-02 2.963010249699792389e-02 -8.365004701517235464e-03 2.593757636368495406e-02
7.411169380119229065e-03 7.184057905302055312e-03 -3.383513426412614739e-02 3.137469667978113512e-04
-1.720156294742926709e-03 2.601369437183357475e-02 2.903634600860915960e-02 3.696595164820871363e-03
-6.413983008882805092e-02 6.759420066614436548e-03 -1.697420972666342440e-02 -2.293737320720284564e-02
6.705432720377468847e-02 4.257971228209981446e-03 4.130637512288841406e-02 3.235147216213126592e-02
-2.445152046429090176e-02 3.864749381383894566e-02 2.559192571397163676e-02 3.355487239503423483e-04
-1.321922821369163770e-03 -1.514087759398000631e-02 -4.026091555461617545e-03 -1.874889150535407950e-03
3.641990440104736493e-02 -4.754482087963898818e-02 -2.378720849830174948e-03 4.770694140434016649e-03
-1.199162333405659302e-02 -4.557696517829320365e-02 -2.116175539229357694e-02 -1.355245349965578279e-02
3.044812127884122602e-02 1.001371402545747288e-02 -5.160344289653683025e-02 7.489314130992719143e-01
2.163218418800595677e-02 5.615687645191159982e-02 8.757984931954882965e-03 1.906521923393059495e-02
-8.157918634685340856e-03 -7.334078923895617080e-03 1.278562811255297242e-02 4.410765381295538197e-03
-3.252439444392032919e-03 -3.169858364012977103e-02 -6.224033318544752724e-02 -6.607389162547108556e-03
6.600219585152476698e-02 -7.501830536249187720e-02 5.449385373720398024e-02 1.623536599049966653e-02
-2.502107891446673713e-02 3.653272549954544174e-02 3.857441503444351133e-02 2.930937294602697701e-04
-1.799972451791768610e-02 -9.173191462569134716e-03 1.841163430625250216e-02 -6.703449091354327094e-03
3.547920384871999094e-02 -3.686852936062239884e-03 5.251004154120348516e-02 1.150211724074311735e-02
4.378147717252334897e-02 -1.923109708762181166e-02 2.634789059025030578e-02 1.167775510044119329e-02
-3.777256234387296047e-02 5.867095720294015354e-02 -4.938939186591744706e-04 -2.224773628278672345e-03
3.327725309571859941e-02 -2.366090336751816049e-04 -3.025401340089658997e-02 8.389642106342546854e-03
-2.728439861505870326e-02 1.771795830728364537e-02 -2.678080409642775300e-02 -7.069563959460224874e-03
1.183486109697752184e-02 -3.120895213493070017e-02 2.080917136428835773e-02 -4.184579236761791499e-03
-1.967284301395959972e-02 2.678983211228308167e-02 1.695741773203208319e-02 -6.734029089747055156e-03
-3.180317228036148858e-02 3.525681680363107473e-02 1.306732775146393112e-02 -6.291612421473039007e-03
-3.180280264123429984e-02 -2.735472049015230667e-02 -4.549999227613792108e-02 -1.780859345404687752e-02
6.779234563926772594e-02 -3.329727886670633824e-02 4.898030872605168423e-02 2.141512607589090081e-02
-4.889194247428040041e-02 4.521907582868692904e-02 -4.377651980292637107e-02 -1.144430630538029701e-02
-1.546481967494201838e-02 6.185021943147336020e-03 1.904932451007648048e-02 -3.206144279470746639e-03
-1.315665362745106585e-02 1.269090469757244363e-02 1.177371013465763547e-02 -1.658923546722334587e-03
-3.492834186684855291e-02 -3.172057565229695342e-02 -2.749020645756282757e-02 -1.991884964101703695e-02
-7.943864866623011334e-03 -6.149082331795624121e-03 -2.571429474585941368e-03 -2.826102864395990157e-03
-1.859047353223869381e-03 -6.003044426590681965e-02 -5.760455895609432886e-02 -1.295903236221358605e-02
-1.362021913479760649e-02 3.047196479717361253e-02 3.642636432158073093e-03 -5.244667197451349273e-04
2.436909529005960168e-02 -3.233171920623302553e-02 -1.784740547097509941e-02 3.237680259323757071e-03
4.098083555288279528e-02 -4.887625800250482155e-02 -1.016085229818371530e-02 5.487861378738388869e-03
2.538615028050427228e-02 -7.817290369569681457e-03 1.912669880317123886e-02 7.874100402005486388e-03
1.745521193597074014e-02 2.034496335121869018e-02 5.848564877053914757e-02 1.675062191415560911e-02
-9.479931800324041882e-03 -1.618728342916959245e-02 5.030054014173510057e-02 -8.047943059738634289e-03
5.556599744372878180e-02 -4.397634455726505409e-02 5.644214570957619553e-02 1.427732482548841643e-02
3.123083662284683714e-03 -1.607987516806054853e-02 -2.043489590819945814e-02 -6.128474765653127345e-04
2.242877542654858006e-03 8.582529693252132982e-03 -2.523016003154033779e-03 4.164980535364883052e-03
2.014189026362028095e-02 1.327653455550934294e-02 -3.369112689410010131e-02 -7.471445834191554544e-03
-8.373333421299266471e-03 -1.370564447746780955e-02 2.444182586950914993e-03 -3.646852060375373444e-03
-1.680918663900011698e-02 -1.598487303046523117e-02 1.213633834000353790e-03 -6.545974279113778507e-03
3.490847806836417516e-02 -4.680940064956291835e-02 3.163693178095432212e-02 3.146035482822207713e-03
5.971716983988165084e-02 -8.493286289175694739e-03 -2.670232875495540462e-02 2.033329198010068450e-02
-1.892048438653667897e-02 3.788512785089216683e-02 -3.413367902955031369e-02 -2.745135881264301660e-03
4.315909649422959571e-02 -3.860960996104891019e-02 3.964270091534902868e-02 8.143089158250366860e-03
1.752268513013526680e-02 -5.601776356964251712e-03 -4.426431738680466910e-02 4.042226634050923202e-03
2.310729559235484218e-02 -6.109439400898009770e-02 -3.322418253419275047e-02 -3.418276961325551755e-03
2.556296884560666297e-02 4.680049055840582867e-02 3.693023734817069137e-02 1.834228233417114357e-02
2.306705071514855362e-02 7.524385888490438094e-03 -3.897178645395380642e-02 8.036018903593058690e-03
-1.251125122028989844e-02 2.135217962108482484e-02 1.646687623357998009e-02 -2.626819817876649074e-03
3.593022104532686556e-02 -1.958450904060085249e-02 7.444634591859618060e-03 1.043955997637928228e-02
1.491028259745009674e-02 -1.638340943758180568e-02 -3.612309468921897498e-02 2.374423541626954296e-03
-3.517015661366238582e-02 3.604979622968820796e-02 -5.280392054184562811e-02 -5.899544200466858880e-03
1.641895322396555185e-03 5.113920361435174422e-02 -6.899204980968956166e-03 9.544052952855607702e-03
4.359961737467761556e-02 4.243542109113222251e-03 2.416247160655815227e-02 2.048931552840833892e-02
-4.944184318421890323e-03 3.137113361751472235e-02 3.490578589070138238e-02 4.908893387156687028e-03
-7.762622044029915402e-03 -6.959434874235210719e-03 -3.089388113685132692e-02 -8.392755571816788371e-03
-1.065075975715797443e-02 1.929119922079023178e-02 -3.274756552367556750e-02 -1.537051117241073185e-03
1.696043311044495225e-02 3.921834945522686966e-02 -1.958036742895041468e-02 1.410536103176410726e-02
-2.859776706101302066e-03 2.763025200693370025e-03 -3.996887078864271720e-02 -1.004519296756225004e-03
3.709196618952792512e-02 -4.004780805412355704e-02 3.799678220351053459e-02 7.457998047557654400e-03
5.522303726928107226e-02 2.727258400606703825e-02 6.334247752693673850e-02 2.852342067738516951e-02
-3.682877192372967928e-02 -3.353254183765497221e-02 -6.476973899357758857e-02 -2.280110898989418794e-02
-2.357594408037219300e-02 6.437624141506667619e-02 5.546820208370024236e-02 4.935934609946232739e-03
3.717608073754707920e-02 -1.540837068194744579e-02 4.948831305112618567e-02 2.124324028854981949e-02
1.991847556408401707e-02 -9.709384719634900655e-04 3.125138051368909348e-02 7.281192910983471517e-03
3.054405536022007650e-02 -4.542572908229431522e-02 1.254653308924048513e-02 1.357339332884271305e-02
-7.127204150487724543e-03 -7.807292204880025019e-04 2.572818410254407509e-02 -9.019931497174921153e-03
-5.910147722474015652e-03 1.104451271272480217e-02 9.855617263275289266e-03 6.068405525703442389e-03
1.131615843242454907e-03 -9.939431492141916069e-03 2.509817690208140592e-02 -2.527105901374324115e-03
-2.291711967512049045e-02 -1.402498943478963297e-02 -5.923152484012090407e-02 -1.179968795447796509e-02
-1.111016893409235741e-02 4.540812036109518994e-03 2.286323161891851141e-02 -5.405275942598390150e-03
-7.426340276155422339e-03 -1.573143555251745734e-02 -5.147835013382539432e-02 -5.125611598331988525e-03
3.319574754447344317e-02 -8.787456463801579520e-03 1.065456795823300704e-02 8.029421657532521614e-03
-4.884608889397721622e-03 1.383707250254003623e-02 1.342853829991568805e-02 -5.841623180333049543e-05
1.173795975843864962e-02 3.139227426722348419e-02 2.025319231907373244e-02 9.671551046637664670e-03
-2.390253649141211006e-03 -1.206412390227885531e-02 3.687791230341918441e-02 -1.445062903081634860e-03
1.573156170217236693e-02 -3.884872339347312381e-02 9.106467347398828488e-03 -1.363282701581134283e-03
-1.370370516057946297e-02 -2.927025265526288656e-03 -1.233757420379767711e-03 -9.152858718030492530e-03
2.067838620438761793e-02 8.377983793865187434e-03 3.768316095481651778e-02 8.919081001454566213e-03
3.468660955500784543e-02 -2.487602768446271415e-02 -2.646835015885064951e-02 3.756920672015075062e-03
-2.511196681503024761e-02 2.883736178352120164e-02 -4.321994747159896288e-02 -5.078767814779832669e-03
1.196897909294423546e-03 -3.906660140130743808e-02 2.778876917822029752e-02 -3.656270913045158669e-03
4.663449327604245881e-02 -7.437775864359495726e-02 3.359482416272251831e-02 1.020439222816444530e-02
-4.622972020186110614e-02 1.040724642490576529e-02 -4.608750903916240121e-02 -1.808978985700750858e-02
6.662882693590974764e-03 2.840334500364186110e-02 -1.319276979242992335e-03 8.986142596264222807e-03
-2.471351911294423012e-02 -3.287710433948647093e-02 -5.579979464683391954e-02 -2.048460962351065021e-02
-2.617164029295110730e-02 1.963531534419449276e-02 -5.719303427226242464e-02 -6.717770305778820311e-03
-3.120165566291743450e-02 5.172721771835332022e-02 3.355295130011202304e-02 -2.258505658658640819e-04
6.042427046959354328e-03 1.751213306614292711e-02 5.801495938179430933e-02 5.375136466933279344e-03
4.902830730125775499e-02 -1.487493169276073689e-02 5.907131959337436761e-02 1.780982029217676593e-02
-1.999020310780981469e-03 9.186974219086058852e-03 -2.041290609839831530e-02 3.927036514233611490e-03
4.662652870748182528e-03 -1.700651071073568804e-02 1.510152375310748474e-02 -1.977136559337188976e-03
-5.358362169120342057e-03 -1.446694064658207712e-02 1.509539911817639642e-02 -3.935484078370126738e-03
-4.351565178602188194e-02 3.951108137966789953e-03 -3.227066994059606120e-02 -1.634454051495170049e-02
1.148940723511526416e-02 3.013463350044555747e-02 1.858846074822462918e-02 8.509328233441729519e-03
-5.057287436253646642e-03 4.810115052891878601e-02 1.750381175841190726e-02 1.147219953531769011e-02
5.407382207343152704e-03 -3.641644938754274273e-03 2.858442366176528263e-02 -4.040733600675689222e-03
-7.166994554486006905e-03 -3.410678524178407944e-02 -5.564538280915291846e-02 -1.247294322131403503e-02
6.738465572896082910e-03 -6.094894384497151485e-02 7.203116017053242358e-03 -6.692471109211861093e-03
1.480009806074613146e-02 -1.159981626584858337e-02 -3.386919405749613809e-02 3.039195075321797588e-03
-1.880586333110093392e-02 -5.105840462560194519e-03 1.110643473778682132e-02 -6.757292822681384634e-03
2.183936928573482900e-03 -1.632836313331247416e-02 -1.262595083986238140e-02 -8.742157724867369653e-03
-2.591496066166356239e-03 -1.826165223894547773e-02 -5.169690118998122863e-02 -4.635620510167002412e-03
1.103814817791164702e-03 -8.729816196467598752e-03 1.590548422925902594e-02 1.304895695271414066e-02
2.598714106047940800e-02 -2.298271365476609387e-02 4.489043204059662423e-02 5.144354262139806677e-03
-2.204512041818346493e-02 1.745383943381858052e-02 -4.481304398325323263e-02 -7.517683292042619952e-03
1.695767797760136184e-02 -1.562560798214410532e-02 1.284811561220151367e-02 2.700112635983758017e-03
-5.340267727014023739e-03 -1.085536306243413754e-02 3.622184972103659889e-02 3.831276713863662406e-04
1.971143401287309485e-02 8.311919891121568107e-03 3.568410360922287528e-02 1.060281788421377734e-02
-3.089026891110965498e-02 4.041492040808850050e-02 4.566678502986624283e-02 -3.918778529017352859e-03
2.498778480888390330e-02 -1.800896464563470772e-02 -1.232802344190435904e-02 6.488509333238455003e-03
3.983321993541402706e-02 -1.967819775422233186e-02 1.039427620250509172e-02 8.180703135371187457e-03
-1.338857676272610375e-02 8.185082288925945443e-03 -4.017531576079929473e-02 -8.226623926833360675e-03
2.827335054128290656e-03 -1.116550087363929293e-02 3.357789850001133974e-02 -6.414137864920371745e-03
-3.710248253532760516e-03 4.171556265963145133e-02 -3.604270899395191352e-02 6.780871969382234153e-03
4.124895765355657273e-02 -3.784557293058326416e-02 -1.182830099564965596e-03 1.093396432368642056e-02
1.482493869202668006e-02 -7.541935765894411739e-03 4.050336623655845930e-02 3.483533950507966201e-03
-1.563868780605780218e-02 -6.696240699816252695e-03 -2.879921541460522469e-02 -1.078555547381046358e-02
1.696320809784769221e-02 -6.630985254073566704e-02 1.104830309883323911e-02 -6.380195616478100303e-03
1.274097403007074143e-02 -4.265619734265217212e-03 4.410067722107734872e-02 8.059940010476811289e-04
-9.932586391794919617e-03 1.060035396881448162e-02 5.809624838092851407e-03 -1.229142050087501763e-03
-1.411275822832810424e-02 2.978327650099719948e-02 7.528964768413382372e-03 1.078064295945906342e-03
-4.130853025670960105e-02 2.461595910444114299e-02 -3.252295661060036758e-02 -1.149210045040260746e-02
5.599364647139566664e-02 -6.077533875830087168e-02 6.480753502003184369e-03 1.041080130163098312e-02
-1.234981385782850209e-02 3.725443559033118912e-02 -3.354209454334597384e-02 1.160455959197867525e-03
8.460649790116589117e-03 8.475780280302399813e-03 -4.571449016851293796e-03 3.884389597670512284e-03
-1.646927480676856417e-02 -1.436373963135122612e-04 -3.361386612993725459e-02 4.315586796647136875e-04
1.910795639278089000e-02 -2.129062611774400898e-02 2.328710488425347544e-02 2.745478716387113674e-03
2.585835098218614361e-02 6.405807988014705114e-03 7.104974433698968417e-02 -1.398796403974723185e-02
4.032493545005237656e-02 -2.642471017152952378e-02 -2.649625698393420770e-02 7.322193645320429316e-03
-2.298205790460184500e-02 2.361767425449905894e-02 -4.445810653772773458e-02 -4.135420726212584754e-03
-5.710962157964251038e-03 -6.800837258678217589e-02 -6.632360708395189375e-02 -1.594836001549301135e-02
-8.579412084322840179e-03 1.203226630192689300e-02 -5.334932690669905511e-03 -4.578114972855974914e-04
-3.962883956481438874e-02 6.655570100353236547e-03 -5.651404688319581343e-02 -9.739282395619245844e-03
-2.291316249363525154e-02 3.954122168999130854e-02 -5.012343256861023083e-02 6.275228059548368180e-06
-4.514031337868137234e-02 2.792802844748010563e-02 -6.431610884835434194e-02 -1.285519328868365944e-02
-5.991051091508896656e-03 2.102721602394731770e-02 4.578808275177631353e-05 2.841970874914851591e-03
-5.474591884651036633e-02 3.957492084173490354e-02 2.411371218745211008e-03 -1.312990245606578815e-02
3.166780621356436037e-02 -1.905185777994775759e-02 -3.296263759004242760e-02 6.393172717568747394e-03
4.683860193236902801e-03 1.784839538282606206e-02 -1.062428301454702677e-02 4.791214245996168984e-03
-3.137336785655807456e-03 -6.756234366049126841e-04 1.754811457654361154e-02 4.098491482632123616e-03
-3.604042096965509590e-02 4.432609677377129243e-02 3.438115242234227042e-02 -4.375041754615932761e-03
2.048177999340462102e-02 -1.689547624934811809e-02 8.313313343936520883e-03 3.802114838840821558e-03
-1.672628825826130792e-03 3.554998238757088591e-02 -2.076146751128962742e-02 5.088894690830486622e-03
5.432255020318246634e-03 1.517546320896567651e-02 4.754667298403907755e-02 1.508715705615075106e-02
1.531184044603092591e-02 -3.930818862820438346e-03 -2.668338621979712659e-03 5.314076675869061281e-03
-1.426978459334380528e-02 5.222956007800982903e-02 -4.296206159566629337e-03 1.780930505227618652e-03
-2.045162157194981359e-02 -8.784167405129465409e-03 2.369547772059173163e-02 -6.422077308935416305e-03
3.398952452862557400e-02 2.671842542247569990e-03 -7.905389728458882270e-03 1.317181496792707400e-02
-1.418504144323419133e-02 -3.331347398844409363e-02 -5.489422282305164019e-02 -1.485026664812440569e-02
-3.272523745778777547e-03 3.353754563863711041e-02 2.351796719885541984e-03 2.550928454512273787e-03
2.858009784197003064e-02 -3.736590206836753331e-02 -2.099955501726029350e-02 5.663391400235246245e-03
-2.083313184269501572e-02 -6.079105283903382152e-03 -2.411382175777088480e-02 -1.205787417892576104e-02
-6.242394287158553080e-03 -4.933778644104377248e-02 3.023844521749156217e-02 -1.128945904282713589e-02
2.056702021500327049e-02 7.522110669650721414e-03 4.196084853253383151e-02 8.139662433041278816e-03
2.209547805318519756e-02 -4.307916717834264775e-02 3.414445199771263401e-02 -4.567411257113001416e-03
8.637309784556213206e-05 1.240645065162604595e-02 6.409659958591021334e-02 2.516940707935341488e-03
2.510383389257539108e-02 -1.409269059221169781e-02 -3.425949502856739503e-03 7.882190693983425270e-03
3.943371785660158141e-02 -1.370858069831639575e-02 4.955483954516633205e-02 1.048550236759620939e-02
7.782434427114893333e-03 -3.591876968996312799e-04 -4.278662857980427940e-03 4.172549190363770977e-03
-3.960565962326111772e-02 1.798369384856118511e-02 -1.069870085720392439e-02 -1.177922420317321570e-02
1.047692765824749343e-02 1.313773580295545321e-02 4.043143877402659986e-03 4.568291814101195676e-03
-9.131221700122423707e-03 -1.351223679093617284e-02 -5.803140097173228179e-02 -4.861879086580704785e-03
2.995363411909857804e-02 1.108021690572901993e-02 -3.970253452499834107e-02 1.224097399931003624e-02
1.041028490754942332e-02 1.818842506098010056e-02 3.642346853202354379e-02 5.377222535732561690e-03
-1.613783191482530410e-02 1.756848238290919639e-03 -3.368215733930002287e-02 -5.835420051003467959e-03
4.572467501977400123e-02 -1.523590923891122474e-02 4.912636993000500663e-02 1.370856048404190709e-02
-3.933179668977054844e-02 5.963084958640907374e-02 -5.157036575303275416e-02 -7.749100742470464535e-03
-5.065585366441036422e-03 -1.442853107257935363e-02 -2.252362378787074390e-02 -6.814928917895367831e-03
-3.999618525693874466e-02 -3.528802223467072952e-02 -4.186465849646660298e-02 -2.345815723598251856e-02
-1.966546535058093931e-02 1.485255748038269256e-02 -3.670687647964855638e-02 -3.973541561338896078e-03
-3.067137797286526371e-02 -4.984697356382100653e-03 -1.285749243690742331e-02 -1.231160216562708805e-02
1.933107350907726715e-02 -4.999743945054015842e-02 -1.634776058514065405e-02 -2.637275572611722050e-03
6.476678191376147170e-03 2.079084113408498011e-02 -2.562278792603189803e-02 1.392619910249002710e-02
1.132841121885921204e-02 1.625434596686823035e-03 2.635491005951486401e-02 8.646214460146869549e-03
-1.793148736909125351e-02 -2.340399906023277882e-02 -2.155586169610464523e-02 -1.092176090206916327e-02
-6.038722462311841427e-03 2.573984194833400796e-02 -3.696988358845411729e-03 5.128363261370757868e-03
2.452407237123134173e-02 -1.465541092019209506e-02 1.463869242631220431e-02 4.326532790517245534e-03
1.995026830798595288e-02 -6.719404975401207722e-03 6.227397662033579140e-02 8.787107707786316699e-04
1.821854763822894005e-02 6.344148291945487725e-03 2.332035054108335184e-02 9.576531111756172998e-03
-1.487775095440437706e-02 4.035703719406934925e-02 -1.820005875984065727e-02 2.937526291328100298e-03
6.647301228670610650e-03 -3.029462481093236209e-02 -4.720396427169687437e-02 -3.544464584870611785e-03
2.333596404669486570e-03 -3.347250652100076246e-02 -1.843143339230067165e-02 -4.673728526459997382e-03
1.681655145236445742e-02 1.222690758460539574e-02 5.249767527536189013e-03 7.622902796468968879e-03
1.362124136657358840e-02 -7.095985381955871585e-02 -2.144046807468115781e-02 -7.260125094040193253e-03
-2.634465696890020414e-02 3.543559077036222832e-02 3.987405126678640957e-03 -6.299743050778365897e-03
6.324237811395712339e-02 -7.846719181872247040e-02 7.294167302990838854e-03 1.299362918867224756e-02
-2.056540055472128037e-02 4.099498271633007784e-02 -1.002908438165290260e-02 -1.079255672739055970e-03
3.542777021414329763e-02 -1.825772218644501621e-02 2.462963984309978968e-02 9.697080686537963914e-03
8.970418561903803836e-03 -3.394467102260167318e-02 8.473353764306260083e-03 -1.674382106300310435e-03
6.636073032221103535e-03 -2.742851988913298789e-02 2.139581080119196121e-02 -6.497389462756583169e-03
-1.319183535207745818e-02 -1.673435964635399190e-02 -4.237257960769971743e-02 -1.159252107172384708e-02
-5.910724597780290385e-02 4.448851376028036680e-02 -5.777270133813197650e-02 -1.686471928036282694e-02
-1.826850421838177932e-02 1.542525440188098791e-02 -5.471594963029861175e-02 -5.498596413059097902e-03
2.978129191435869086e-02 -9.740040480598562839e-03 -2.084359651268798130e-02 1.015097746900996481e-02
2.418229910950579764e-02 -7.117612331773949183e-03 3.632269754683176838e-02 7.629147723304241339e-03
5.085916480091988955e-03 -3.538918249981153064e-02 -2.541677118531984053e-02 -4.099794664117153986e-03
2.023052353031465616e-03 2.051289883267461839e-02 1.722813205385522600e-02 3.461732021040147839e-03
-1.881555886199477376e-02 2.033251704858999795e-02 -5.345470819741796054e-02 -2.581464256639230161e-03
3.746217983782492572e-02 1.758625239039221175e-02 2.256151732684471764e-02 1.992698901765382197e-02
-1.346831728121664767e-02 1.653014919519487161e-02 1.444530149583759214e-02 -8.968921199198798440e-04
-2.874833426308773948e-02 5.341545100694389259e-02 1.383713341125341419e-04 -9.811379968635248680e-03
-2.577622040287801813e-02 3.482715449322011658e-02 -1.918921583669000452e-02 -3.136022032092926435e-03
2.282131168967667292e-03 6.090666922012972356e-02 5.490878420258455545e-02 1.214273803602135965e-02
2.692688726495501717e-03 -5.111082241264281595e-02 -3.304627684172625063e-02 -8.634412008400484465e-03
1.125355546411982042e-03 1.306958373842813034e-02 3.828499449473492244e-02 6.049220692622799510e-03
-5.305827083902337621e-02 7.044438060698635096e-02 -5.271382425143768952e-03 -7.373918952040255798e-03
7.453449330933152421e-03 -4.934700884925197206e-02 3.124606974008160842e-02 -5.297521815850325146e-03
-2.511029587767322786e-03 -4.548573296600273014e-02 2.519327720458915121e-02 -8.931322551271948448e-03
1.881247304988928684e-02 -8.180621336771597141e-02 -1.835551550052596723e-02 -6.771084738543395841e-03
-4.057961858523127102e-02 1.611419072342672523e-02 -3.428926925321376662e-02 -1.241213277787328075e-02
3.723813168814248120e-02 -2.097649762189652753e-02 7.468585991836438308e-03 1.015538066735547154e-02
-1.488339415795815641e-02 -4.960769781120202664e-03 -3.333018553481850721e-03 -1.700049758316124222e-03
-2.513801135775371731e-02 4.811165024216938757e-02 2.241285360585885955e-02 3.183652893817653061e-03
1.411669498737306086e-02 2.202574241699854773e-02 4.737018434346422502e-02 -9.471751406991357758e-03
-5.443399340195296393e-02 1.205595733069614491e-02 -6.384047963019352789e-02 -2.008486948847542156e-02
9.976643207083524256e-03 -2.066325790963295314e-02 5.243769807050255305e-03 -1.425525032773067866e-03
1.403298012966159268e-02 -4.328795788260048245e-03 -3.017419515597195498e-02 -2.004726845841257789e-03
1.476082701647366859e-02 -2.272720939184789263e-02 6.891867670178059187e-03 -3.210945387360085185e-03
1.334012137368877256e-02 -5.331445644461771383e-02 -5.234470919546388434e-02 -6.798354252124471850e-03
3.806091740219998132e-02 3.402590026596188227e-02 -3.308191682476562933e-03 2.001719683207325504e-02
5.289800900280968582e-03 2.053645270147913537e-02 -2.814906685986134222e-02 1.250995053759591281e-02
3.775723262553878912e-02 -3.094157873974840919e-02 4.433918188212818828e-03 7.184152003074122626e-03
6.182130845962304638e-02 -1.431156533065804787e-02 2.782571326842153345e-02 2.068927785745090092e-02
-4.152959381560336616e-02 2.079112074402093141e-02 -5.214768406023334579e-02 -1.110770055475918811e-02
-6.740446520925406915e-02 -2.536406409961574834e-02 -3.475144458782667423e-01 -2.224011735149269864e+00
1.977904293108286374e-02 -6.725399591509330366e-02 3.510882335957758726e-02 -2.288903032943662239e-03
5.161944195936398957e-03 -7.074454765619823948e-02 -3.089128669475319638e-02 -1.139381854068562128e-02
3.266831408145906383e-03 1.456320901412814194e-02 -3.569013451086743005e-02 1.517166311594614174e-03
2.323399434815634143e-02 -6.828496758370267150e-02 3.109248272631431539e-02 -8.595687501803256358e-04
-2.932938208986413456e-02 2.890035829555299626e-02 -1.674938917127000160e-02 -7.342457750650638153e-03
2.580820144226663327e-03 2.437620163534528692e-02 4.550039821028092901e-02 3.999921832043343978e-03
-7.567202984741398103e-03 3.248764776408644833e-02 5.007070942154989018e-02 1.783468142896366040e-03
2.683972367877029974e-02 -4.745258339183276025e-02 -8.347747190970719253e-03 3.850056925945634975e-03
-7.259765262870932108e-03 -5.647591429685399657e-03 -1.929187316943718408e-02 -1.510949072177050941e-02
1.137538249413943582e-02 8.243932576834690079e-03 -8.572894675462823869e-03 -4.434727578165482791e-03
-3.482977266592057752e-02 3.580298773842634924e-02 1.894472537401540452e-02 -6.911187214874364021e-03
-4.308912001789105134e-03 1.561826031945153827e-02 3.331997304877937910e-02 2.053508619487040988e-03
1.249227649324568395e-02 -2.484046583733050262e-02 9.610490877856861167e-03 -1.394005802316469365e-03
1.108273755448400261e-02 1.703269399268028325e-02 3.824333216928778312e-02 7.408209289149089889e-03
